%YAML:1.0
---
opencv_ml_svm:
   format: 3
   svmType: C_SVC
   kernel:
      type: LINEAR
   C: 1.
   term_criteria: { epsilon:1.1920928955078125e-07, iterations:1000 }
   var_count: 1764
   class_count: 2
   class_labels: !!opencv-matrix
      rows: 2
      cols: 1
      dt: i
      data: [ 0, 1 ]
   sv_total: 1
   support_vectors:
      - [ -2.16398463e-02, -5.59792593e-02, -3.51090729e-02,
          -4.74626906e-02, -1.79389061e-03, -2.71950811e-02,
          -4.63275313e-02, -2.25483682e-02, -5.42905275e-03,
          3.42607498e-03, -4.17832099e-02, -6.93934690e-03,
          -7.72309862e-03, 1.04977209e-02, -8.58474709e-03,
          -6.92949593e-02, -4.53580916e-02, 7.81524461e-03,
          2.67469999e-03, -8.56993720e-03, -3.05493223e-03,
          -3.98137979e-02, 5.04215853e-03, -4.62322906e-02,
          -5.86098172e-02, -2.74486411e-02, 4.99623129e-03,
          -9.09491628e-03, 8.90370179e-03, 3.73052992e-02,
          5.90837980e-03, 2.27510035e-02, -1.78665370e-02,
          -6.59242198e-02, -2.26933807e-02, 1.83701199e-02,
          8.85442924e-03, -3.33168954e-02, -8.12792033e-03,
          -1.22342091e-02, 3.85349058e-02, -1.15791438e-02,
          -6.51664436e-02, -2.78205909e-02, 1.56072387e-02,
          1.10177537e-02, -4.96972874e-02, -3.54747549e-02,
          -2.17738189e-02, 3.61565640e-03, -5.81398653e-03,
          -4.28289957e-02, -1.45864859e-02, 4.11799364e-03,
          1.93529529e-03, 2.61359441e-04, 1.12530142e-02,
          -5.87559538e-03, 4.01709788e-02, -4.49121930e-03,
          -4.00626883e-02, 5.16542187e-03, 5.54943159e-02,
          -1.98745076e-02, -8.42698887e-02, -6.90345392e-02,
          -1.21762948e-02, -8.67734291e-03, -1.85275786e-02,
          -3.15663293e-02, 1.27511704e-02, 1.04876526e-03,
          -1.84153058e-02, -2.99262553e-02, 4.70190216e-03,
          1.44571373e-02, 6.48521185e-02, 1.79045759e-02,
          -4.66014817e-03, 2.05858331e-03, -6.41967356e-03,
          -3.33932340e-02, -6.81865960e-03, 2.56148111e-02,
          4.41053463e-03, 1.89164281e-02, -2.16015745e-02,
          -2.77150292e-02, 3.85051174e-03, -6.42126659e-03,
          -7.87575636e-03, -5.23540787e-02, -4.57350984e-02,
          1.68185588e-03, 4.40188274e-02, -3.13157006e-03,
          9.72512271e-03, 5.14933988e-02, 1.75076891e-02,
          -3.27279903e-02, -1.76044386e-02, 1.01447823e-02,
          6.78715762e-04, 3.11899167e-02, -2.58272458e-02,
          -3.35397311e-02, -1.03679923e-02, -2.49775294e-02,
          -1.71577930e-02, 1.32964319e-03, 3.17077711e-02,
          9.03310254e-03, -4.74676816e-03, -4.46214154e-02,
          -4.31687236e-02, -5.98808192e-03, -1.08014271e-02,
          -7.37400202e-04, 1.38580389e-02, 3.87531854e-02,
          5.45964725e-02, -4.37960029e-03, -2.94577423e-02,
          -4.42209691e-02, -2.85910703e-02, -2.13352628e-02,
          -2.80582774e-02, -9.38677881e-03, 2.36418881e-02,
          3.25281098e-02, 2.40233056e-02, -5.59504982e-03,
          -2.74157170e-02, -4.55591455e-02, -3.89015339e-02,
          -3.43758985e-02, -8.64616421e-04, 7.60795698e-02,
          7.90996104e-02, 4.68237177e-02, -8.97431572e-04,
          -2.89108306e-02, -6.49736151e-02, -7.31606781e-02,
          -1.03931092e-02, 4.72639650e-02, 1.03205621e-01,
          3.70045416e-02, -2.21831240e-02, -1.34654166e-02,
          -2.87377741e-02, -2.84586940e-02, -1.02656418e-02,
          1.18560744e-02, 8.37938711e-02, 1.16673052e-01, 1.33609856e-02,
          -3.89017612e-02, -2.98407804e-02, -2.56601702e-02,
          5.04216459e-03, 5.92670450e-03, -5.25361523e-02,
          2.37259492e-02, 1.23148248e-01, 7.39663318e-02, 1.27405385e-02,
          -1.19602745e-02, -2.82514598e-02, -4.01049145e-02,
          -6.68734685e-02, -2.42424849e-02, 6.97994977e-02,
          1.10600866e-01, 5.81062548e-02, -1.21780038e-02,
          -3.05813942e-02, -6.50998056e-02, -5.06849363e-02,
          -1.82361342e-02, -3.26581229e-03, 8.98892209e-02,
          8.71696845e-02, -1.45897912e-02, -5.75579479e-02,
          -4.08272929e-02, -1.49260759e-02, 4.14045108e-03,
          -2.12149974e-02, 3.43765356e-02, 9.07211378e-02,
          5.73096164e-02, -2.38433443e-02, -3.93534191e-02,
          -3.23059876e-03, 1.43472210e-03, 1.81529243e-02,
          -1.87524464e-02, -2.83525921e-02, 4.86996248e-02,
          7.33191073e-02, 2.29358044e-03, -4.26374599e-02,
          -5.53332604e-02, -3.25202569e-02, -1.95790026e-02,
          -6.30357191e-02, 1.64090842e-02, 1.74855478e-02,
          1.49967773e-02, -1.06701748e-02, -2.44066827e-02,
          -6.31713867e-03, 2.79284194e-02, 1.65328346e-02,
          -2.84054186e-02, 7.13911280e-02, 6.73928335e-02,
          1.83400270e-02, -3.70679237e-02, -5.81530780e-02,
          -1.88419390e-02, -2.28353683e-03, 3.10442988e-02,
          2.29234081e-02, 5.18347695e-02, 3.94089334e-02,
          -7.73518719e-03, -4.13700715e-02, -2.64173727e-02,
          -4.02822345e-02, -2.89234482e-02, -8.53859447e-03,
          3.46340202e-02, 2.57921647e-02, 7.70202745e-03,
          -9.43982042e-03, -2.62808185e-02, -5.13038896e-02,
          -3.09735127e-02, -2.01537949e-03, 1.40449153e-02,
          1.56061389e-02, 3.24885957e-02, 4.84387344e-03,
          -3.38027477e-02, -2.91856136e-02, -2.69042980e-02,
          -6.94530457e-02, -5.17490022e-02, -7.57124415e-03,
          4.77334335e-02, 1.59399100e-02, 3.29829194e-02, 3.18136550e-02,
          -1.27113312e-02, -1.81280449e-02, -6.77805096e-02,
          -7.13602453e-02, -6.19476326e-02, -8.34340975e-03,
          -9.79798846e-04, 4.24007773e-02, 5.09201698e-02,
          1.31528145e-02, 5.83212730e-03, -8.32801498e-03,
          -6.29314408e-02, -4.44823727e-02, 4.45426488e-03,
          1.80699490e-02, 5.93353659e-02, 6.83260113e-02,
          -8.66132695e-03, -5.39110191e-02, -6.69257343e-02,
          -6.98891431e-02, -9.05862600e-02, -2.63090897e-02,
          6.20681420e-03, 7.63154477e-02, 7.67468736e-02, 4.28287871e-02,
          -2.63886210e-02, -1.03272535e-02, -5.10891937e-02,
          -5.94985895e-02, 1.69935357e-02, 1.42347887e-02,
          1.37548838e-02, -6.06017560e-03, -1.17073935e-02,
          4.72843572e-02, 4.38560639e-03, -4.62561175e-02,
          -1.35735981e-02, 1.99965984e-02, 5.13678137e-03,
          -8.81337896e-02, -7.73031935e-02, -1.05075096e-03,
          1.42044192e-02, -9.77129210e-03, -2.26023383e-02,
          8.50137416e-03, 1.49573907e-02, 1.83208492e-02, 3.44758518e-02,
          2.94886762e-03, 6.82819821e-03, -9.49609932e-03,
          -1.24795698e-02, -4.80546281e-02, -3.58258933e-02,
          5.48282964e-03, 7.80431367e-03, -3.45294140e-02,
          -5.02956174e-02, 1.73041578e-02, 2.83062812e-02,
          -1.55471666e-02, -1.69107001e-02, 1.41113922e-02,
          2.38849465e-02, -3.14337425e-02, -8.87993500e-02,
          -6.28697425e-02, -7.31851978e-05, 2.87578683e-02,
          -2.02600509e-02, -5.35964454e-03, 1.63783897e-02,
          -7.25005567e-03, -5.24549633e-02, -6.63481131e-02,
          -4.45234179e-02, -2.20920909e-02, -2.95452448e-03,
          -5.74370846e-02, -4.01971713e-02, -9.38810036e-03,
          -4.69542108e-02, -1.67021584e-02, -6.17866591e-02,
          -5.21453843e-02, 2.97184009e-02, 4.29797247e-02,
          -7.80375488e-03, 2.71497630e-02, 5.73870540e-02,
          3.94085869e-02, -3.81212458e-02, -4.38579246e-02,
          -2.30541117e-02, 1.01694707e-02, 1.65615696e-02,
          -2.89429771e-03, 5.74036650e-02, 7.38056228e-02,
          3.27932127e-02, -7.32089281e-02, -5.41010015e-02,
          -8.19956698e-03, 1.55759417e-02, 1.25424694e-02,
          -3.44574414e-02, -3.92100215e-02, -3.18786427e-02,
          -6.90621510e-02, -7.04726279e-02, -5.45011573e-02,
          6.53471574e-02, 5.70977814e-02, -5.53350430e-03,
          -4.60418761e-02, -5.76186776e-02, -6.40799701e-02,
          -9.87380221e-02, -5.01756072e-02, -1.93405449e-02,
          3.17617022e-02, 2.10155901e-02, 2.07479335e-02,
          -9.28162038e-03, 5.12465201e-02, 8.00295621e-02,
          1.26096206e-02, -2.05647927e-02, 1.16076218e-02,
          1.18200712e-01, 5.09377085e-02, -5.11925761e-03,
          -5.04006185e-02, 7.68946344e-03, 2.32325140e-02,
          -4.22830246e-02, -3.18408646e-02, 1.42977349e-02,
          1.35285392e-01, 1.00659683e-01, 1.20752342e-02,
          -3.01967654e-02, -2.53910590e-02, -4.66091521e-02,
          -5.63454889e-02, -3.60493213e-02, 3.21374312e-02,
          1.02197737e-01, 4.44989689e-02, -2.77758203e-02,
          -5.72541021e-02, -7.35627115e-02, -7.55695924e-02,
          -6.80009574e-02, 1.34970369e-02, 7.07571208e-02,
          1.46670729e-01, 8.19984376e-02, -3.74648608e-02,
          -7.81127391e-03, 1.73684973e-02, 4.88296710e-03,
          -1.95575524e-02, -1.07990429e-02, 1.86584760e-02,
          7.20807761e-02, -2.20069587e-02, -6.97020739e-02,
          -4.97779883e-02, -2.08619311e-02, -3.19453403e-02,
          -4.48983088e-02, -1.67127736e-02, 4.55287397e-02,
          8.68307278e-02, 3.27482224e-02, 5.30583132e-03,
          -2.45203953e-02, -2.90983208e-02, -3.36262360e-02,
          -5.10245301e-02, -3.10081746e-02, -1.40053146e-02,
          1.36278654e-02, 5.61196310e-03, 2.44878940e-02, 1.15078883e-02,
          3.64356004e-02, 1.67838838e-02, -4.31415513e-02,
          1.18012885e-02, 2.61398293e-02, 2.98004001e-02, 2.42709371e-04,
          -7.06459815e-03, -8.68817978e-03, -1.06692140e-03,
          1.01171779e-02, -1.42709375e-03, 2.17630691e-03,
          1.07691111e-03, -5.69880614e-03, -1.84215966e-03,
          1.61534436e-02, 1.84208434e-02, 1.06484182e-02, 1.09717706e-02,
          -1.85289681e-02, -1.12810703e-02, 9.57725290e-03,
          -3.58409411e-03, -4.67427215e-03, -2.39291098e-02,
          -2.00042725e-02, 8.27751646e-04, 2.12165453e-02,
          3.40810302e-03, 1.04467180e-02, 2.16700621e-02, 1.65073257e-02,
          -2.75385175e-02, -1.39068114e-02, -5.90907112e-02,
          -2.55679917e-02, 9.18026734e-03, 3.06774024e-02,
          3.87354009e-02, 3.39928158e-02, -3.03075952e-03,
          -7.26755988e-03, -4.10279185e-02, -1.11598065e-02,
          -9.20731109e-03, -6.19270606e-04, 1.81025881e-02,
          5.24212532e-02, 4.71354201e-02, 1.85985193e-02,
          -4.42741960e-02, -5.03722541e-02, -8.27329755e-02,
          -1.02367504e-02, 1.91715881e-02, 5.64123690e-02,
          1.71594170e-03, 4.49598543e-02, 7.32327029e-02, 1.90569870e-02,
          -7.85083324e-02, -2.64766142e-02, -5.10459132e-02,
          -6.00286908e-02, -2.78284866e-02, 1.33983567e-02,
          8.49366635e-02, 1.05571352e-01, 6.32452890e-02,
          -4.86958213e-02, -2.51182560e-02, -2.71117035e-02,
          -5.09895161e-02, -2.42850482e-02, 3.46476142e-03,
          1.24194252e-03, 9.48751494e-02, 5.94614185e-02,
          -6.99649900e-02, -5.43469237e-03, -1.86658539e-02,
          -1.96873676e-02, -2.61847917e-02, -2.04886477e-02,
          4.58228029e-02, 9.09768492e-02, 1.61324423e-02,
          -4.32323217e-02, -2.75903009e-02, -2.40140911e-02,
          -6.07641507e-03, -2.40488723e-02, 2.33090986e-02,
          5.73741123e-02, 2.88813189e-02, 1.49146775e-02,
          -2.76853312e-02, -3.08032706e-02, -3.93132158e-02,
          -3.74556966e-02, -2.52437498e-02, 5.70230186e-03,
          3.92772118e-03, -2.57549360e-02, -1.59798078e-02,
          -2.37441566e-02, -1.30375884e-02, -1.64851341e-02,
          1.85307022e-02, -7.01533258e-03, -6.51278719e-03,
          6.44677505e-02, 5.64653501e-02, 3.53203062e-03,
          -1.87204797e-02, -3.24185044e-02, -4.03691418e-02,
          -8.81172996e-03, -1.80331338e-02, 2.89006997e-02,
          6.43051341e-02, 2.72186864e-02, -1.42931519e-02,
          -8.62856489e-03, 2.18005609e-02, -8.25018249e-03,
          3.23102549e-02, 7.08892988e-03, -2.27328502e-02,
          -4.20088954e-02, -4.22121435e-02, 5.07613691e-03,
          -1.55223636e-02, -2.22732890e-02, 2.86562964e-02,
          6.30671233e-02, 9.00152419e-03, -2.78082248e-02,
          -4.55361381e-02, -9.32191219e-03, -8.94802436e-03,
          -3.17214429e-02, -1.46345319e-02, 6.09110519e-02,
          8.04648027e-02, 8.81472882e-03, 3.92865622e-03, 1.26099214e-02,
          -1.52603630e-02, -2.93930620e-02, -4.57387045e-02,
          -1.00193126e-02, 2.03184877e-02, 6.87704235e-02,
          1.83133930e-02, -4.20763269e-02, -1.87145062e-02,
          2.63273786e-03, -3.03614307e-02, -5.41135967e-02,
          -8.01052805e-03, 4.48257402e-02, 7.76855350e-02,
          4.70215781e-03, -1.98781155e-02, 1.70306303e-02,
          3.02611068e-02, -1.52257215e-02, -4.87263389e-02,
          -1.67083610e-02, 6.34743199e-02, 9.15266424e-02,
          2.45063696e-02, 1.63554177e-02, 4.61321622e-02, 8.24912861e-02,
          -6.74685510e-03, -8.81006867e-02, -5.81000634e-02,
          5.18630780e-02, 5.78208007e-02, -1.86007842e-03,
          -7.28934212e-03, 4.23174724e-02, 2.11661868e-02,
          -1.83716733e-02, -4.43491340e-02, -7.26526044e-03,
          4.37889025e-02, 6.15562610e-02, -3.31402151e-03,
          -1.30855870e-02, 4.85018529e-02, -1.99989118e-02,
          -5.20671681e-02, -1.04250878e-01, -5.39423935e-02,
          2.75122672e-02, 4.35828567e-02, -1.43232951e-02,
          2.15975810e-02, 6.59375638e-02, 8.80064070e-02,
          -8.31624214e-03, -8.92477557e-02, -2.63201110e-02,
          5.77833876e-02, 5.07302098e-02, 1.72405280e-02,
          -1.12135271e-02, 1.75239462e-02, 2.38652378e-02,
          -3.52586880e-02, -8.43416974e-02, -2.22982261e-02,
          1.37479808e-02, 1.16496217e-02, -1.28948987e-02,
          -1.16170291e-02, 3.29781733e-02, 7.71402055e-03,
          -3.36474031e-02, -8.79517868e-02, 2.33757924e-02,
          7.06211329e-02, 5.65895848e-02, 6.65586395e-03,
          -6.65159747e-02, -2.04254854e-02, 2.00151503e-02,
          2.02381960e-03, -4.72133569e-02, 4.08366099e-02,
          6.09027632e-02, 1.69658680e-02, -4.84468602e-02,
          3.50985024e-03, 7.80805619e-03, 1.02483127e-02, 8.55312124e-03,
          -3.39874364e-02, -2.72031664e-03, 1.70032494e-02,
          4.68533263e-02, -2.85590970e-04, 5.19386912e-03,
          8.33863951e-03, 6.63261022e-03, 4.03183949e-04,
          -1.56782698e-02, 1.72753409e-02, 8.91028089e-04,
          9.78665147e-03, -2.02264842e-02, -4.70394343e-02,
          -1.41701512e-02, 1.47915084e-03, -4.56975913e-03,
          -3.78102958e-02, 3.23403068e-02, 7.61243775e-02,
          6.19759932e-02, -2.89693885e-02, -4.18875553e-02,
          2.24365410e-03, -2.25860588e-02, -4.49645557e-02,
          -4.04153727e-02, 5.22773974e-02, 4.10292707e-02,
          7.55328406e-03, -6.52986020e-02, 4.18207869e-02,
          6.04612082e-02, 2.42836941e-02, -1.22017050e-02,
          -4.69590798e-02, 3.83454235e-03, -2.19781464e-03,
          -1.16116079e-02, 1.20972013e-02, 6.24677837e-02,
          6.03556000e-02, 2.38487627e-02, -1.96789820e-02,
          -6.49021789e-02, -6.10561669e-02, -7.21233385e-03,
          2.91711520e-02, 5.29439822e-02, -9.61131789e-03,
          4.37376797e-02, 1.28583340e-02, -2.35501956e-02,
          -2.78708935e-02, 2.12360360e-02, 3.84737626e-02,
          -9.85341519e-03, -3.55881564e-02, 4.46904898e-02,
          2.53227297e-02, 2.46682428e-02, 3.79202445e-03,
          -1.50040295e-02, -2.33976375e-02, 1.07186390e-02,
          2.57091671e-02, 1.66233964e-02, -1.04639353e-02,
          -1.05983270e-02, 5.82771711e-02, 3.94049287e-02,
          -3.71315069e-02, 2.66252132e-03, 3.66561674e-02,
          5.19850152e-03, -1.05630094e-02, -2.68268008e-02,
          4.05482054e-02, 6.20939694e-02, 3.05400491e-02,
          -3.02002653e-02, -2.31404323e-02, -2.37774733e-03,
          1.12031307e-02, -1.09466994e-02, -4.03796807e-02,
          -4.13004048e-02, -1.13531249e-02, 2.47329343e-02,
          1.17782708e-02, 5.32411151e-02, 5.35669997e-02, 7.54254824e-03,
          -4.35135700e-03, -5.63081317e-02, -2.73879543e-02,
          -1.18301045e-02, 4.44518123e-03, -4.67830431e-03,
          8.70545022e-03, 2.51968447e-02, 3.86263640e-03,
          -1.80684272e-02, -9.89044737e-03, 7.39302635e-02,
          7.03033283e-02, 6.15016185e-03, -2.51646470e-02,
          -2.41084509e-02, -3.85021907e-03, 4.09961352e-03,
          -2.43526623e-02, -5.02870930e-03, 6.31827489e-02,
          6.37420788e-02, 2.86590550e-02, 1.16046686e-02, 2.49048192e-02,
          3.06893103e-02, 3.50851975e-02, -3.18833515e-02,
          -7.14266747e-02, -8.25423934e-03, -1.51405530e-03,
          -3.52819972e-02, -4.06264439e-02, -1.11766756e-02,
          4.33891779e-03, 2.25588139e-02, -5.49169444e-02,
          -5.24132587e-02, 8.58209375e-03, 2.21216567e-02,
          1.26354089e-02, 6.87544653e-03, 4.63780761e-02, 3.44890058e-02,
          3.23520303e-02, -2.61821318e-02, -7.92554207e-03,
          2.62668505e-02, 2.78885495e-02, 7.53983855e-03,
          -2.52211280e-02, 2.00159531e-02, 3.32270488e-02,
          5.00246733e-02, 1.42497318e-02, -2.73691509e-02,
          6.28019683e-03, 2.54422077e-03, -1.90477334e-02,
          -2.50561088e-02, 3.83992307e-02, 4.95691933e-02,
          5.72832115e-02, 9.03837662e-03, -2.35508513e-02,
          3.83269740e-03, 7.14387698e-03, -6.01466745e-03,
          -4.52855751e-02, 2.78411116e-02, 3.74307483e-02,
          2.34751608e-02, 3.59794567e-03, 8.18716921e-03, 8.55485350e-03,
          -5.06999018e-03, -2.73897666e-02, -3.60716544e-02,
          2.23660544e-02, 4.58449200e-02, 1.60715301e-02, 5.63851139e-03,
          6.40848279e-03, 2.74641290e-02, -4.26632492e-03,
          -4.88576060e-03, -2.77713668e-02, 2.91841272e-02,
          5.77759072e-02, 6.62731454e-02, 8.78867693e-03,
          -1.67312212e-02, 1.33448066e-02, -4.57172701e-03,
          -3.22511531e-02, -1.04807287e-01, -1.78637356e-02,
          1.76447500e-02, 3.25994790e-02, -2.18079574e-02,
          2.68233530e-02, 2.13705096e-02, 5.98696247e-03, 7.85676111e-03,
          -2.00542677e-02, 2.58187242e-02, 5.97523339e-02,
          3.01190279e-02, -6.23744540e-03, -7.08200829e-03,
          4.74460702e-03, 3.67968120e-02, -2.78106518e-03,
          -8.93944129e-02, -4.55241874e-02, -6.10521669e-03,
          3.22970934e-02, -3.01705468e-02, -4.19823714e-02,
          2.69093867e-02, 5.58976755e-02, 3.84909404e-03,
          -5.46316877e-02, 3.04910727e-02, 5.25549129e-02,
          1.91982128e-02, -3.06672398e-02, -6.18101321e-02,
          4.48597595e-03, 3.97214815e-02, 2.16799323e-02,
          -2.21460946e-02, 6.93451092e-02, 7.69031346e-02,
          -7.96094944e-04, -4.32490781e-02, -4.40077260e-02,
          5.18418737e-02, 4.97980304e-02, 2.50279140e-02,
          -7.96499252e-02, -1.32716568e-02, 2.05631088e-02,
          3.53694782e-02, -1.09010255e-02, -6.17301948e-02,
          -6.68702181e-03, -1.57822091e-02, 9.07324720e-03,
          -3.50876302e-02, 3.02139074e-02, 2.49422304e-02,
          1.42427236e-02, -2.18060445e-02, -4.15596887e-02,
          -3.02820874e-04, 1.11818295e-02, -1.04849611e-03,
          -2.08338574e-02, 8.00514296e-02, 1.28679588e-01,
          4.60969023e-02, -3.49799804e-02, -6.19463362e-02,
          -3.07953451e-03, -1.66590698e-02, -4.59886193e-02,
          -2.23950073e-02, 4.61456515e-02, 6.27180487e-02,
          1.13295829e-02, -7.40469173e-02, -3.77178825e-02,
          -1.45893665e-02, -1.16996430e-02, 9.80565697e-03,
          2.74709892e-02, 6.48323298e-02, 7.11145774e-02, 3.39877978e-02,
          -2.36878917e-02, -5.15978709e-02, -2.97762249e-02,
          -2.59508332e-03, -3.21925543e-02, -1.05326166e-02,
          9.22685780e-04, 3.61611396e-02, 1.30914431e-02,
          -4.97489721e-02, -2.41052564e-02, 4.38405499e-02,
          2.80091390e-02, -7.88453501e-03, 1.12710129e-02,
          7.81598222e-03, 4.65003885e-02, 1.05267800e-02,
          -4.69514281e-02, 1.58933213e-03, 2.20158994e-02,
          3.75638865e-02, 1.42115271e-02, 1.20332828e-02,
          -8.55230540e-03, 2.39588041e-02, 2.40030456e-02,
          -1.41980732e-02, -7.66214123e-03, 2.50221528e-02,
          4.47054654e-02, -4.32261592e-03, 3.82530736e-03,
          -4.41715643e-02, 1.66334715e-02, 2.42770631e-02,
          -2.24602129e-02, -1.40687255e-02, 9.88696981e-03,
          3.24204862e-02, 3.55471373e-02, 1.10892542e-02,
          -3.39681432e-02, 8.72838544e-04, 8.00431613e-03,
          1.26502389e-04, -4.10453603e-02, -4.48904634e-02,
          4.28298255e-03, 1.66086182e-02, 2.42779478e-02, 9.90750417e-02,
          6.49209246e-02, 5.56689629e-04, -3.89167777e-04,
          -5.72985187e-02, -6.61572516e-02, -7.93827847e-02,
          -3.05615878e-03, 1.80287249e-02, 5.33424169e-02,
          6.55744150e-02, 3.37832309e-02, -8.70496407e-03,
          -3.50570753e-02, -7.23003000e-02, -4.24005389e-02,
          -2.31943000e-02, 1.99515149e-02, 7.44673610e-02,
          4.32422683e-02, -1.02842608e-02, -3.75580089e-03,
          -4.89328206e-02, -7.87319392e-02, -8.78025144e-02,
          -3.39605957e-02, -9.88158979e-04, 4.69445549e-02,
          7.27221146e-02, 3.30109298e-02, -1.63537357e-02,
          -2.78752763e-02, -2.70603057e-02, -4.49730009e-02,
          -1.28361601e-02, -3.58093251e-03, 2.00277902e-02,
          3.23448069e-02, 4.76867296e-02, -3.46739055e-03,
          4.52725254e-02, 3.52450423e-02, 1.78034157e-02,
          -3.83254630e-03, -2.41696946e-02, 3.32926884e-02,
          4.52310517e-02, 6.27353191e-02, 2.49379538e-02,
          -5.86586166e-03, -4.40705009e-02, -6.74656183e-02,
          -2.64882278e-02, -9.35524516e-03, 8.47097300e-03,
          5.77002652e-02, 3.12650390e-02, 6.42726291e-03, 1.28370794e-02,
          2.31966376e-03, -7.39222299e-03, -4.51150015e-02,
          -3.11455540e-02, -3.55910393e-03, 1.55902505e-02,
          -3.41551937e-02, 2.32677136e-04, 3.14211212e-02,
          3.88310254e-02, 2.94440016e-02, 1.41045405e-02,
          -4.04490829e-02, 2.98771658e-03, 5.96063398e-03,
          8.63068737e-03, 3.35732698e-02, 3.23870070e-02, 5.51790409e-02,
          5.99183254e-02, 4.80868220e-02, -4.99998173e-03,
          1.00371232e-02, 1.96670201e-02, 1.25769954e-02, 2.38211527e-02,
          1.97727233e-02, 4.25452255e-02, 1.61557626e-02,
          -1.77103635e-02, -4.15390544e-02, -1.30346008e-02,
          -3.40416320e-02, -6.93540946e-02, -1.28536010e-02,
          -4.76749428e-02, 2.64511667e-02, 3.71648036e-02,
          3.20572332e-02, 1.85179571e-03, -1.53258001e-03,
          -3.54507118e-02, -3.90041657e-02, -5.66969290e-02,
          9.78785101e-03, 3.63910981e-02, 5.12179993e-02, 3.45651805e-02,
          1.01452153e-02, 5.01831658e-02, 4.65193354e-02, 3.29000875e-02,
          4.73152322e-04, 3.32335220e-03, 2.21477821e-02, 1.86200086e-02,
          1.72060961e-03, -2.37964187e-02, -1.88198760e-02,
          1.80819929e-02, 2.43274756e-02, 6.64614374e-03,
          -8.49067643e-02, 1.19504947e-02, 1.38305295e-02,
          2.12555658e-02, 4.08321694e-02, 4.34549227e-02, 2.23926827e-02,
          -1.71963386e-02, -6.90497756e-02, -6.02839701e-02,
          -2.29768995e-02, -1.08468207e-02, -1.26338946e-02,
          2.91810674e-03, 1.41152320e-02, 2.39504222e-02, 1.41760311e-03,
          -3.88698839e-02, 2.53889728e-02, 4.75407951e-02,
          2.58345734e-02, 7.87755940e-03, -6.30274639e-02,
          -3.15423049e-02, 3.48521695e-02, 4.36329208e-02,
          6.03868328e-02, -2.24752035e-02, 1.71861157e-03,
          -1.05073806e-02, -5.28260786e-03, -7.91604258e-03,
          1.82585958e-02, 1.19308261e-02, 3.31789628e-02, 3.36462297e-02,
          -1.68574508e-02, 1.64371971e-02, 2.80562658e-02,
          1.36143947e-02, -4.10864837e-02, -1.37487520e-02,
          2.46640425e-02, 1.05064791e-02, -5.57444384e-03,
          -5.87756112e-02, 1.29659660e-02, 1.90904979e-02,
          -1.37629081e-02, -1.14801778e-02, 2.63572056e-02,
          3.72968391e-02, -2.64881039e-03, -2.44936887e-02,
          -1.58331841e-02, 4.17723844e-04, 1.46161616e-02,
          1.91422059e-05, 2.20831130e-02, 2.80255079e-02, 2.73911245e-02,
          4.53492515e-02, 1.77676026e-02, -4.63918336e-02,
          -1.25990519e-02, 1.80218257e-02, -2.73609981e-02,
          -1.84775069e-02, -2.83158887e-02, -5.50422119e-03,
          2.50355434e-02, -2.81824656e-02, -5.31365573e-02,
          2.23832987e-02, 1.76958367e-02, -3.35148387e-02,
          1.36858737e-02, 2.82531045e-02, 3.09127159e-02, 2.87349150e-02,
          -1.32510597e-02, -3.93459275e-02, -1.78023744e-02,
          -1.03520891e-02, -5.41362800e-02, -2.67749503e-02,
          -4.83553670e-02, 5.20255323e-03, 3.22802514e-02,
          -2.51711402e-02, -7.95763545e-03, 3.06977099e-03,
          1.70663632e-02, -1.21206399e-02, -8.48422386e-03,
          -4.69186008e-02, 4.86268895e-03, 2.38119755e-02,
          1.38484128e-03, -2.93714204e-03, -9.21142194e-03,
          -3.08143068e-03, 1.12907095e-02, 1.25003476e-02,
          -4.77671735e-02, -1.61952116e-02, -2.38881074e-03,
          1.17142946e-02, -1.39984535e-02, 9.13429912e-03,
          -1.01292394e-02, -4.39591035e-02, 2.38858070e-02,
          -2.81287003e-02, 4.78411913e-02, 6.09545596e-02,
          4.56981186e-04, -6.56990986e-03, 2.33955332e-04,
          -1.35293799e-02, -2.01200694e-02, 2.45731678e-02,
          -5.42088263e-02, 1.32649327e-02, 2.04821117e-02,
          3.39652091e-04, 4.37956192e-02, -3.16775702e-02,
          -3.38018835e-02, -3.16489041e-02, 8.32615793e-03,
          5.91753833e-02, 4.71649989e-02, 2.03791726e-02, 5.66466972e-02,
          3.40625718e-02, -4.68544699e-02, -4.81838211e-02,
          -1.62216909e-02, 1.64223630e-02, 4.43464853e-02,
          5.77793047e-02, 5.16618863e-02, 3.53442430e-02,
          -5.59037402e-02, -6.83283508e-02, -5.77608310e-02,
          -5.70637174e-02, 6.95551373e-03, -1.58082007e-03,
          1.23766391e-02, -1.34107368e-02, 1.33790832e-03,
          -4.19102982e-02, -8.00136402e-02, -6.27118573e-02,
          -5.88954538e-02, -8.48964509e-03, -1.55271869e-02,
          -7.25017535e-03, -1.99488271e-02, -1.03869438e-02,
          4.35349308e-02, -4.07248829e-03, -2.83789560e-02,
          -1.05846887e-02, 1.71982963e-03, 1.29161943e-02,
          5.20325750e-02, 4.10403050e-02, 5.68029992e-02, 5.74569590e-02,
          2.90380009e-02, -1.11558419e-02, -3.09539847e-02,
          -2.42881794e-02, -1.47545654e-02, -2.46909913e-03,
          -1.18569909e-02, 4.33207937e-02, -1.29365353e-02,
          -4.85305637e-02, -3.97815034e-02, -3.31403501e-02,
          1.67728141e-02, -4.80578840e-03, -1.36664016e-02,
          5.32523403e-03, 4.58859978e-03, 2.73995772e-02,
          -3.80091518e-02, -8.16978589e-02, -3.59481052e-02,
          -3.85951996e-02, -3.90940309e-02, -4.19164263e-02,
          1.89657416e-02, 7.48640485e-03, 4.89422008e-02, 4.99158613e-02,
          6.64767344e-03, -1.46806845e-02, 2.48001749e-03,
          -1.05911857e-02, -3.06265093e-02, -1.63930282e-02,
          2.30354294e-02, 1.40572747e-03, 4.18156460e-02, 1.42129222e-02,
          7.57237338e-03, 1.94592252e-02, 1.69896744e-02,
          -2.67651733e-02, -1.14125768e-02, -1.32800024e-02,
          1.82657856e-02, -3.54810581e-02, -5.25821336e-02,
          -1.14508606e-02, -2.72253063e-03, -4.00178656e-02,
          -4.47320826e-02, 6.58314815e-03, -1.14745619e-02,
          4.12598252e-02, -4.77715069e-03, -1.02532031e-02,
          -4.12364909e-03, -1.75757962e-03, -6.78366274e-02,
          -6.73819035e-02, -3.76205728e-03, 1.71877001e-03,
          -2.88090911e-02, 2.59277280e-02, 1.16357459e-02,
          9.26881935e-03, 2.54029091e-02, 3.55475172e-02, 5.53664053e-03,
          -6.93754060e-03, -1.21868467e-02, -5.49758263e-02,
          -4.20446321e-03, 1.47482166e-02, 1.63544063e-02,
          2.53493059e-02, 4.52319458e-02, 5.69703318e-02, 1.43104680e-02,
          -1.30212484e-02, -1.86748598e-02, -9.79655702e-03,
          -1.44863175e-03, -3.13698081e-03, -2.15269942e-02,
          -4.40918170e-02, -4.85749841e-02, -9.08429455e-03,
          -3.11497450e-02, -2.34691463e-02, 8.23187642e-03,
          2.98041967e-04, -4.72585810e-03, 6.46208180e-03,
          7.68745085e-03, 3.69484052e-02, 1.58761945e-02,
          -2.93512661e-02, -2.79885922e-02, 3.62500921e-02,
          7.42732957e-02, 3.42947282e-02, -1.03324447e-02,
          2.20176242e-02, 3.21628079e-02, -1.73165035e-02,
          -3.38497534e-02, -5.21913059e-02, 4.67657223e-02,
          3.73892896e-02, -1.35022439e-02, -7.83100072e-03,
          2.70076264e-02, 4.94096093e-02, -2.82006292e-03,
          -5.14079668e-02, -4.99843843e-02, 1.72498357e-02,
          3.27570699e-02, 2.43135933e-02, -3.00345733e-03,
          5.71056157e-02, 4.53809164e-02, 1.37716867e-02,
          -4.72024903e-02, -8.28641802e-02, -1.24366106e-02,
          -3.58926430e-02, -4.58126627e-02, -2.75197309e-02,
          2.77408101e-02, 5.26352637e-02, 3.54369283e-02,
          -5.47185466e-02, -2.29382571e-02, 5.72632663e-02,
          1.63116828e-02, -4.50235233e-02, 2.32703541e-03,
          1.33517152e-02, 3.99544239e-02, 3.62935886e-02,
          -2.09249780e-02, 1.56749506e-02, 2.96179596e-02,
          -8.26068502e-03, -4.43948507e-02, -2.65031848e-02,
          -5.15720807e-02, 2.49849912e-03, 4.79307026e-02,
          2.69726794e-02, -6.38050810e-02, 2.20295810e-03,
          -3.81429270e-02, -6.03268817e-02, -1.66594796e-02,
          9.07071307e-03, 5.07872887e-02, 7.51819834e-02,
          -2.73932591e-02, -1.00751435e-02, 5.57790585e-02,
          4.28605563e-04, -3.41569632e-02, -2.42277216e-02,
          -5.99560328e-02, -2.48818584e-02, 3.50716524e-02,
          -3.69097060e-03, -1.17773982e-02, 7.61331478e-03,
          -1.57486182e-02, -2.06038821e-02, 1.39710736e-02,
          -4.81167845e-02, -1.26515171e-02, 2.29064990e-02,
          -4.93801478e-03, -4.69735358e-03, 4.98240767e-03,
          -1.19527048e-02, 1.72647473e-04, 2.51544695e-02,
          -2.27729399e-02, 4.26499918e-03, 1.77406929e-02,
          -4.21355665e-03, -1.57510303e-02, 2.77384762e-02,
          -2.46917969e-03, -1.25374394e-02, -1.86620485e-02,
          -5.55432402e-02, -5.72071262e-02, -1.14070224e-02,
          -9.98956617e-03, 1.35845076e-02, 1.45886689e-02,
          -2.65604886e-03, 1.30033363e-02, 4.17913264e-03,
          -7.02686887e-03, -2.58498024e-02, 1.80110391e-02,
          1.90587831e-03, -5.41248545e-02, -7.52866268e-02,
          -5.13802916e-02, -5.73323853e-02, 3.13143693e-02,
          -1.31527130e-02, 4.25712997e-03, -3.52170551e-03,
          -2.16891635e-02, -4.01696973e-02, -7.02744126e-02,
          -5.67945801e-02, -3.64717133e-02, 3.31690423e-02,
          2.97586038e-03, 7.96787161e-03, 1.94282047e-02, 3.77943460e-03,
          -6.55405223e-03, -3.66683379e-02, -5.38032204e-02,
          -5.26685491e-02, 3.89270717e-03, -5.13739549e-02,
          -3.73316482e-02, 8.84174276e-03, -1.16803199e-02,
          4.40805545e-03, -3.49500254e-02, -4.43838984e-02,
          -3.64373205e-03, 6.08933270e-02, -2.87394933e-02,
          -4.07079235e-02, -7.31212180e-03, 1.59139149e-02,
          -8.70662834e-03, -5.19185252e-02, -5.13747036e-02,
          -2.43982151e-02, 4.48458306e-02, -9.86242201e-03,
          -1.05848042e-02, 1.65687855e-02, 2.26239599e-02,
          -1.14105782e-03, -5.72676547e-02, -8.02338198e-02,
          -3.32325604e-03, 5.39479777e-03, -7.14465976e-02,
          -6.32954910e-02, 8.24423227e-03, 6.81083137e-03,
          3.29533666e-02, -1.68179069e-02, -2.86048893e-02,
          -4.28226776e-03, 7.34265968e-02, -4.29282486e-02,
          -2.32247394e-02, 1.90079142e-03, 4.05994393e-02,
          2.56751440e-02, -5.46312798e-03, -3.43880281e-02,
          4.37502022e-04, 7.86814932e-03, -9.85984132e-02,
          -4.41104025e-02, -1.57770216e-02, 3.59177515e-02,
          -1.11291362e-02, -2.89413705e-02, -4.11038622e-02,
          2.15602145e-02, 1.95808057e-02, -3.62618566e-02,
          -2.46040616e-02, 1.38595589e-02, -7.19894422e-03,
          4.18991335e-02, 2.05380730e-02, -3.57932877e-03,
          -1.59026161e-02, 6.40154909e-03, -3.80901322e-02,
          -1.41802272e-02, 2.24274285e-02, 2.29428746e-02,
          3.78241166e-02, 1.31218117e-02, -1.35799684e-03,
          2.00515855e-02, 8.46434105e-03, -4.65716608e-02,
          -4.69999500e-02, -2.88149007e-02, 6.92912051e-03,
          4.08216491e-02, 3.33490074e-02, 4.04614164e-03,
          -5.96956797e-02, -1.76442368e-03, -1.35458056e-02,
          -1.27568804e-02, -1.72250310e-03, 1.20078893e-02,
          1.35630826e-02, 2.37622298e-02, 1.10614784e-02,
          -1.99575871e-02, -4.99709584e-02, -2.51288600e-02,
          -5.18995163e-04, 1.75491497e-02, 9.82381217e-03,
          9.15300101e-03, 3.43362167e-02, 1.73880607e-02, 3.88524914e-03,
          3.37581336e-02, 4.51120324e-02, 1.15767010e-01, 5.64736836e-02,
          -1.12208410e-03, 7.16586877e-03, 2.27940106e-03,
          -7.06729013e-03, -5.81339896e-02, -5.25609739e-02,
          -2.45807376e-02, -9.09945834e-03, -2.29086317e-02,
          -8.45706742e-03, -1.89952515e-02, -9.85300727e-03,
          -3.79940774e-03, -2.35695653e-02, -2.51250677e-02,
          1.21173551e-02, 5.94862774e-02, 5.70563413e-03,
          -3.08087561e-02, -2.87143197e-02, 1.12436642e-03,
          2.25198176e-03, 6.34357508e-04, 1.14488825e-02, 6.22411966e-02,
          1.19935475e-01, 4.51921746e-02, -1.23944981e-02,
          -8.35636258e-02, -5.36874160e-02, -5.93167581e-02,
          -2.24373937e-02, -7.93307787e-04, 1.39813162e-02,
          1.01377331e-01, 1.05885103e-01, -1.56826191e-02,
          -6.73110411e-02, -5.88907637e-02, -6.50169477e-02,
          -5.34690991e-02, -1.80141907e-02, 1.04822386e-02,
          9.04242918e-02, 7.67894834e-02, -2.48577166e-02,
          -5.27342856e-02, -7.57931545e-02, -8.63727778e-02,
          -6.46721721e-02, -2.58106012e-02, -6.24807738e-02,
          8.93538594e-02, 1.06284253e-01, 1.45304929e-02,
          -6.89327046e-02, -3.43156978e-02, -5.74185811e-02,
          -4.57828976e-02, -4.62345742e-02, -4.60651033e-02,
          6.37772307e-02, 8.79441276e-02, -1.86452605e-02,
          -1.24425450e-02, 2.89671272e-02, 2.28160657e-02,
          -2.45057251e-02, -4.75088023e-02, -5.05357571e-02,
          1.27068013e-02, 2.60036271e-02, -2.45711580e-02,
          -3.45703550e-02, -5.57948723e-02, -4.53798212e-02,
          -3.54498811e-02, -3.34735401e-02, -8.24640840e-02,
          6.26063570e-02, 1.30132064e-01, 2.46291682e-02, 2.63911691e-02,
          9.70586389e-03, -4.58374241e-04, -2.69627739e-02,
          -2.43728142e-02, -4.20656130e-02, 5.04796132e-02,
          8.17946047e-02, 6.74125105e-02, -1.37580419e-02,
          -1.40845985e-03, -1.30097643e-02, -3.79761569e-02,
          -7.24075064e-02, -5.78139238e-02, -6.11297749e-02,
          -3.68424058e-02, -2.49801222e-02, 1.11971535e-02,
          -1.59976315e-02, -1.53184896e-02, 2.94869929e-03,
          -2.41061896e-02, -3.94083858e-02, -5.68593070e-02,
          -2.28569889e-03, 2.69725453e-03, 3.52000147e-02,
          -2.26708893e-02, -1.87521074e-02, -4.49269563e-02,
          -3.43032070e-02, -3.39948311e-02, 1.01855565e-02,
          5.45265190e-02, 8.54221433e-02, 4.34271768e-02,
          -2.59812512e-02, -4.81516588e-03, -1.13880727e-02,
          2.30112877e-02, -3.36035714e-02, -1.26051717e-02,
          3.12045272e-02, 7.85104111e-02 ]
   uncompressed_sv_total: 60
   uncompressed_support_vectors:
      - [ 3.46535355e-01, 1.56705186e-01, 4.53680307e-02, 1.09976316e-02,
          2.01889761e-02, 1.16455657e-02, 1.09453192e-02, 1.70484222e-02,
          3.46535355e-01, 3.46535355e-01, 2.13079393e-01, 1.52145522e-02,
          1.07386131e-02, 1.45838503e-02, 5.79579128e-03, 1.27395485e-02,
          1.37259997e-02, 3.46535355e-01, 3.46535355e-01, 3.41363437e-02,
          2.52593327e-02, 2.46667247e-02, 3.36790718e-02, 7.46238604e-02,
          6.89944476e-02, 5.41216284e-02, 3.02847505e-01, 3.46535355e-01,
          8.39485154e-02, 2.57621463e-02, 2.61735376e-02, 1.55170234e-02,
          3.21355201e-02, 5.71854115e-02, 7.09241182e-02, 2.74755299e-01,
          3.71927351e-01, 1.26700863e-01, 4.32873191e-03, 1.12985075e-02,
          7.40706408e-03, 5.16716717e-03, 1.53582497e-02, 1.98508631e-02,
          3.71927351e-01, 3.71927351e-01, 1.08311906e-01, 8.57320428e-03,
          1.77521370e-02, 6.86111348e-03, 3.13355168e-03, 1.61909256e-02,
          2.02900711e-02, 3.71927351e-01, 3.59132469e-01, 6.25533015e-02,
          2.13522539e-02, 2.41772570e-02, 1.52645232e-02, 2.84899101e-02,
          3.97713147e-02, 5.40109612e-02, 2.36098930e-01, 3.67355615e-01,
          5.87284006e-02, 3.97567414e-02, 2.62300950e-02, 9.56923794e-03,
          2.17593238e-02, 4.58928533e-02, 5.06561138e-02, 2.68480510e-01,
          4.06125277e-01, 1.91790998e-01, 1.21383658e-02, 1.25640444e-02,
          8.19384027e-03, 5.12561155e-03, 2.58012060e-02, 3.60470004e-02,
          4.06125277e-01, 4.06125277e-01, 1.11052364e-01, 2.01346818e-02,
          7.55137159e-03, 9.92109254e-03, 1.03004873e-02, 3.74179929e-02,
          5.71913943e-02, 4.06125277e-01, 2.95540869e-01, 7.29110986e-02,
          5.42088859e-02, 4.79310714e-02, 1.94871314e-02, 2.19120327e-02,
          5.67252897e-02, 8.33211690e-02, 2.21096471e-01, 2.34041825e-01,
          8.43280777e-02, 5.65284304e-02, 6.35449588e-02, 5.09623662e-02,
          2.36194022e-02, 6.34481907e-02, 8.48838612e-02, 1.95109114e-01,
          4.24404383e-01, 1.25316828e-01, 1.66116077e-02, 8.53544846e-03,
          1.31263547e-02, 1.68069545e-02, 3.51011865e-02, 5.63706048e-02,
          4.24404383e-01, 4.24404383e-01, 1.80895925e-01, 5.20220213e-03,
          1.75270885e-02, 2.03548986e-02, 3.34559530e-02, 2.38936301e-02,
          5.61130196e-02, 4.24404383e-01, 1.99253842e-01, 8.38337317e-02,
          3.76151539e-02, 3.93921956e-02, 5.21232933e-02, 2.87263300e-02,
          5.04767559e-02, 7.68971145e-02, 2.23696411e-01, 2.02141702e-01,
          7.33896717e-02, 2.26705857e-02, 3.16753052e-02, 3.44693772e-02,
          6.20662905e-02, 3.67897749e-02, 7.18028918e-02, 2.12135762e-01,
          4.25930709e-01, 1.11248523e-01, 4.04004147e-03, 2.07273476e-02,
          2.77500190e-02, 2.58460902e-02, 1.84803307e-02, 4.99103479e-02,
          4.25930709e-01, 4.25930709e-01, 2.34512389e-01, 1.85971579e-03,
          5.53170359e-03, 2.05773301e-02, 7.98836909e-03, 2.38077678e-02,
          5.81891946e-02, 4.25930709e-01, 1.62013277e-01, 9.19016823e-02,
          2.37647425e-02, 3.32372263e-02, 3.86022516e-02, 5.34136370e-02,
          4.19568121e-02, 6.89064264e-02, 1.65317848e-01, 2.21238092e-01,
          1.67212531e-01, 1.92529894e-02, 1.31181832e-02, 3.23329344e-02,
          2.99968459e-02, 4.16408554e-02, 8.52982923e-02, 1.74828649e-01,
          4.17545706e-01, 1.96355894e-01, 1.78764481e-02, 7.58303469e-03,
          1.26401577e-02, 1.01496056e-02, 2.67846063e-02, 6.44488111e-02,
          4.17545706e-01, 4.17545706e-01, 1.08152896e-01, 4.54476327e-02,
          3.16536687e-02, 2.29446795e-02, 1.63439550e-02, 3.10566239e-02,
          7.25698620e-02, 4.17545706e-01, 2.20491201e-01, 1.37799442e-01,
          3.87646630e-02, 1.63778905e-02, 4.45975326e-02, 4.13127057e-02,
          2.92914808e-02, 7.39850253e-02, 1.80955186e-01, 2.32426554e-01,
          9.73929316e-02, 8.29429999e-02, 4.08231430e-02, 4.89060506e-02,
          5.05836681e-02, 3.39830332e-02, 8.14420432e-02, 1.88827440e-01,
          3.70985001e-01, 1.48711801e-01, 3.57516743e-02, 3.90566587e-02,
          3.18326876e-02, 1.93175785e-02, 2.22016480e-02, 4.03939076e-02,
          3.70985001e-01, 3.70985001e-01, 2.42002293e-01, 8.22875425e-02,
          3.48309167e-02, 2.14066450e-02, 2.26903912e-02, 4.01375741e-02,
          6.58141747e-02, 3.70985001e-01, 2.60928839e-01, 7.03046545e-02,
          6.42535463e-02, 3.81825939e-02, 6.74405918e-02, 6.20942526e-02,
          4.41812240e-02, 5.78098744e-02, 1.84319481e-01, 3.30551326e-01,
          1.67977676e-01, 1.34304792e-01, 4.21244241e-02, 6.71857521e-02,
          8.84179026e-02, 9.68169942e-02, 1.20168537e-01, 1.55421570e-01,
          6.78377226e-02, 3.05876881e-02, 4.70906496e-02, 7.66673684e-02,
          1.45890221e-01, 3.03691655e-01, 2.53057212e-01, 1.38638869e-01,
          5.70596829e-02, 9.91474167e-02, 7.82572106e-02, 5.77620305e-02,
          8.98677930e-02, 6.77534565e-02, 7.94024318e-02, 1.54544011e-01,
          1.74595758e-01, 7.13796020e-02, 2.15783432e-01, 1.36226207e-01,
          1.18315838e-01, 2.36037746e-01, 1.92837358e-01, 3.26061755e-01,
          3.26061755e-01, 1.21692374e-01, 8.42495039e-02, 3.26061755e-01,
          2.31741592e-01, 7.85593763e-02, 1.98680013e-01, 9.80514511e-02,
          6.78640157e-02, 1.18882179e-01, 1.29164025e-01, 1.67621598e-01,
          1.03305332e-01, 1.10821649e-01, 8.81192982e-02, 1.00245096e-01,
          5.36835380e-02, 6.64103255e-02, 9.14278254e-02, 1.27360344e-01,
          1.06846713e-01, 1.36094108e-01, 1.44056499e-01, 1.58967018e-01,
          8.61605406e-02, 4.92418706e-02, 8.58558267e-02, 8.84903967e-02,
          1.14986688e-01, 1.51336417e-01, 3.60645592e-01, 3.30264688e-01,
          1.02070868e-01, 1.51454628e-01, 6.94658831e-02, 4.63713072e-02,
          4.86851707e-02, 1.11641571e-01, 2.43342325e-01, 3.60645592e-01,
          3.43426049e-01, 1.97105452e-01, 9.87320095e-02, 8.04909617e-02,
          1.05259746e-01, 9.13765505e-02, 8.85793492e-02, 3.20530534e-01,
          9.36166123e-02, 7.92666748e-02, 1.34759054e-01, 1.50356948e-01,
          6.87685013e-02, 9.83516201e-02, 1.00613013e-01, 1.33176103e-01,
          1.22034207e-01, 1.18820950e-01, 1.21002845e-01, 1.75877512e-01,
          1.88375458e-01, 1.18071616e-01, 7.98793659e-02, 9.45017710e-02,
          8.65468532e-02, 1.11221604e-01, 3.84728968e-01, 2.38357872e-01,
          1.39826894e-01, 1.02793433e-01, 8.79620537e-02, 1.35254681e-01,
          1.21835165e-01, 5.73744886e-02, 2.18153194e-01, 3.84728968e-01,
          3.69468004e-01, 2.16663048e-01, 1.32641658e-01, 9.96892899e-02,
          1.27391905e-01, 1.21638507e-01, 6.16289414e-02, 1.35538340e-01,
          1.21512026e-01, 1.36586338e-01, 1.24447040e-01, 1.05205663e-01,
          8.43522921e-02, 6.21025674e-02, 5.06379791e-02, 5.38499169e-02,
          1.16457991e-01, 1.72134116e-01, 1.10937901e-01, 1.29945561e-01,
          6.62393123e-02, 4.82670628e-02, 8.93386453e-02, 6.12173155e-02,
          7.24962428e-02, 1.68657720e-01, 3.80443126e-01, 3.72188836e-01,
          2.26773888e-01, 1.47301257e-01, 7.08681121e-02, 8.26229602e-02,
          6.29601032e-02, 7.79606104e-02, 1.29267082e-01, 3.80443126e-01,
          3.51970106e-01, 2.11164266e-01, 1.07849658e-01, 6.01872876e-02,
          6.19862154e-02, 3.82529497e-02, 5.34766689e-02, 2.52265602e-01,
          1.16470926e-01, 8.17131475e-02, 1.16016068e-01, 6.66942075e-02,
          3.94404195e-02, 5.61165251e-02, 7.64973313e-02, 5.19545861e-02,
          1.03323855e-01, 1.52817845e-01, 1.24782637e-01, 7.91250989e-02,
          6.71898201e-02, 5.80225252e-02, 5.26282713e-02, 8.53655785e-02,
          6.78682253e-02, 1.06160216e-01, 4.36859190e-01, 1.66782916e-01,
          1.33585051e-01, 6.39608651e-02, 3.48482989e-02, 3.54352891e-02,
          4.64701466e-02, 2.44454909e-02, 3.20711583e-01, 4.36859190e-01,
          1.31919146e-01, 8.31495374e-02, 1.62206635e-01, 2.04280719e-01,
          1.25609174e-01, 1.11710109e-01, 5.97254038e-02, 4.36859190e-01,
          1.00550681e-01, 5.24241887e-02, 3.06273904e-02, 3.64969932e-02,
          4.93069515e-02, 3.14761326e-02, 3.32849920e-02, 3.52436602e-02,
          6.53300434e-02, 1.60873756e-01, 4.85723540e-02, 4.96885367e-02,
          3.48586515e-02, 4.17276695e-02, 3.02188620e-02, 2.78792158e-02,
          4.86816689e-02, 7.96961114e-02, 4.14460003e-01, 6.16393723e-02,
          4.59135808e-02, 2.26167560e-01, 2.54152864e-01, 1.29498228e-01,
          7.92543441e-02, 3.87519971e-02, 4.12877589e-01, 4.14460003e-01,
          1.29758552e-01, 7.83593357e-02, 1.72205359e-01, 1.64856121e-01,
          7.04629794e-02, 8.60801116e-02, 4.92437631e-02, 4.14460003e-01,
          1.30190045e-01, 4.34238464e-02, 3.68676633e-02, 1.89190861e-02,
          4.25464362e-02, 3.85841802e-02, 2.90862191e-02, 6.82606101e-02,
          8.05412307e-02, 1.33136079e-01, 7.74572492e-02, 5.55511229e-02,
          2.28682533e-02, 6.79262206e-02, 7.91376084e-02, 4.19129841e-02,
          7.98467472e-02, 9.25627276e-02, 3.47153753e-01, 2.03706488e-01,
          1.28089517e-01, 6.55067936e-02, 1.93129003e-01, 8.17804188e-02,
          6.04548231e-02, 1.57376081e-01, 3.47153753e-01, 3.47153753e-01,
          2.54370928e-01, 1.35382593e-01, 1.67958021e-01, 3.47153753e-01,
          1.69427007e-01, 3.11875418e-02, 1.74664333e-01, 3.43048632e-01,
          2.98819274e-01, 2.13073328e-01, 1.94098949e-01, 2.19418511e-01,
          1.34940341e-01, 2.36263543e-01, 2.43479371e-01, 8.26209858e-02,
          1.19186722e-01, 2.98819274e-01, 2.24100962e-01, 6.11665212e-02,
          9.55661535e-02, 3.98994312e-02, 3.88410836e-02, 3.55924442e-02,
          5.30319586e-02, 1.84989288e-01, 2.17578724e-01, 1.30424842e-01,
          1.76710770e-01, 1.60755545e-01, 2.00266972e-01, 2.65288025e-01,
          1.93268418e-01, 8.54482502e-02, 1.10345028e-01, 2.98819274e-01,
          1.07006110e-01, 4.13612798e-02, 5.52307852e-02, 6.01891056e-02,
          8.29916969e-02, 6.21186495e-02, 6.35955036e-02, 1.25365838e-01,
          3.74474138e-01, 2.99670011e-01, 5.10434955e-02, 5.70270829e-02,
          2.83023976e-02, 1.92110874e-02, 1.59223694e-02, 3.86963747e-02,
          2.30531275e-01, 3.74474138e-01, 2.60930300e-01, 8.54453444e-02,
          2.95633376e-02, 3.07599623e-02, 3.37247662e-02, 3.79951410e-02,
          3.18211541e-02, 3.10048848e-01, 3.74474138e-01, 1.32075414e-01,
          3.86861451e-02, 3.80726866e-02, 2.94941068e-02, 5.60772158e-02,
          6.28734156e-02, 7.32013807e-02, 1.40757993e-01, 3.74474138e-01,
          1.16600186e-01, 4.97919805e-02, 3.94359045e-02, 3.78309377e-02,
          4.62386496e-02, 5.29556908e-02, 5.04782721e-02, 1.63094640e-01,
          3.99555773e-01, 2.47626200e-01, 6.98463991e-02, 2.88180709e-02,
          4.06132601e-02, 4.63852547e-02, 5.46648800e-02, 2.71534007e-02,
          2.38812163e-01, 3.99555773e-01, 3.30708265e-01, 1.37588695e-01,
          5.44263348e-02, 6.78708255e-02, 9.18383673e-02, 8.92128423e-02,
          7.23958984e-02, 1.39316469e-01, 3.47334772e-01, 1.13965295e-01,
          3.74563485e-02, 4.67065983e-02, 3.40717286e-02, 5.43430634e-02,
          6.91320747e-02, 4.77254987e-02, 1.33639753e-01, 3.49810809e-01,
          1.58585310e-01, 8.92615244e-02, 5.91778271e-02, 5.01209460e-02,
          7.54441917e-02, 8.10374096e-02, 8.16055089e-02, 1.46836340e-01,
          3.32325786e-01, 2.72583842e-01, 2.06520900e-01, 1.22408718e-01,
          8.89314339e-02, 7.41753802e-02, 7.86437765e-02, 9.62239727e-02,
          1.64732590e-01, 3.32325786e-01, 2.81937182e-01, 1.53966799e-01,
          1.20593101e-01, 1.09227158e-01, 4.61401343e-02, 5.94175346e-02,
          4.56971824e-02, 2.08103389e-01, 2.72926033e-01, 1.29710764e-01,
          1.11515492e-01, 8.50270167e-02, 7.98497945e-02, 6.75186738e-02,
          8.54801908e-02, 9.79668945e-02, 1.87361076e-01, 2.99180329e-01,
          1.02113105e-01, 7.58842006e-02, 9.42547247e-02, 1.04037687e-01,
          9.21407565e-02, 9.76478457e-02, 9.71905887e-02, 2.83465743e-01,
          3.55097979e-01, 1.34038970e-01, 3.66101712e-02, 2.55277772e-02,
          3.68376747e-02, 2.89661214e-02, 4.35307734e-02, 3.86223309e-02,
          2.06650108e-01, 3.55097979e-01, 9.02339742e-02, 3.83862332e-02,
          1.11681737e-01, 2.63754755e-01, 1.42336428e-01, 7.45740011e-02,
          8.15334097e-02, 3.41084391e-01, 3.32647353e-01, 4.90717627e-02,
          3.76722254e-02, 2.30054688e-02, 3.63268144e-02, 4.86646220e-02,
          6.66275769e-02, 8.99036676e-02, 2.13473931e-01, 3.55097979e-01,
          9.30325463e-02, 4.79906127e-02, 3.18313278e-02, 1.08889140e-01,
          7.10685477e-02, 7.51034766e-02, 1.28145561e-01, 2.85881728e-01,
          3.45837981e-01, 2.84070503e-02, 2.30237339e-02, 1.34738967e-01,
          2.33648136e-01, 1.27171531e-01, 4.44588289e-02, 4.28569280e-02,
          2.91431576e-01, 3.45837981e-01, 5.51698580e-02, 3.25212553e-02,
          9.09578726e-02, 1.14848442e-01, 5.91402687e-02, 4.98215370e-02,
          3.40399556e-02, 3.45837981e-01, 3.33970249e-01, 5.07950187e-02,
          9.42027848e-03, 2.16355789e-02, 8.03955719e-02, 5.67300171e-02,
          2.60036737e-02, 5.53778820e-02, 2.31538162e-01, 3.45837981e-01,
          5.24590127e-02, 6.42658258e-03, 9.67330392e-03, 2.39407364e-02,
          2.23081522e-02, 1.40573150e-02, 3.09418403e-02, 3.45837981e-01,
          3.24462444e-01, 1.01493120e-01, 8.16677138e-02, 5.01198806e-02,
          1.35179088e-01, 3.78375798e-02, 3.79711613e-02, 6.20838106e-02,
          3.24462444e-01, 3.24462444e-01, 1.28270209e-01, 9.77826640e-02,
          1.52046397e-01, 3.24462444e-01, 7.94366300e-02, 2.31960472e-02,
          7.49238953e-02, 2.22026885e-01, 3.24462444e-01, 5.27650937e-02,
          1.56614129e-02, 1.67568307e-02, 2.27795113e-02, 3.53457453e-03,
          1.27265202e-02, 2.02797577e-02, 3.23787838e-01, 3.24462444e-01,
          8.80551860e-02, 3.88584100e-02, 5.95467240e-02, 7.78571516e-02,
          8.46819114e-03, 2.15758849e-02, 2.86005586e-02, 2.83281982e-01,
          5.34018613e-02, 4.81310971e-02, 5.63966148e-02, 6.51312768e-02,
          1.95918575e-01, 2.55670637e-01, 1.84059665e-01, 6.93034381e-02,
          3.60057615e-02, 2.86619514e-01, 7.69129544e-02, 4.69012149e-02,
          5.26066311e-02, 8.16267356e-02, 8.49964842e-02, 7.22233504e-02,
          9.23256129e-02, 1.70593932e-01, 8.46273676e-02, 7.18206167e-02,
          6.29083812e-02, 1.57621995e-01, 3.03437024e-01, 3.03437024e-01,
          1.08994663e-01, 5.35443053e-02, 3.31422910e-02, 3.03437024e-01,
          1.98141709e-01, 1.54338807e-01, 2.08157346e-01, 3.03437024e-01,
          2.45606452e-01, 4.81316820e-02, 7.53688216e-02, 3.01482022e-01,
          2.89134711e-01, 4.40840647e-02, 1.95493586e-02, 2.04179864e-02,
          1.65097229e-02, 3.58747803e-02, 5.95958643e-02, 9.49205756e-02,
          3.09115767e-01, 3.28538179e-01, 1.09298393e-01, 2.54405662e-02,
          3.79541889e-02, 2.61674579e-02, 2.88627520e-02, 5.05386032e-02,
          7.36525729e-02, 3.28538179e-01, 3.28538179e-01, 1.46004423e-01,
          8.54546279e-02, 9.25119147e-02, 9.38846022e-02, 4.46204431e-02,
          2.65133530e-02, 8.52313116e-02, 3.28538179e-01, 3.28538179e-01,
          2.02783316e-01, 6.26571700e-02, 8.74254853e-02, 7.67868534e-02,
          2.82478686e-02, 3.05899959e-02, 1.15224726e-01, 3.28538179e-01,
          3.30593705e-01, 1.36996716e-01, 3.38846073e-02, 3.75703759e-02,
          1.38429804e-02, 2.61523109e-02, 5.32624125e-02, 4.07762714e-02,
          2.31745675e-01, 3.30593705e-01, 9.57720578e-02, 5.35942875e-02,
          2.92130578e-02, 1.37890447e-02, 3.34007032e-02, 5.10061681e-02,
          6.54860139e-02, 3.30593705e-01, 3.30593705e-01, 1.90958336e-01,
          1.10396780e-01, 9.87333953e-02, 5.14705628e-02, 3.17825526e-02,
          3.74063812e-02, 6.24330342e-02, 3.30593705e-01, 3.30593705e-01,
          9.83565673e-02, 1.58424661e-01, 8.78075063e-02, 6.96915388e-02,
          9.06016156e-02, 5.42062335e-02, 6.56114668e-02, 3.30593705e-01,
          3.25429410e-01, 8.03765282e-02, 3.02871335e-02, 2.56694648e-02,
          2.50166245e-02, 3.93501334e-02, 3.68639678e-02, 8.09148550e-02,
          3.25429410e-01, 3.25429410e-01, 9.17974934e-02, 2.32020039e-02,
          4.22535203e-02, 3.35275158e-02, 4.55653146e-02, 5.21598198e-02,
          8.50107521e-02, 3.25429410e-01, 3.25429410e-01, 7.67068714e-02,
          8.86892974e-02, 6.29642233e-02, 5.02917655e-02, 1.06135093e-01,
          5.41040525e-02, 8.75094756e-02, 3.25429410e-01, 3.25429410e-01,
          1.66090176e-01, 9.06406268e-02, 1.18581936e-01, 6.57056794e-02,
          4.68516722e-02, 5.60571291e-02, 7.67281502e-02, 3.25429410e-01,
          3.40042382e-01, 4.82417904e-02, 1.97450332e-02, 2.11439785e-02,
          2.25509424e-02, 1.73772126e-02, 3.07213236e-02, 6.63387701e-02,
          3.40042382e-01, 3.40042382e-01, 1.32084042e-01, 2.90971287e-02,
          1.86922085e-02, 1.14672035e-02, 6.31543901e-03, 2.82137562e-02,
          6.19589947e-02, 3.40042382e-01, 3.40042382e-01, 1.38408601e-01,
          4.69468571e-02, 5.80498986e-02, 4.37794290e-02, 7.03581376e-03,
          3.33992653e-02, 9.54368934e-02, 3.03871125e-01, 3.40042382e-01,
          2.38012359e-01, 5.20065501e-02, 5.27733043e-02, 3.59172150e-02,
          6.58662617e-03, 2.66020931e-02, 7.73802996e-02, 2.65772700e-01,
          3.46806377e-01, 1.74347475e-01, 1.81690101e-02, 9.70443059e-03,
          4.22856724e-03, 7.04568019e-03, 3.16289142e-02, 5.07074557e-02,
          3.46806377e-01, 3.46806377e-01, 1.52107343e-01, 3.12891155e-02,
          1.23979896e-02, 1.66800106e-03, 1.41255809e-02, 4.07206714e-02,
          2.99931094e-02, 3.46806377e-01, 3.36305916e-01, 2.12905839e-01,
          5.62306568e-02, 3.78989205e-02, 3.35428827e-02, 1.01540564e-02,
          3.44055891e-02, 5.00596799e-02, 2.49529272e-01, 3.13785374e-01,
          1.62118018e-01, 7.89992064e-02, 3.10680512e-02, 3.89010124e-02,
          3.48226540e-02, 7.48556703e-02, 5.31104915e-02, 2.83963323e-01,
          3.83376062e-01, 1.17380321e-01, 3.98759916e-02, 2.15759967e-02,
          1.29386568e-02, 1.73471514e-02, 5.26642390e-02, 2.59825215e-02,
          3.83376062e-01, 3.83376062e-01, 1.33951783e-01, 6.57886341e-02,
          2.86537819e-02, 2.62759775e-02, 9.14055575e-03, 6.47303239e-02,
          5.69258817e-02, 3.83376062e-01, 2.75614917e-01, 1.04301199e-01,
          9.58232731e-02, 4.01627794e-02, 4.04582955e-02, 3.20471935e-02,
          1.10106796e-01, 6.54560551e-02, 2.45099589e-01, 2.77806640e-01,
          1.48418710e-01, 1.33477971e-01, 5.60093559e-02, 4.32192162e-02,
          8.80412012e-03, 1.12223856e-01, 9.47870985e-02, 1.91698372e-01,
          1.69587675e-02, 1.86308604e-02, 2.94234026e-02, 1.02062277e-01,
          3.19868445e-01, 3.20434093e-01, 8.96563679e-02, 1.36525985e-02,
          6.66288100e-03, 1.14345469e-01, 8.00477117e-02, 9.99280140e-02,
          1.63622811e-01, 3.00217748e-01, 3.20434093e-01, 1.78520754e-01,
          3.79279405e-02, 6.39465377e-02, 4.87848371e-03, 8.56906082e-03,
          2.52432451e-02, 7.27711618e-02, 2.41259038e-01, 3.20434093e-01,
          1.53053820e-01, 1.98358018e-02, 2.13243044e-03, 1.00800470e-02,
          2.31901053e-02, 5.56035601e-02, 1.21689662e-01, 2.23902211e-01,
          3.20434093e-01, 3.20434093e-01, 1.42510623e-01, 9.85900220e-03,
          2.12569863e-01, 1.26447544e-01, 1.09916925e-01, 1.60464078e-01,
          1.56710237e-01, 1.60201415e-01, 8.61741826e-02, 4.76082861e-02,
          1.47024855e-01, 2.36219034e-01, 1.44375324e-01, 1.01748094e-01,
          1.48638889e-01, 1.25443593e-01, 4.23976444e-02, 2.86089294e-02,
          6.19850717e-02, 1.88849017e-01, 9.92637202e-02, 1.46235973e-01,
          1.16795324e-01, 2.25741550e-01, 2.41804659e-01, 3.03148687e-01,
          3.03148687e-01, 1.31491721e-01, 2.39385664e-02, 3.03148687e-01,
          3.03148687e-01, 1.94360703e-01, 1.89044490e-01, 1.40072241e-01,
          6.02955297e-02, 2.17456147e-02, 3.45322564e-02, 1.06221735e-01,
          1.80857614e-01, 1.25548050e-01, 1.24335110e-01, 1.07350647e-01,
          7.81213865e-02, 3.77247445e-02, 3.25179920e-02, 4.90609854e-02,
          1.33281633e-01, 1.71094224e-01, 1.10182345e-01, 1.52253911e-01,
          9.18134451e-02, 1.20114625e-01, 8.10884833e-02, 5.57141416e-02,
          5.24020232e-02, 1.23503044e-01, 3.96440357e-01, 3.00545126e-01,
          1.60280108e-01, 6.51492849e-02, 3.34818028e-02, 1.75927952e-02,
          1.27849216e-02, 2.17034873e-02, 3.23557556e-01, 3.96440357e-01,
          2.07109243e-01, 1.69335172e-01, 5.12872636e-02, 5.02774231e-02,
          2.28636079e-02, 2.31408309e-02, 2.00926661e-02, 3.96440357e-01,
          1.22555405e-01, 5.83706759e-02, 8.07727426e-02, 6.54267669e-02,
          6.28055334e-02, 7.71653950e-02, 5.82873672e-02, 9.31495652e-02,
          1.28663883e-01, 1.24495663e-01, 1.15977734e-01, 1.12861969e-01,
          1.35163486e-01, 6.71206117e-02, 4.04126719e-02, 3.98739055e-02,
          6.90128431e-02, 9.22605544e-02, 4.42107767e-01, 1.14202179e-01,
          7.85140172e-02, 5.16268164e-02, 3.08927689e-02, 2.64850333e-02,
          3.00206356e-02, 5.79182133e-02, 4.42107767e-01, 4.42107767e-01,
          1.22732863e-01, 8.46751705e-02, 8.72712061e-02, 3.26351076e-02,
          3.83472294e-02, 3.26473527e-02, 6.15831465e-02, 4.42107767e-01,
          8.59011933e-02, 1.01451188e-01, 7.25320652e-02, 8.74637887e-02,
          3.36968750e-02, 1.16112921e-02, 1.86780728e-02, 4.35993336e-02,
          7.02077225e-02, 1.27492189e-01, 1.10884033e-01, 5.61270528e-02,
          6.89082667e-02, 3.68663222e-02, 1.41598452e-02, 3.41117606e-02,
          4.07134742e-02, 8.67268890e-02, 4.61818844e-01, 1.23878464e-01,
          5.27792908e-02, 7.13721737e-02, 2.44607311e-02, 2.90164482e-02,
          2.41233055e-02, 3.94428149e-02, 4.61818844e-01, 4.61818844e-01,
          1.39911056e-01, 3.55470143e-02, 6.02503866e-02, 2.00326927e-02,
          1.43577084e-02, 2.49320995e-02, 4.89654578e-02, 4.61818844e-01,
          8.86887759e-02, 5.81208579e-02, 3.59069481e-02, 3.56154367e-02,
          3.79209630e-02, 1.69612207e-02, 2.78491769e-02, 2.59022731e-02,
          7.13979080e-02, 1.09742410e-01, 6.05125874e-02, 5.01902290e-02,
          2.94434074e-02, 4.12345417e-02, 4.52558175e-02, 5.02689555e-02,
          3.46582942e-02, 8.42902809e-02, 4.64309752e-01, 1.15494430e-01,
          2.14408003e-02, 2.68881284e-02, 2.02597640e-02, 1.63625982e-02,
          2.07592528e-02, 5.04770055e-02, 4.64309752e-01, 4.64309752e-01,
          1.51864752e-01, 9.70339552e-02, 6.62842244e-02, 4.05909084e-02,
          5.13296127e-02, 5.99249266e-02, 1.19834311e-01, 4.64309752e-01,
          1.08363852e-01, 4.52972576e-02, 4.36921455e-02, 1.80983562e-02,
          2.42649112e-02, 2.74867266e-02, 4.97886501e-02, 2.79975366e-02,
          6.63438812e-02, 1.74600512e-01, 7.06254765e-02, 6.21272661e-02,
          2.49556825e-02, 1.69897228e-02, 8.00999813e-03, 4.14989591e-02,
          3.00193187e-02, 8.53125677e-02, 4.64066356e-01, 9.59078744e-02,
          8.77873898e-02, 3.79335955e-02, 2.33700182e-02, 3.82108241e-02,
          5.69064021e-02, 7.45922774e-02, 4.64066356e-01, 4.64066356e-01,
          6.99004307e-02, 5.15842475e-02, 2.86236536e-02, 1.01157017e-01,
          5.45582958e-02, 5.77024221e-02, 6.80188909e-02, 4.64066356e-01,
          3.58497687e-02, 3.08103710e-02, 2.84375753e-02, 7.66156539e-02,
          2.04974487e-01, 2.42581785e-01, 1.12669401e-01, 1.83065739e-02,
          7.97598064e-03, 2.47799512e-02, 3.85879129e-02, 5.89772426e-02,
          1.25356153e-01, 2.43114740e-01, 3.06438714e-01, 3.06438714e-01,
          2.56602585e-01, 3.33437435e-02, 5.26624881e-02, 5.31203337e-02,
          4.89795171e-02, 1.00053854e-01, 3.06438714e-01, 2.79905945e-01,
          8.01104158e-02, 1.56820845e-02, 1.74006484e-02, 2.80962307e-02,
          5.02276830e-02, 7.79822171e-02, 1.74522266e-01, 3.06438714e-01,
          2.96181530e-01, 3.06438714e-01, 1.54146478e-01, 5.03604189e-02,
          7.16503412e-02, 1.01216972e-01, 6.70889094e-02, 9.06333029e-02,
          1.16852686e-01, 1.51099518e-01, 1.98588759e-01, 1.30968124e-01,
          4.61485237e-02, 2.76248783e-01, 2.76248783e-01, 1.19950056e-01,
          9.00861919e-02, 6.04287274e-02, 4.52304520e-02, 4.54159193e-02,
          6.13323189e-02, 2.58374989e-01, 4.83250506e-02, 4.86295372e-02,
          5.82703762e-02, 1.19803935e-01, 2.76248783e-01, 1.94477066e-01,
          2.66620934e-01, 1.40846804e-01, 6.05129711e-02, 2.76248783e-01,
          1.60119236e-01, 1.43543556e-01, 1.67920843e-01, 2.76248783e-01,
          1.94866195e-01, 1.89497158e-01, 1.09991968e-01, 2.76248783e-01,
          3.43684673e-01, 1.28207192e-01, 3.49691175e-02, 1.58915035e-02,
          4.19984758e-03, 4.50248504e-03, 4.76023182e-03, 1.99610740e-02,
          3.43684673e-01, 3.43684673e-01, 5.17706871e-02, 1.73741225e-02,
          1.16981072e-02, 1.66828756e-03, 4.04960912e-04, 5.97524177e-03,
          2.32117064e-02, 3.43684673e-01, 3.43684673e-01, 8.19965303e-02,
          4.71241400e-02, 4.59310561e-02, 8.10730532e-02, 3.85661647e-02,
          3.21954004e-02, 4.60686982e-02, 3.43684673e-01, 3.43684673e-01,
          4.07418683e-02, 1.64348911e-02, 3.91432792e-02, 1.43308481e-02,
          1.15060182e-02, 2.72498038e-02, 5.22464439e-02, 3.43684673e-01,
          3.65023702e-01, 3.72014455e-02, 9.85760707e-03, 8.37594550e-03,
          1.81430066e-03, 1.48603844e-03, 5.66366361e-03, 1.79319456e-02,
          3.65023702e-01, 3.65023702e-01, 8.41560736e-02, 1.12676919e-02,
          5.59449708e-03, 1.53472251e-03, 4.43496369e-03, 6.11275015e-03,
          8.37038737e-03, 3.65023702e-01, 3.65023702e-01, 3.06017231e-02,
          1.82223916e-02, 2.14407742e-02, 1.45950699e-02, 1.75335947e-02,
          1.92218572e-02, 3.55389789e-02, 3.60097319e-01, 3.65023702e-01,
          7.90991858e-02, 2.84592025e-02, 1.62693597e-02, 2.02933773e-02,
          1.39532639e-02, 1.82968695e-02, 1.41303474e-02, 2.13530615e-01,
          3.74980897e-01, 1.24936700e-01, 1.29426317e-02, 5.54509321e-03,
          2.45556165e-03, 5.74005349e-03, 7.39033520e-03, 1.05391983e-02,
          3.74980897e-01, 3.74980897e-01, 9.76957083e-02, 9.25635919e-03,
          6.78112172e-03, 3.15800705e-03, 2.38946592e-03, 5.67499688e-03,
          1.78950317e-02, 3.74980897e-01, 3.74980897e-01, 1.09087557e-01,
          3.04786731e-02, 1.84689946e-02, 2.86930744e-02, 1.46763073e-02,
          1.80440377e-02, 1.77965146e-02, 1.86860532e-01, 3.74980897e-01,
          7.12524578e-02, 2.37914622e-02, 2.14657951e-02, 4.12719995e-02,
          1.53309600e-02, 1.00172963e-02, 2.25711707e-02, 2.60985047e-01,
          3.49535912e-01, 1.19799532e-01, 5.57374163e-03, 1.68476962e-02,
          2.58828811e-02, 5.40785911e-03, 4.43199649e-03, 4.37812135e-02,
          3.49535912e-01, 3.49535912e-01, 1.21292248e-01, 1.02691479e-01,
          1.00263394e-01, 1.51370749e-01, 3.48221064e-02, 4.82159518e-02,
          1.25165388e-01, 3.49535912e-01, 3.49535912e-01, 6.96520656e-02,
          1.20200515e-02, 3.95016149e-02, 8.40116218e-02, 2.53451951e-02,
          8.18713009e-03, 3.63156088e-02, 1.84069946e-01, 2.39591584e-01,
          6.35853261e-02, 5.97838685e-02, 1.21605195e-01, 3.49535912e-01,
          8.33400637e-02, 4.89093810e-02, 8.59109908e-02, 1.50580898e-01,
          3.29255164e-01, 4.47928943e-02, 1.00966118e-01, 6.24794737e-02,
          1.05001092e-01, 3.79449353e-02, 5.26342653e-02, 8.48679692e-02,
          3.29255164e-01, 3.29255164e-01, 2.71599200e-02, 4.65679467e-02,
          6.69855028e-02, 2.90033817e-01, 8.07778463e-02, 5.56427427e-02,
          6.07110523e-02, 3.29255164e-01, 2.16254234e-01, 2.62602977e-02,
          7.69799873e-02, 7.53218159e-02, 3.29255164e-01, 6.44852445e-02,
          4.70859297e-02, 5.43224625e-02, 1.84935808e-01, 1.95283309e-01,
          3.64833474e-02, 5.67632727e-02, 1.01164147e-01, 3.29255164e-01,
          1.29053026e-01, 4.66034971e-02, 3.27799246e-02, 1.65794879e-01,
          4.29881625e-02, 2.95426510e-02, 4.04800102e-02, 1.06921576e-01,
          3.64121020e-01, 2.37711564e-01, 5.32566011e-02, 1.40206935e-02,
          2.01619361e-02, 3.08157634e-02, 3.27325836e-02, 4.42039818e-02,
          1.51390016e-01, 3.64121020e-01, 2.12268412e-01, 1.16986722e-01,
          4.22696434e-02, 5.97390868e-02, 3.26925404e-02, 1.22904060e-02,
          2.50177998e-02, 1.59797654e-01, 3.64121020e-01, 3.05431098e-01,
          4.28228565e-02, 1.69085339e-02, 2.06624437e-02, 7.95893297e-02,
          6.32061139e-02, 1.95175763e-02, 2.03317553e-01, 3.64121020e-01,
          3.43576282e-01, 5.79468161e-02, 2.57542618e-02, 4.43232358e-02,
          1.15229478e-02, 1.00240754e-02, 1.62695888e-02, 8.74976441e-02,
          3.68183225e-01, 1.63751349e-01, 1.35083571e-01, 5.85643537e-02,
          2.47404054e-02, 8.98861364e-02, 5.38170598e-02, 6.92580491e-02,
          1.53957173e-01, 3.68183225e-01, 2.27624238e-01, 1.22467250e-01,
          5.65192625e-02, 7.51817524e-02, 4.55853194e-02, 4.54280227e-02,
          9.44020320e-03, 9.07216072e-02, 3.68183225e-01, 2.45735019e-01,
          6.29823580e-02, 1.61143355e-02, 1.47423036e-02, 1.28127232e-01,
          1.33194968e-01, 1.46576703e-01, 1.67042822e-01, 3.68183225e-01,
          3.34508359e-01, 5.13678193e-02, 1.18236300e-02, 7.86427334e-02,
          1.80175826e-01, 1.05627924e-01, 9.92921218e-02, 1.36382580e-01,
          3.07496607e-01, 9.99218300e-02, 4.40531708e-02, 3.44332047e-02,
          1.37437776e-01, 1.60434008e-01, 8.08801949e-02, 5.70752062e-02,
          7.76202083e-02, 4.43247557e-02, 4.87713628e-02, 5.05683795e-02,
          4.95855473e-02, 1.53056085e-01, 3.25940043e-01, 2.49233902e-01,
          1.84249997e-01, 1.33690313e-01, 3.25940043e-01, 1.36040568e-01,
          1.99211873e-02, 1.07705612e-02, 3.25940043e-01, 3.25940043e-01,
          2.17793360e-01, 4.68902774e-02, 4.48676534e-02, 4.72862087e-02,
          4.78647798e-02, 3.59411463e-02, 4.64035794e-02, 3.25940043e-01,
          1.43330723e-01, 6.36054650e-02, 5.16115911e-02, 5.12930229e-02,
          6.01410381e-02, 6.97720423e-02, 5.68533912e-02, 6.30012006e-02,
          1.53814197e-01, 2.36335143e-01, 7.31440112e-02, 6.30503669e-02,
          5.17715923e-02, 6.78857490e-02, 4.74967286e-02, 4.53012511e-02,
          5.54977283e-02, 1.70549244e-01, 4.11753744e-01, 2.36607909e-01,
          2.75777914e-02, 3.09550725e-02, 5.45948409e-02, 5.28765805e-02,
          5.45342490e-02, 8.80533531e-02, 4.11753744e-01, 4.11753744e-01,
          2.06525400e-01, 8.66243541e-02, 2.23359000e-02, 5.50214872e-02,
          3.55420075e-02, 4.49004732e-02, 9.15474743e-02, 4.11753744e-01,
          1.94139808e-01, 5.04157804e-02, 4.09696661e-02, 3.63208055e-02,
          6.64537251e-02, 3.72061916e-02, 3.55232805e-02, 5.48621304e-02,
          1.37920186e-01, 2.36757159e-01, 5.94852418e-02, 2.92324331e-02,
          3.51417214e-02, 1.00036182e-01, 5.34390993e-02, 3.26440148e-02,
          7.52355382e-02, 2.23786652e-01, 4.12126273e-01, 9.29341242e-02,
          5.97905181e-02, 2.76091024e-02, 5.65364324e-02, 3.62344980e-02,
          2.87613347e-02, 6.04068451e-02, 4.12126273e-01, 4.12126273e-01,
          2.16961101e-01, 5.76441735e-02, 4.27477695e-02, 9.53593701e-02,
          4.79619280e-02, 4.09054235e-02, 1.59896329e-01, 4.12126273e-01,
          1.15089141e-01, 2.74605695e-02, 1.75685119e-02, 5.32808565e-02,
          9.57263783e-02, 5.88720851e-02, 2.20723692e-02, 5.37573136e-02,
          1.65160000e-01, 1.01265751e-01, 6.86234385e-02, 5.75024188e-02,
          1.47012085e-01, 2.74883479e-01, 1.16767697e-01, 5.24275824e-02,
          7.37989321e-02, 1.28531739e-01, 2.74883479e-01, 1.12225831e-01,
          8.61078426e-02, 7.08138272e-02, 1.79993525e-01, 1.30033121e-01,
          8.15247223e-02, 1.93145648e-01, 2.74883479e-01, 2.20212802e-01,
          1.53773427e-01, 2.29531050e-01, 2.65072644e-01, 2.74883479e-01,
          2.74883479e-01, 2.36050576e-01, 2.01779470e-01, 2.66420454e-01,
          9.63196680e-02, 7.77717307e-02, 6.69916645e-02, 7.86772892e-02,
          2.59569287e-01, 7.51966164e-02, 5.92663735e-02, 5.92725165e-02,
          8.40169117e-02, 2.52382874e-01, 1.27337992e-01, 7.09744915e-02,
          8.96914899e-02, 2.59569287e-01, 1.80832818e-01, 8.91340449e-02,
          8.23721066e-02, 1.44793615e-01, 2.09965602e-01, 1.73986226e-01,
          1.59324706e-01, 2.11372972e-01, 2.37686619e-01, 1.59639627e-01,
          2.20896140e-01, 1.42548129e-01, 1.33194521e-01, 2.48628497e-01,
          1.70584857e-01, 1.45123541e-01, 2.59569287e-01, 2.59569287e-01,
          1.78317964e-01, 1.50382698e-01, 1.11888960e-01, 1.69131249e-01 ]
      - [ 4.05791372e-01, 1.07279286e-01, 5.14604561e-02, 8.19026008e-02,
          1.24708161e-01, 6.91599101e-02, 4.90150340e-02, 5.70188500e-02,
          4.05791372e-01, 4.05791372e-01, 9.75081176e-02, 3.41478437e-02,
          4.69102934e-02, 1.42648771e-01, 1.25890791e-01, 1.03485286e-01,
          9.82767195e-02, 4.05791372e-01, 6.90514818e-02, 7.62453079e-02,
          7.88453817e-02, 1.24385782e-01, 1.44845992e-01, 1.00490890e-01,
          1.27654538e-01, 1.13377847e-01, 9.34446827e-02, 1.14735402e-01,
          9.15707722e-02, 8.97872001e-02, 7.98442438e-02, 1.75899982e-01,
          1.01879746e-01, 1.34370461e-01, 1.13668159e-01, 1.07113704e-01,
          3.74847800e-01, 1.41835913e-01, 6.93317950e-02, 1.14951544e-01,
          1.40507266e-01, 1.12483777e-01, 8.14848021e-02, 6.37885109e-02,
          2.82879621e-01, 3.74847800e-01, 2.33338445e-01, 1.39883727e-01,
          1.86020032e-01, 1.78785294e-01, 1.08269133e-01, 1.17276870e-01,
          7.60573521e-02, 1.72345296e-01, 1.50436878e-01, 7.87594318e-02,
          1.05488375e-01, 1.16053872e-01, 1.71193704e-01, 1.46651715e-01,
          1.43268362e-01, 1.04720667e-01, 9.31723639e-02, 1.43977985e-01,
          1.03120737e-01, 1.17675126e-01, 1.51638314e-01, 1.54719338e-01,
          1.81527227e-01, 1.90665200e-01, 1.46406278e-01, 1.58504784e-01,
          1.57954007e-01, 1.23519614e-01, 8.85372609e-02, 1.54390439e-01,
          1.69354782e-01, 1.49091706e-01, 1.92553058e-01, 7.97387660e-02,
          1.16570838e-01, 1.05564706e-01, 3.57688554e-02, 6.05471358e-02,
          9.01759937e-02, 2.27188244e-01, 1.79128319e-01, 2.22486436e-01,
          8.77183378e-02, 9.53121781e-02, 8.34414065e-02, 7.21128806e-02,
          6.89312667e-02, 9.78745893e-02, 1.01879686e-01, 1.40876055e-01,
          2.86264777e-01, 1.83238462e-01, 1.41318649e-01, 1.79010049e-01,
          2.86987185e-01, 3.70785862e-01, 8.37756023e-02, 1.73525974e-01,
          1.11539811e-01, 3.16776127e-01, 1.85188189e-01, 1.18171193e-01,
          3.92815694e-02, 4.47789542e-02, 1.02905244e-01, 9.28572342e-02,
          6.26391321e-02, 5.01535833e-02, 5.61524741e-02, 4.92071062e-02,
          3.81212570e-02, 1.23864748e-01, 3.33709389e-01, 3.55447382e-01,
          2.62814492e-01, 8.04922432e-02, 6.74921870e-02, 5.44238575e-02,
          8.13025907e-02, 4.27281633e-02, 6.67212605e-02, 1.75806582e-01,
          3.55447382e-01, 2.47252539e-01, 1.24589913e-01, 2.89209895e-02,
          4.93908264e-02, 4.70357873e-02, 3.96891274e-02, 8.30315128e-02,
          2.72472978e-01, 3.55447382e-01, 3.55447382e-01, 1.66192397e-01,
          4.19638641e-02, 5.39712086e-02, 5.14221862e-02, 3.85910273e-02,
          1.89491630e-01, 3.53158087e-01, 3.53158087e-01, 2.04574659e-01,
          8.84744450e-02, 8.79669785e-02, 4.62586135e-02, 8.86141360e-02,
          4.14067656e-02, 7.75226131e-02, 2.92672157e-01, 3.53158087e-01,
          9.61066335e-02, 1.26327008e-01, 7.06176236e-02, 4.46662903e-02,
          6.33786619e-02, 5.38120829e-02, 1.30575597e-01, 2.65983462e-01,
          3.53158087e-01, 1.96114480e-01, 9.10584405e-02, 6.61166832e-02,
          7.47651309e-02, 7.14939684e-02, 6.39360920e-02, 9.11508501e-02,
          1.18795447e-01, 1.74222812e-01, 5.45499809e-02, 1.24982603e-01,
          1.11248046e-01, 9.34925601e-02, 1.01099074e-01, 7.33695328e-02,
          1.24477878e-01, 1.89473748e-01, 3.39025199e-01, 8.17338526e-02,
          2.07016513e-01, 6.17801137e-02, 1.12128086e-01, 5.26419021e-02,
          1.13238566e-01, 1.43680066e-01, 1.46732181e-01, 2.95446664e-01,
          1.84793249e-01, 2.06663758e-01, 6.48614541e-02, 9.65688303e-02,
          8.69253501e-02, 1.49112940e-01, 1.12464078e-01, 1.03245154e-01,
          1.94791645e-01, 7.84325302e-02, 2.84303606e-01, 1.40039921e-01,
          1.73974276e-01, 1.24433421e-01, 9.98968184e-02, 1.52226776e-01,
          1.24008760e-01, 2.83132762e-01, 1.46426320e-01, 2.61461496e-01,
          6.15882874e-02, 1.40154198e-01, 1.31934732e-01, 1.61804795e-01,
          1.00130603e-01, 1.18558072e-01, 2.08551690e-01, 1.57181218e-01,
          2.10726872e-01, 6.51331693e-02, 7.99605176e-02, 1.99397907e-01,
          1.34099454e-01, 1.40117139e-01, 1.13518015e-01, 1.32534713e-01,
          4.39375043e-02, 2.54522085e-01, 9.34940949e-02, 1.48144990e-01,
          2.75677949e-01, 1.55072108e-01, 1.37505412e-01, 1.16750300e-01,
          1.96370751e-01, 1.33356661e-01, 2.08197072e-01, 5.85227981e-02,
          9.13768336e-02, 2.03128681e-01, 1.62703574e-01, 2.21003160e-01,
          1.78813234e-01, 1.54647917e-01, 3.71254757e-02, 2.42959559e-01,
          8.90815780e-02, 1.81881845e-01, 2.82202572e-01, 2.15914726e-01,
          1.85584441e-01, 1.35205448e-01, 1.21428959e-01, 2.69839764e-02,
          2.31349878e-02, 2.57137567e-02, 3.25168632e-02, 2.89507527e-02,
          6.89607561e-02, 3.12435865e-01, 1.59464121e-01, 1.00324132e-01,
          2.10875198e-02, 3.97176966e-02, 2.31639799e-02, 2.35855673e-02,
          6.36616871e-02, 2.71159708e-01, 3.12435865e-01, 3.12435865e-01,
          3.12435865e-01, 4.40321043e-02, 1.62786059e-02, 1.82427559e-02,
          1.32662924e-02, 2.35175323e-02, 1.84734672e-01, 3.12435865e-01,
          3.12435865e-01, 2.37142250e-01, 4.21752185e-02, 8.40982199e-02,
          5.26962765e-02, 4.69122864e-02, 1.17792107e-01, 3.12435865e-01,
          2.67939419e-01, 1.55365989e-01, 6.67984262e-02, 1.41429510e-02,
          6.13925830e-02, 3.77783105e-02, 3.59327011e-02, 7.71065876e-02,
          2.79195637e-01, 1.99147329e-01, 7.30446652e-02, 4.22947779e-02,
          3.02755870e-02, 4.93471362e-02, 7.27582797e-02, 6.98655695e-02,
          1.60012737e-01, 2.79195637e-01, 2.79195637e-01, 2.79195637e-01,
          1.28671780e-01, 3.58466655e-02, 1.65772989e-01, 1.03220575e-01,
          1.18190371e-01, 1.43411621e-01, 2.79195637e-01, 2.69374847e-01,
          1.08205080e-01, 6.02673665e-02, 4.87932861e-02, 1.35364726e-01,
          1.69595018e-01, 1.96109787e-01, 2.53431112e-01, 2.79195637e-01,
          6.31809607e-02, 3.29232290e-02, 4.94994968e-02, 4.14176285e-02,
          3.40509973e-02, 5.64715490e-02, 8.28775391e-02, 1.38000876e-01,
          1.48801222e-01, 5.52992560e-02, 2.78464854e-01, 3.06424350e-01,
          7.37006590e-02, 4.86770719e-02, 3.31618674e-02, 6.43632635e-02,
          5.30047081e-02, 3.88334058e-02, 1.17039546e-01, 8.71130899e-02,
          8.00608024e-02, 1.27875999e-01, 9.43683907e-02, 1.43489361e-01,
          2.24012122e-01, 2.85473883e-01, 2.66149461e-01, 1.18693486e-01,
          3.06424350e-01, 3.06424350e-01, 2.95748353e-01, 1.28854886e-01,
          1.51670620e-01, 1.41335055e-01, 2.53393024e-01, 2.32898951e-01,
          6.51594028e-02, 3.24387133e-01, 3.24387133e-01, 1.34414941e-01,
          6.41212761e-02, 1.51371025e-02, 4.86470088e-02, 4.27699760e-02,
          3.67207378e-02, 5.01884259e-02, 1.42646015e-01, 3.24387133e-01,
          1.69758961e-01, 8.41137990e-02, 1.99550707e-02, 4.71962057e-02,
          3.58215719e-02, 5.33190072e-02, 1.67426631e-01, 3.24387133e-01,
          3.24387133e-01, 1.12705246e-01, 4.93448228e-02, 5.64596057e-02,
          8.02050680e-02, 1.84536442e-01, 2.57455617e-01, 1.48990542e-01,
          1.11997060e-01, 1.48460820e-01, 3.02027389e-02, 1.42365554e-02,
          5.85932881e-02, 1.14413530e-01, 2.62978345e-01, 2.76059866e-01,
          1.13471635e-01, 9.65181962e-02, 2.18834892e-01, 1.20030537e-01,
          1.20802589e-01, 5.35000078e-02, 7.94073045e-02, 5.87822162e-02,
          1.04198456e-01, 1.06392093e-01, 8.91808346e-02, 1.46639422e-01,
          5.93602955e-02, 1.71103269e-01, 1.51004747e-01, 1.22203566e-01,
          1.12344690e-01, 9.06446949e-02, 2.13244766e-01, 5.59476539e-02,
          1.15466878e-01, 4.24708724e-02, 7.84336776e-02, 1.84601203e-01,
          2.04873666e-01, 3.22197020e-01, 3.22197020e-01, 1.48870647e-01,
          2.89257634e-02, 6.62568137e-02, 1.91960596e-02, 1.59675598e-01,
          1.93892211e-01, 3.16789001e-01, 3.22197020e-01, 3.05763215e-01,
          8.32990631e-02, 5.98177202e-02, 1.38655946e-01, 4.74848635e-02,
          2.33686879e-01, 1.92713559e-01, 2.03642726e-01, 1.40563786e-01,
          8.17780867e-02, 1.16778396e-01, 1.25392288e-01, 2.12226853e-01,
          7.27603137e-02, 1.77412078e-01, 7.51773790e-02, 2.01927394e-01,
          9.56528336e-02, 1.13430202e-01, 1.31371617e-01, 6.27223998e-02,
          7.92294592e-02, 2.18138304e-02, 1.96194619e-01, 2.38420159e-01,
          3.34306747e-01, 2.38490447e-01, 1.53301001e-01, 1.44461185e-01,
          2.23089844e-01, 1.77637786e-01, 7.25742206e-02, 1.76017702e-01,
          1.68233305e-01, 3.34306747e-01, 1.21879987e-01, 1.28854409e-01,
          1.23094082e-01, 1.73977166e-01, 2.28520662e-01, 1.01487465e-01,
          1.33796901e-01, 2.37869900e-02, 7.58208111e-02, 7.19498470e-02,
          1.05148129e-01, 1.88365981e-01, 2.43792579e-01, 3.11365187e-01,
          9.49200392e-02, 1.50444999e-01, 3.54026258e-02, 6.16479479e-02,
          8.00050348e-02, 1.42332673e-01, 1.48408562e-01, 3.15391690e-01,
          2.64803171e-01, 1.12589404e-01, 1.57961100e-01, 4.54907380e-02,
          1.36571035e-01, 7.36821294e-02, 1.16469994e-01, 1.95097163e-01,
          3.12514722e-01, 3.21597904e-01, 1.18468739e-01, 1.73010737e-01,
          6.22890554e-02, 7.46202916e-02, 7.00648203e-02, 1.63508236e-01,
          2.82604992e-01, 3.30785841e-01, 3.30785841e-01, 8.65186229e-02,
          8.79693106e-02, 7.56626651e-02, 4.52845022e-02, 4.38820980e-02,
          1.99519426e-01, 3.18697304e-01, 2.75326341e-01, 2.25820795e-01,
          1.00391664e-01, 1.71521664e-01, 1.23345166e-01, 1.28791943e-01,
          9.39732268e-02, 2.26731181e-01, 6.88157529e-02, 6.17875345e-02,
          1.08480707e-01, 9.46549922e-02, 2.67336041e-01, 1.35363787e-01,
          9.57483426e-02, 4.41845693e-02, 6.39650747e-02, 7.81831145e-02,
          1.02941282e-01, 9.54367220e-02, 1.46199390e-01, 2.34448731e-01,
          1.11258179e-01, 1.37578100e-01, 5.82075231e-02, 4.70683575e-02,
          1.77926794e-01, 1.27617881e-01, 1.05398476e-01, 1.00355133e-01,
          2.71805495e-01, 1.95635974e-01, 1.95994571e-01, 8.93613249e-02,
          1.50924101e-01, 1.42904013e-01, 6.66475147e-02, 6.48294911e-02,
          1.12931155e-01, 2.71805495e-01, 2.61816531e-01, 2.45087013e-01,
          1.43745124e-01, 1.96040988e-01, 2.59666815e-02, 5.83652593e-02,
          7.48347342e-02, 2.00943097e-01, 2.71805495e-01, 1.75577596e-01,
          1.19124360e-01, 7.75032863e-02, 8.89137853e-03, 6.96242452e-02,
          8.95320475e-02, 1.18303724e-01, 2.35115349e-01, 2.71805495e-01,
          2.71805495e-01, 1.70864478e-01, 9.54465866e-02, 1.34627260e-02,
          1.34032056e-01, 1.00645028e-01, 3.69829275e-02, 1.14331134e-01,
          9.90793854e-02, 1.53431877e-01, 2.29809746e-01, 2.04470649e-01,
          1.48241818e-01, 1.59567356e-01, 2.36031950e-01, 1.52447551e-01,
          2.01789215e-01, 7.95902014e-02, 1.59901857e-01, 2.64669806e-01,
          2.68016905e-01, 2.68016905e-01, 1.85094535e-01, 1.06838524e-01,
          7.23420903e-02, 1.05644651e-01, 1.29384115e-01, 1.85226426e-01,
          1.70712143e-01, 7.72097856e-02, 1.16105288e-01, 1.55629486e-01,
          7.06274882e-02, 8.74746591e-02, 8.81054997e-02, 9.91789773e-02,
          2.14497179e-01, 2.68016905e-01, 2.17527583e-01, 1.80998012e-01,
          1.88951418e-01, 1.64149240e-01, 9.71371606e-02, 8.68880302e-02,
          4.98430207e-02, 1.13558143e-01, 1.65769622e-01, 2.91087568e-01,
          2.91087568e-01, 2.52811432e-01, 9.59628895e-02, 5.47131486e-02,
          4.45826612e-02, 3.86371054e-02, 9.80807319e-02, 1.39603198e-01,
          2.91087568e-01, 2.91087568e-01, 5.12831733e-02, 3.11768688e-02,
          5.80472238e-02, 9.88966450e-02, 1.08374447e-01, 2.26966426e-01,
          2.61916727e-01, 1.62823424e-01, 8.53735879e-02, 1.48486733e-01,
          1.35293037e-01, 2.18062431e-01, 1.60469130e-01, 1.91995963e-01,
          1.30249783e-01, 9.70413163e-02, 1.87696785e-01, 1.80072263e-01,
          1.63346767e-01, 4.35291566e-02, 2.12125815e-02, 9.73212067e-03,
          1.14604793e-02, 4.35833037e-02, 8.81161690e-02, 2.62613237e-01,
          2.62613237e-01, 1.07730135e-01, 1.83651168e-02, 6.04774849e-03,
          2.06601457e-03, 2.65745912e-02, 8.77854899e-02, 2.62613237e-01,
          2.62613237e-01, 2.41380349e-01, 2.13700175e-01, 1.38671249e-01,
          2.59247690e-01, 6.37430698e-02, 7.65732452e-02, 5.54605573e-02,
          6.40210956e-02, 1.54410526e-01, 2.38750160e-01, 2.26524472e-01,
          1.52622074e-01, 1.55465722e-01, 5.76284900e-02, 1.12257451e-01,
          2.28662133e-01, 2.62613237e-01, 2.62613237e-01, 2.62613237e-01,
          8.51040483e-02, 2.59777121e-02, 1.44448746e-02, 1.97299011e-03,
          8.01544562e-02, 1.77661210e-01, 3.35275501e-01, 2.50936717e-01,
          1.44976825e-01, 8.30897018e-02, 8.35679397e-02, 4.73762639e-02,
          2.13639028e-02, 1.01385385e-01, 7.75126740e-02, 1.66129902e-01,
          1.12305135e-01, 1.03300370e-01, 1.70743048e-01, 1.97275698e-01,
          6.29832447e-02, 6.86489567e-02, 2.25950509e-01, 3.35275501e-01,
          3.35275501e-01, 3.35275501e-01, 1.81192696e-01, 9.40639973e-02,
          7.96384439e-02, 6.18064441e-02, 4.82627936e-02, 1.99269056e-01,
          1.19790331e-01, 2.17854753e-01, 1.74603909e-01, 1.38447165e-01,
          1.44316360e-01, 2.41647080e-01, 1.47861406e-01, 8.06479082e-02,
          1.38719574e-01, 7.48004466e-02, 1.91420123e-01, 1.53402045e-01,
          1.63196653e-01, 1.53269574e-01, 1.72088683e-01, 1.63508192e-01,
          6.33571818e-02, 1.63462162e-01, 1.28156066e-01, 1.67611852e-01,
          1.76766977e-01, 2.08365709e-01, 1.20037816e-01, 1.05956525e-01,
          1.27988920e-01, 8.04542974e-02, 1.54149964e-01, 1.37779370e-01,
          2.45754227e-01, 2.26735294e-01, 1.81150466e-01, 1.69878542e-01,
          8.37476850e-02, 1.56441331e-01, 7.10127950e-02, 2.26908684e-01,
          1.50079086e-01, 2.60848254e-01, 2.48679057e-01, 2.06273183e-01,
          4.80560288e-02, 3.84998806e-02, 3.67348716e-02, 6.31266609e-02,
          1.39283523e-01, 9.57435369e-02, 7.25826174e-02, 5.60193248e-02,
          6.01369478e-02, 5.20863906e-02, 6.93405122e-02, 8.22907910e-02,
          1.54501408e-01, 1.47492439e-01, 6.34215325e-02, 9.74554941e-02,
          5.84467798e-02, 4.61230837e-02, 3.18751693e-01, 4.37444784e-02,
          3.11107617e-02, 3.88748944e-02, 7.18586221e-02, 9.79180560e-02,
          3.18751693e-01, 2.50178784e-01, 3.18751693e-01, 3.18751693e-01,
          1.62812188e-01, 1.94459319e-01, 1.83357909e-01, 1.62742242e-01,
          1.07471712e-01, 2.40833551e-01, 2.90505230e-01, 3.18751693e-01,
          1.56158023e-02, 8.29873458e-02, 1.06055968e-01, 1.77699357e-01,
          1.86167806e-01, 9.83027294e-02, 7.18513504e-02, 5.42150475e-02,
          7.06462096e-03, 3.91048603e-02, 1.30622327e-01, 1.69350550e-01,
          1.94994926e-01, 1.61975995e-01, 1.41796574e-01, 6.90257475e-02,
          5.37889674e-02, 1.80465020e-02, 2.34866858e-01, 2.34779447e-01,
          2.31899396e-01, 1.81324780e-01, 2.67285526e-01, 1.79674149e-01,
          1.55114636e-01, 2.27002740e-01, 1.31256789e-01, 2.67285526e-01,
          2.67285526e-01, 2.67285526e-01, 1.76591069e-01, 1.82119951e-01,
          1.78477898e-01, 7.08880201e-02, 1.08692095e-01, 1.85542732e-01,
          1.36533961e-01, 9.69967768e-02, 1.12600997e-01, 1.02749728e-01,
          7.26560131e-02, 1.09681360e-01, 8.09276104e-02, 3.90651822e-02,
          1.13636881e-01, 1.58559054e-01, 1.01241529e-01, 1.40694141e-01,
          8.46962482e-02, 7.41335973e-02, 1.27775669e-01, 9.36737433e-02,
          6.58584461e-02, 1.58967614e-01, 2.98044533e-01, 2.84820914e-01,
          2.27113649e-01, 8.39620233e-02, 4.49178256e-02, 1.45480826e-01,
          1.31486177e-01, 6.79961294e-02, 2.55990088e-01, 2.98044533e-01,
          2.98044533e-01, 2.98044533e-01, 5.25088608e-02, 4.55983691e-02,
          1.46114379e-01, 2.04250172e-01, 1.49794653e-01, 2.98044533e-01,
          1.09335721e-01, 8.52207392e-02, 1.11205928e-01, 9.17438194e-02,
          7.96936974e-02, 1.36320665e-01, 9.72195566e-02, 5.36160283e-02,
          6.55250549e-02, 9.41504240e-02, 1.98096484e-01, 3.21609646e-01,
          1.92778319e-01, 1.14825033e-01, 6.39835000e-02, 4.35173586e-02,
          2.95002107e-02, 7.07189292e-02, 3.21609646e-01, 3.21609646e-01,
          2.11147785e-01, 6.47455975e-02, 2.12182943e-02, 6.65429831e-02,
          7.17241690e-02, 8.65019783e-02, 2.47559220e-01, 3.21609646e-01,
          3.21609646e-01, 3.21609646e-01, 2.10576773e-01, 3.50137167e-02,
          1.57104768e-02, 1.28649464e-02, 1.79790556e-02, 1.02230534e-01,
          1.48285195e-01, 2.53836662e-01, 2.92120308e-01, 1.61796615e-01,
          9.67596397e-02, 5.34522422e-02, 2.71299779e-02, 1.26273930e-02,
          9.53075141e-02, 2.92120308e-01, 2.92120308e-01, 2.92120308e-01,
          1.31131068e-01, 1.62887424e-01, 1.74794495e-01, 1.92773968e-01,
          8.22961107e-02, 1.47762105e-01, 1.33125529e-01, 2.56581098e-01,
          2.92120308e-01, 1.43990010e-01, 5.02598360e-02, 1.43917957e-02,
          1.89791899e-02, 1.42442193e-02, 4.12580892e-02, 2.53907055e-01,
          2.63159454e-01, 1.69770524e-01, 7.02245161e-02, 9.77621973e-02,
          4.47345488e-02, 4.30151634e-02, 3.43050435e-02, 6.49118498e-02,
          3.05739760e-01, 3.05739760e-01, 1.92095652e-01, 1.40646458e-01,
          2.25677893e-01, 2.63530433e-01, 3.05739760e-01, 1.77907303e-01,
          1.07699633e-01, 1.09022513e-01, 1.53896213e-01, 1.13430634e-01,
          8.31917152e-02, 1.72097459e-01, 9.41280425e-02, 1.14839539e-01,
          1.00169189e-01, 8.42656493e-02, 3.05739760e-01, 3.05739760e-01,
          1.38508201e-01, 9.44426060e-02, 1.37979463e-01, 5.04586436e-02,
          5.97834885e-02, 6.28247038e-02, 1.08501777e-01, 1.92678809e-01,
          1.61495388e-01, 1.26871556e-01, 7.28794038e-02, 1.17912985e-01,
          3.94667536e-02, 6.03287742e-02, 5.76622933e-02, 9.52411145e-02,
          1.27255633e-01, 1.04658380e-01, 1.65521502e-01, 7.12734833e-02,
          1.84533194e-01, 1.14516318e-01, 1.44758791e-01, 1.48990393e-01,
          1.59607172e-01, 1.99846894e-01, 1.70154169e-01, 2.16141433e-01,
          8.65350887e-02, 2.09161967e-01, 6.55357838e-02, 1.64389253e-01,
          1.80092081e-01, 1.94241643e-01, 2.11154267e-01, 1.95845470e-01,
          2.45559469e-01, 8.76723677e-02, 2.25101069e-01, 6.70699328e-02,
          9.11061466e-02, 9.60137025e-02, 1.90207541e-01, 2.16619343e-01,
          2.63357252e-01, 2.51804590e-01, 8.84120613e-02, 1.85659304e-01,
          2.50529014e-02, 1.00988135e-01, 1.08249791e-01, 2.20038548e-01,
          3.26863289e-01, 8.15099571e-03, 3.78163112e-03, 2.34202738e-03,
          6.88488223e-03, 1.31479083e-02, 1.65308654e-01, 1.05071045e-01,
          3.26863289e-01, 3.26863289e-01, 8.83368924e-02, 4.16048691e-02,
          2.29185559e-02, 5.18013164e-02, 3.87816057e-02, 1.33770958e-01,
          2.10894704e-01, 3.26863289e-01, 3.26863289e-01, 2.12903284e-02,
          5.38137322e-03, 3.17276063e-05, 1.76569243e-04, 2.50331894e-03,
          4.19292897e-02, 3.58969979e-02, 3.26863289e-01, 3.26863289e-01,
          7.54791871e-02, 1.26125654e-02, 6.30884012e-03, 2.12905239e-02,
          1.23811252e-02, 6.48663715e-02, 1.11714497e-01, 3.26863289e-01,
          2.67274648e-01, 1.53200388e-01, 1.02384925e-01, 5.63287139e-02,
          1.62858546e-01, 8.15615281e-02, 1.00970984e-01, 1.93408847e-01,
          1.87535450e-01, 3.50907534e-01, 1.42734051e-01, 1.48087844e-01,
          6.44089058e-02, 9.26878899e-02, 8.76129642e-02, 3.97945121e-02,
          5.36712147e-02, 1.95595965e-01, 3.50907534e-01, 1.22684188e-01,
          2.54034121e-02, 2.76150946e-02, 6.89445138e-02, 2.93248892e-02,
          5.95139042e-02, 1.14262827e-01, 3.50907534e-01, 3.50907534e-01,
          6.40499219e-02, 4.72596064e-02, 2.84375623e-02, 4.08696607e-02,
          2.65926775e-02, 2.39224676e-02, 4.58206609e-02, 3.50907534e-01,
          2.69149929e-01, 9.19110626e-02, 9.70576257e-02, 2.53660865e-02,
          3.11403256e-02, 9.20541510e-02, 1.50275275e-01, 5.89498952e-02,
          1.51256472e-01, 2.46776268e-01, 1.01411849e-01, 1.15586765e-01,
          4.41728383e-02, 8.39228407e-02, 1.15344197e-01, 3.00173134e-01,
          1.94948778e-01, 1.60625517e-01, 3.00173134e-01, 1.98758338e-02,
          2.70954985e-02, 1.87264867e-02, 1.76788587e-02, 2.98742447e-02,
          9.10492986e-02, 4.91447970e-02, 3.00173134e-01, 3.00173134e-01,
          6.32733256e-02, 2.56348923e-02, 6.80906475e-02, 1.06968977e-01,
          1.10287420e-01, 3.00173134e-01, 3.00173134e-01, 3.00173134e-01,
          3.07585478e-01, 1.94415227e-01, 8.86605531e-02, 4.07695547e-02,
          7.00168163e-02, 6.66415691e-02, 2.11479351e-01, 1.85301408e-01,
          1.99783981e-01, 1.78867847e-01, 2.35479489e-01, 1.04352176e-01,
          4.04831581e-02, 1.79494116e-02, 2.72194147e-02, 1.78070776e-02,
          3.22849378e-02, 7.85652101e-02, 2.56581634e-01, 1.59731194e-01,
          9.32792574e-02, 8.37875530e-02, 1.56023353e-01, 2.25366145e-01,
          3.07585478e-01, 3.07585478e-01, 3.07585478e-01, 7.17102215e-02,
          1.22702248e-01, 7.92991221e-02, 5.08282892e-02, 7.64936954e-02,
          1.23136476e-01, 1.83647901e-01, 2.23469377e-01, 1.35405153e-01,
          2.12496847e-01, 2.91135222e-01, 2.14373037e-01, 1.22484088e-01,
          9.58548784e-02, 4.14572991e-02, 5.48021868e-02, 4.89261337e-02,
          1.16135992e-01, 2.48440236e-01, 1.42289728e-01, 7.22216219e-02,
          8.48436803e-02, 2.13835925e-01, 4.22891714e-02, 1.26969546e-01,
          1.39069602e-01, 1.43428698e-01, 1.44781485e-01, 2.32794359e-01,
          1.35140046e-01, 1.28718838e-01, 1.56719878e-01, 1.16780855e-01,
          9.97983292e-02, 8.91956016e-02, 1.29634082e-01, 2.61000335e-01,
          2.62630522e-01, 1.84672102e-01, 1.89359650e-01, 3.11149597e-01,
          1.65183872e-01, 9.52139571e-02, 1.29720151e-01, 1.95807070e-01,
          2.29085341e-01, 1.16938829e-01, 4.56512757e-02, 4.44547348e-02,
          1.56819835e-01, 2.23594736e-02, 9.68216360e-02, 1.06667876e-01,
          1.51386455e-01, 1.57022327e-01, 1.22748844e-01, 1.17350258e-01,
          3.94566543e-02, 1.09455414e-01, 1.28354393e-02, 9.05694589e-02,
          8.78009796e-02, 1.43469587e-01, 2.91520327e-01, 2.70969898e-01,
          1.56168565e-01, 1.12975404e-01, 2.48321325e-01, 1.05059564e-01,
          1.02799714e-01, 2.02706248e-01, 2.91520327e-01, 2.34567687e-01,
          1.99463189e-01, 1.98671803e-01, 1.14541307e-01, 1.37335956e-01,
          5.44051118e-02, 1.88088015e-01, 2.44813636e-01, 2.91520327e-01,
          1.54701009e-01, 1.27792835e-01, 1.88999340e-01, 7.74565563e-02,
          1.43088683e-01, 6.81766123e-03, 1.02325313e-01, 8.55863988e-02,
          1.64658979e-01, 1.71490163e-01, 1.59610316e-01, 1.77913770e-01,
          9.11950842e-02, 2.04021588e-01, 2.00951076e-03, 8.40225220e-02,
          5.70776388e-02, 1.75614476e-01, 2.35509634e-01, 1.79110646e-01,
          2.46271908e-01, 1.50985613e-01, 2.67980486e-01, 4.03466187e-02,
          1.96408495e-01, 1.40006021e-01, 2.74130136e-01, 2.36054689e-01,
          1.46244958e-01, 2.20243320e-01, 1.04745448e-01, 3.29582691e-01,
          1.70046948e-02, 8.08395818e-02, 6.96182251e-02, 1.92381442e-01,
          3.58373582e-01, 1.15652904e-01, 1.10908672e-01, 1.12411380e-02,
          7.72181526e-03, 9.17483680e-03, 2.95678526e-02, 2.25411691e-02,
          3.58373582e-01, 3.58373582e-01, 1.50093123e-01, 8.86339396e-02,
          3.91017050e-02, 8.26150253e-02, 2.80910209e-02, 5.47165982e-02,
          2.72856057e-02, 3.58373582e-01, 2.20402539e-01, 1.66867480e-01,
          1.81482509e-01, 3.43212783e-02, 2.14220174e-02, 1.85593367e-02,
          2.62276381e-02, 3.31361033e-02, 2.03066126e-01, 3.01582485e-01,
          1.82394281e-01, 1.22793034e-01, 9.82927606e-02, 1.67204052e-01,
          6.83188587e-02, 5.48807941e-02, 5.92889264e-02, 2.63868213e-01,
          3.53801936e-01, 1.35693923e-01, 1.71383228e-02, 6.16131462e-02,
          1.44324049e-01, 5.61922267e-02, 6.13064319e-02, 5.47317863e-02,
          3.53801936e-01, 3.53801936e-01, 7.48749450e-02, 3.66296666e-03,
          2.72700340e-02, 6.96196407e-02, 4.32882532e-02, 4.79926094e-02,
          1.21884383e-01, 3.53801936e-01, 1.72101706e-01, 8.29980522e-02,
          4.20739949e-02, 1.36300474e-01, 3.03391367e-01, 1.48628607e-01,
          7.48929381e-02, 6.46115243e-02, 1.57596618e-01, 2.53621101e-01,
          3.36671956e-02, 1.99372005e-02, 6.82744980e-02, 1.75503746e-01,
          1.29729494e-01, 8.81706327e-02, 1.25899717e-01, 2.54735500e-01,
          3.51520747e-01, 1.16420854e-02, 8.20028968e-03, 1.18935565e-02,
          6.31894451e-03, 1.00628836e-02, 1.87228955e-02, 7.06818625e-02,
          3.51520747e-01, 3.51520747e-01, 6.43155351e-02, 2.96375677e-02,
          4.75025363e-02, 5.68197928e-02, 1.23852216e-01, 2.40842119e-01,
          2.67855257e-01, 3.51520747e-01, 2.32639596e-01, 1.70369633e-02,
          2.90308073e-02, 5.92040867e-02, 4.19355035e-02, 3.95591110e-02,
          4.70889620e-02, 8.82923976e-02, 2.93694645e-01, 1.78672150e-01,
          5.11562750e-02, 4.84984927e-02, 9.01669562e-02, 1.56050861e-01,
          1.73728317e-01, 1.33057386e-01, 1.15412071e-01, 2.27738962e-01,
          1.29778892e-01, 5.46877831e-02, 7.43613765e-02, 6.21414185e-02,
          1.09121837e-01, 2.33341485e-01, 2.91055650e-01, 2.91055650e-01,
          2.63269812e-01, 1.61206480e-02, 2.98083238e-02, 7.35633522e-02,
          5.69100194e-02, 1.20194882e-01, 1.77254543e-01, 2.17133582e-01,
          1.54371232e-01, 4.89944406e-02, 5.01246788e-02, 2.48655379e-02,
          5.71659841e-02, 8.14172477e-02, 2.28324383e-01, 2.91055650e-01,
          2.91055650e-01, 1.74445748e-01, 6.06491789e-02, 1.96636077e-02,
          1.92444772e-02, 6.77766353e-02, 5.54839186e-02, 1.72615826e-01,
          2.38432080e-01, 2.91055650e-01, 2.91055650e-01, 2.30883807e-02,
          4.23173867e-02, 7.33028427e-02, 9.84802172e-02, 8.11575502e-02,
          1.72883511e-01, 1.04350045e-01, 1.42103955e-01, 9.82937813e-02,
          4.05611657e-02, 1.39112338e-01, 1.31965026e-01, 1.40132844e-01,
          8.48184153e-02, 2.68127739e-01, 1.26655713e-01, 5.60366996e-02,
          9.37602594e-02, 8.14929456e-02, 6.18561320e-02, 9.47609395e-02,
          8.65457654e-02, 4.75904532e-02, 1.76261693e-01, 2.04220966e-01,
          4.63433564e-01, 4.63433564e-01, 1.02012761e-01, 1.53923973e-01,
          1.17168359e-01, 8.14381316e-02, 2.17245147e-02, 1.25489563e-01,
          8.86102766e-02, 2.22711802e-01, 2.40150988e-01, 1.37326404e-01,
          2.71739036e-01, 2.22595289e-01, 1.68854624e-01, 1.14391260e-01,
          2.46006608e-01, 1.57640383e-01, 7.08988532e-02, 2.00303599e-01,
          1.94570497e-01, 2.58621067e-01, 2.08095387e-01, 1.83941707e-01,
          1.41663626e-01, 1.68259874e-01, 9.38827693e-02, 1.14813745e-01,
          1.57998830e-01, 2.25245237e-01, 2.71739036e-01, 1.16580181e-01,
          8.29969347e-02, 3.30982655e-02, 1.22365870e-01, 6.28859475e-02,
          9.15803835e-02, 2.22201377e-01, 1.72190905e-01, 2.55709231e-01,
          1.26023635e-01, 9.73893702e-02, 5.66529594e-02, 1.41411796e-01,
          5.08133247e-02, 9.41613466e-02, 1.14936605e-01, 1.82887688e-01,
          1.93988010e-01, 2.17510805e-01, 2.18606114e-01, 1.36111200e-01,
          3.03934664e-01, 9.23802555e-02, 1.56517655e-01, 7.21173361e-02,
          1.82934165e-01, 1.64640456e-01, 1.46166548e-01, 2.07925841e-01,
          6.81021139e-02, 2.66005486e-01, 6.49905950e-02, 9.91220400e-02,
          5.32832406e-02, 1.10942341e-01, 2.39174262e-01, 1.77396700e-01,
          1.50343239e-01, 5.64285405e-02, 2.33366117e-01, 9.21385884e-02,
          1.31147385e-01, 7.33716339e-02, 2.10278660e-01, 1.78635672e-01,
          1.46679163e-01, 1.76555321e-01, 6.97497278e-02, 2.81114995e-01,
          1.39760315e-01, 1.24832302e-01, 8.25612843e-02, 1.74977988e-01,
          2.98537493e-01, 2.25885674e-01, 1.02893792e-01, 5.06664477e-02,
          2.22969521e-02, 2.35375222e-02, 2.86151003e-02, 6.22838773e-02,
          2.17139661e-01, 2.98537493e-01, 2.71552801e-01, 1.18026398e-01,
          1.31970033e-01, 2.93519139e-01, 1.62334248e-01, 1.49800271e-01,
          1.28418460e-01, 2.87166983e-01, 2.98537493e-01, 1.73460469e-01,
          2.09382791e-02, 2.24227887e-02, 6.22982904e-02, 2.18927898e-02,
          3.51849496e-02, 6.39174432e-02, 1.46347597e-01, 2.71209180e-01,
          1.13844082e-01, 5.11919074e-02, 6.73277527e-02, 2.25445911e-01,
          9.42435637e-02, 1.64170370e-01, 7.55777881e-02, 1.59389019e-01,
          1.60170510e-01, 9.75425839e-02, 6.80335537e-02, 1.17505923e-01,
          2.78601974e-01, 2.26367235e-01, 2.37080991e-01, 8.04178417e-02,
          1.22778788e-01, 2.78601974e-01, 5.33221774e-02, 3.37597430e-02,
          7.65695125e-02, 2.30061963e-01, 1.63534582e-01, 2.17908174e-01,
          1.15479589e-01, 2.78601974e-01, 2.11179078e-01, 6.54572323e-02,
          3.25005613e-02, 5.63829467e-02, 2.44235426e-01, 9.55412686e-02,
          2.39387602e-01, 4.97996025e-02, 1.57315969e-01, 2.78601974e-01,
          8.18865746e-02, 2.42397096e-02, 4.21575718e-02, 1.29667997e-01,
          6.34086356e-02, 1.82473704e-01, 8.09626952e-02, 2.78601974e-01,
          2.84721553e-01, 4.84901741e-02, 5.69157712e-02, 8.62328559e-02,
          7.70858601e-02, 4.34514433e-02, 1.07883357e-01, 1.02896556e-01,
          2.84721553e-01, 2.84721553e-01, 1.36895999e-01, 1.55481085e-01,
          1.27613127e-01, 2.37916052e-01, 1.97120249e-01, 2.36759022e-01,
          1.20213293e-01, 2.70772934e-01, 2.84721553e-01, 7.01955482e-02,
          4.45047431e-02, 2.25793812e-02, 2.41761077e-02, 1.74449831e-02,
          5.84818535e-02, 6.99334890e-02, 2.84721553e-01, 2.84721553e-01,
          1.29883721e-01, 1.07544161e-01, 5.28328791e-02, 4.79225107e-02,
          7.70757273e-02, 1.44419909e-01, 1.05751820e-01, 2.84721553e-01,
          8.43519494e-02, 4.17829864e-02, 4.60061282e-02, 5.89806139e-02,
          1.92264080e-01, 2.09091917e-01, 3.37416083e-01, 1.35668710e-01,
          8.99722129e-02, 8.55559707e-02, 6.62322119e-02, 7.25924522e-02,
          8.69928598e-02, 1.78538859e-01, 2.03157187e-01, 3.45479697e-01,
          3.45479697e-01, 1.18675381e-01, 9.65641290e-02, 4.28839810e-02,
          3.55810300e-02, 3.40135731e-02, 5.25857247e-02, 7.77831972e-02,
          8.64478424e-02, 7.43384063e-02, 1.24651015e-01, 6.99755177e-02,
          7.55102262e-02, 1.67925969e-01, 2.43667677e-01, 3.45479697e-01,
          1.72343865e-01, 2.46396571e-01, 1.96544558e-01, 1.14265524e-01,
          4.09870185e-02, 5.85651658e-02, 4.19570282e-02, 7.74332657e-02,
          1.06402613e-01, 1.29896373e-01, 2.66548365e-01, 2.66548365e-01,
          8.44543874e-02, 8.01670849e-02, 3.32048275e-02, 1.49038639e-02,
          2.79652681e-02, 4.33224998e-02, 5.77958487e-02, 1.90929219e-01,
          1.98011175e-01, 1.03331774e-01, 3.93939503e-02, 6.58208132e-02,
          1.71945080e-01, 2.54375845e-01, 2.66548365e-01, 1.77965090e-01,
          2.37933144e-01, 1.77069858e-01, 7.24393427e-02, 2.28273913e-01,
          4.91380915e-02, 2.09221989e-01, 1.44975096e-01, 2.66548365e-01,
          1.12371668e-01, 2.63281971e-01, 2.66548365e-01, 2.59828717e-01,
          1.03303701e-01, 2.86622420e-02, 1.40414871e-02, 3.11133778e-03,
          1.28707523e-02, 6.05950225e-03, 6.90163821e-02, 1.41341060e-01,
          1.05289482e-01, 6.36614189e-02, 2.10859217e-02, 1.09805483e-02,
          5.96021023e-03, 1.74264126e-02, 1.09393718e-02, 3.82113233e-02,
          5.79112880e-02, 6.31838888e-02, 3.31281304e-01, 1.14319757e-01,
          1.35436118e-01, 4.52027842e-02, 1.23997666e-01, 2.80700643e-02,
          2.96915919e-01, 3.31281304e-01, 3.31281304e-01, 3.31281304e-01,
          1.67070448e-01, 2.44390499e-02, 1.41716339e-02, 1.78519208e-02,
          6.33437233e-03, 3.31281304e-01, 3.31281304e-01, 3.31281304e-01,
          7.18759969e-02, 2.32816525e-02, 1.90500431e-02, 8.00338201e-03,
