%YAML:1.0
---
opencv_ml_svm:
   format: 3
   svmType: C_SVC
   kernel:
      type: LINEAR
   C: 1.
   term_criteria: { epsilon:1.1920928955078125e-07, iterations:1000 }
   var_count: 1764
   class_count: 2
   class_labels: !!opencv-matrix
      rows: 2
      cols: 1
      dt: i
      data: [ 0, 1 ]
   sv_total: 1
   support_vectors:
      - [ -1.68852117e-02, -2.47514490e-02, -1.48149137e-03,
          -3.16092111e-02, -5.98534103e-03, -6.65217172e-03,
          1.51357958e-02, 5.87571971e-03, 4.91260225e-03,
          -3.24891433e-02, 5.97103685e-03, 7.76162790e-03,
          -4.04298455e-02, -1.42456579e-03, -8.94019939e-03,
          3.44324224e-02, 1.15174418e-02, -2.69473679e-02,
          4.72155474e-02, -2.12178682e-03, 1.54165144e-03,
          -4.28304225e-02, -1.81746564e-03, -3.78426947e-02,
          1.48728341e-02, 1.49667608e-02, 2.85022315e-02,
          -8.53361282e-03, -8.19980726e-03, -5.77542046e-03,
          -3.22847590e-02, -3.90036497e-03, -3.31204273e-02,
          3.93174998e-02, 1.95353925e-02, -1.19408602e-02,
          -2.08838526e-02, 4.42367233e-03, -1.18778311e-02,
          -3.88494097e-02, 1.80422030e-02, 1.33129079e-02,
          1.58610400e-02, 9.92479618e-04, -3.12930681e-02,
          2.95798993e-03, 9.75053292e-03, 3.97135597e-03,
          -1.24403145e-02, 1.10458964e-02, 1.06869033e-02,
          6.45424938e-03, -1.43954540e-02, 2.58501600e-02,
          -1.10750515e-02, -2.64373533e-02, -1.96651742e-02,
          -1.72688831e-02, 2.83189071e-03, -8.43967963e-03,
          2.36738231e-02, -7.83657248e-04, 9.72220767e-03,
          1.10283457e-02, -3.26616056e-02, -9.90930572e-03,
          -4.64187097e-03, 4.97017540e-02, -1.47892945e-02,
          -1.23793702e-03, -2.06360817e-02, 2.29731221e-02,
          -1.27097720e-03, -1.00673840e-03, -9.18327016e-04,
          -1.92798693e-02, -6.92769419e-03, 9.80021316e-04,
          -2.29404354e-03, -5.15856501e-03, 2.34676972e-02,
          -2.41350159e-02, 1.79834366e-02, 3.87649275e-02,
          2.22315229e-02, 4.95989583e-02, 1.56561732e-02,
          -1.55684864e-03, 1.76108852e-02, -1.41328477e-04,
          -3.95961925e-02, -3.57339606e-02, -1.49496756e-02,
          1.44771615e-03, 3.70189101e-02, -7.08607631e-03,
          -1.65490154e-02, -1.76052377e-02, 9.24011413e-03,
          -7.59528801e-02, 1.41612778e-03, 6.11743405e-02,
          8.48924816e-02, 6.33029118e-02, 5.48905646e-03, 8.33391305e-03,
          -1.82974767e-02, -2.91984305e-02, -1.78031549e-02,
          2.33338624e-02, 4.16038409e-02, 4.90605272e-02, 3.86047550e-02,
          3.18758935e-03, -2.22273543e-02, -1.32746138e-02,
          -2.12418269e-02, -6.19672425e-03, 2.51087286e-02,
          1.00750372e-01, 9.05069336e-02, -4.44823271e-03,
          -2.11091582e-02, -3.81300487e-02, -2.87092533e-02,
          -2.16631629e-02, -4.52007502e-02, 9.17318044e-04,
          3.58704105e-02, 6.62781820e-02, 2.83895545e-02, 5.10590523e-03,
          -1.13600800e-02, -2.24885028e-02, -3.45933028e-02,
          -2.88442597e-02, 4.89977784e-02, 7.87076727e-02,
          3.83615457e-02, -1.20102549e-02, 8.26555211e-03,
          -2.24934891e-02, -3.42409080e-03, -1.07427575e-02,
          -2.48426087e-02, 2.60925479e-02, 3.88766341e-02,
          1.27904983e-02, -3.00756842e-02, -4.15289681e-03,
          -5.48497122e-03, -9.90224071e-03, -4.19354625e-02,
          7.89492764e-03, 6.33869097e-02, 9.38489847e-03,
          -3.05802003e-02, -4.76095267e-02, -5.96359093e-03,
          8.76724254e-03, -1.44371046e-02, -4.46977429e-02,
          -2.78226919e-02, 3.57045494e-02, 1.99609119e-02,
          -1.51452562e-02, -4.76189554e-02, 1.84057914e-02,
          1.52054876e-02, 1.76167171e-02, -3.03346161e-02,
          4.16049734e-03, 7.38718733e-02, 3.79179157e-02, 4.56079561e-03,
          -6.75058812e-02, 1.10141300e-02, 7.07462803e-03,
          1.20746773e-02, -1.80359520e-02, 1.82129852e-02,
          7.32094347e-02, 1.35649582e-02, -1.73638463e-02,
          -4.17879000e-02, -2.07186560e-03, -1.60489250e-02,
          -2.67330781e-02, -4.20291647e-02, 3.41524184e-02,
          5.99524975e-02, -2.42787469e-02, -2.81533021e-02,
          -3.87962013e-02, 2.88623832e-02, -4.41346271e-03,
          1.02846129e-02, -1.73339120e-03, 3.29844328e-03,
          6.54068366e-02, 1.19570214e-02, -8.03923421e-03,
          -6.29892796e-02, -2.52412655e-03, -2.00176034e-02,
          -1.02686218e-03, 1.62717316e-03, -1.03135388e-02,
          4.18838710e-02, 6.46503177e-04, -6.45362772e-03,
          -1.93885583e-02, 2.46886350e-02, 1.14927106e-02,
          3.49891707e-02, -1.28405616e-02, 3.08629721e-02,
          3.45144868e-02, -1.47970179e-02, -8.01777840e-03,
          -1.86437704e-02, 2.53766365e-02, -4.67555039e-03,
          3.98811586e-02, 2.97185685e-02, -2.15759929e-02,
          -3.63112502e-02, -4.73942645e-02, -7.02252518e-03,
          -5.28857000e-02, 5.36303036e-03, -5.72284358e-03,
          4.39357795e-02, 2.43907738e-02, 1.54065245e-04, 3.25072482e-02,
          -2.34448910e-02, 4.45048587e-04, -3.59420963e-02,
          1.41051423e-03, 1.58899054e-02, 6.33164495e-02, 2.98328139e-03,
          7.14297360e-03, 1.54573685e-02, -2.36596912e-02,
          -1.88590121e-02, -6.91036955e-02, -2.87441276e-02,
          -8.76386184e-03, 4.78175506e-02, -6.84224488e-03,
          2.29973439e-02, -1.39904618e-02, -2.05776822e-02,
          -3.09188757e-02, 1.38698788e-02, -4.52332348e-02,
          -1.86508261e-02, -1.56038627e-02, -5.03106695e-03,
          1.52743096e-02, -4.62181540e-03, -3.14730108e-02,
          -2.74956189e-02, -1.08071743e-02, -3.20921615e-02,
          1.09640351e-02, -1.56732986e-03, -1.22672077e-02,
          3.59488577e-02, 4.54094559e-02, 3.08242906e-02,
          -1.54746221e-02, -1.45651298e-02, -2.15960126e-02,
          -2.39277519e-02, -1.58666242e-02, -1.17237242e-02,
          5.94021268e-02, 9.90721956e-02, 4.72629964e-02, 4.77908412e-03,
          -2.18433868e-02, -1.94148850e-02, -2.74051689e-02,
          3.37195699e-04, 2.97561362e-02, 2.69143784e-04,
          -1.68229584e-02, -3.23035419e-02, -1.48032773e-02,
          -3.97619642e-02, -1.14912707e-02, -3.98305338e-03,
          -7.96046294e-03, 1.20808221e-02, -1.46432035e-02,
          -3.12433392e-02, -6.18055090e-02, -3.31530510e-03,
          1.37746502e-02, -9.39258747e-03, -1.48460092e-02,
          -1.83761157e-02, 3.39799486e-02, 5.24893701e-02,
          5.67841195e-02, -9.95215774e-03, 1.24828489e-02,
          -3.39511409e-02, -1.28674749e-02, -3.32730226e-02,
          -1.14504760e-03, 3.42578553e-02, 5.23903854e-02,
          2.99470425e-02, -4.03641947e-02, -1.74261797e-02,
          -2.57033426e-02, 1.26428800e-02, -2.75741629e-02,
          1.64377727e-02, 5.03130853e-02, -5.87323159e-02,
          -5.53175844e-02, -6.37266487e-02, -1.09505206e-02,
          -4.22527222e-03, -3.98627762e-03, -2.95567252e-02,
          -1.98865123e-02, 2.02726368e-02, -9.41831544e-02,
          -1.76553465e-02, -8.74405145e-04, 1.85703747e-02,
          -1.57023426e-02, -4.14960459e-03, -5.93218999e-03,
          -2.27028616e-02, -4.13927361e-02, 1.52058396e-02,
          1.70264598e-02, -8.30208696e-03, -2.48587951e-02,
          -3.96744311e-02, 2.47925185e-02, -3.35980244e-02,
          -5.01971971e-03, 4.35365252e-02, 1.53576434e-02,
          6.60482198e-02, 7.06452280e-02, 2.93017253e-02,
          -4.54940088e-02, 3.57475452e-04, -3.30490209e-02,
          -2.05320466e-04, -5.98758087e-03, -6.53138757e-02,
          -1.63631644e-02, -6.25571329e-03, 1.54830338e-02,
          -7.71849556e-03, 5.82915079e-03, 2.82454712e-04,
          -1.23162083e-02, -5.88590689e-02, -5.88632524e-02,
          1.59929655e-02, 5.49446268e-04, -1.55513445e-02,
          -9.78206936e-03, 1.46990241e-02, -1.58623569e-02,
          -1.36216981e-02, -5.16663603e-02, 4.05313866e-03,
          5.53067811e-02, 6.28093928e-02, 1.89950671e-02,
          -5.37218489e-02, -2.12584529e-02, -2.17957459e-02,
          1.76496115e-02, 1.62614062e-02, -1.39627876e-02,
          3.56375687e-02, -1.28488000e-02, -9.77910310e-03,
          -8.67595300e-02, -3.09122493e-03, -2.19303947e-02,
          3.56450379e-02, -1.87933026e-03, -3.25456522e-02,
          2.96569634e-02, 6.22860808e-03, -1.94063820e-02,
          -2.48668790e-02, 2.25057676e-02, -3.89137166e-03,
          5.71183581e-03, -3.71628031e-02, 7.68308481e-03,
          3.12888883e-02, 8.78323708e-03, 8.25073803e-04,
          -3.88500653e-02, 2.85871048e-02, -1.50529519e-02,
          -1.48593420e-02, -2.40981560e-02, -4.83176159e-03,
          1.34759508e-02, -1.22867860e-02, -4.34406800e-03,
          -7.87432492e-02, 9.53062996e-03, 1.70515869e-02,
          5.60599938e-02, 2.35250182e-02, -3.81178572e-03,
          -9.98645835e-03, -9.38788056e-03, -1.62231848e-02,
          -8.17004368e-02, 3.27215381e-02, -1.28900341e-03,
          1.07513648e-03, -2.20254660e-02, 2.02774312e-02,
          4.52639274e-02, 3.72772068e-02, 3.03272791e-02, 2.28083646e-03,
          3.22327018e-02, -9.34796873e-03, 5.15653286e-03,
          1.32203866e-02, -4.77195345e-02, 1.75555865e-03,
          -3.97646194e-03, 4.08330094e-03, 3.28923669e-03,
          2.15098765e-02, 1.89863294e-02, 3.72105278e-02,
          -6.26358530e-03, -1.74757559e-03, 2.07630481e-04,
          -1.76729914e-02, -1.15053728e-02, 6.79922616e-03,
          4.59447391e-02, -6.62701577e-03, 1.10053541e-02,
          1.55458553e-03, -4.53662425e-02, -2.75517572e-02,
          -4.14668471e-02, -6.70549180e-03, -8.56581889e-03,
          2.01238785e-02, -4.12740326e-03, 3.31315920e-02,
          -1.88316908e-02, -2.13447399e-02, 2.60166395e-02,
          -1.99275911e-02, -1.05683506e-03, -1.35611268e-02,
          1.85828861e-02, 2.51299832e-02, 5.47993593e-02, 1.07607534e-02,
          2.10152147e-03, 3.35990377e-02, -6.08160812e-03,
          -7.02209724e-03, -6.27512634e-02, -9.64125991e-03,
          -1.47070726e-02, 4.77298722e-02, 1.75220054e-02,
          -2.04395466e-02, 1.25412724e-03, -5.52428178e-02,
          -1.62891783e-02, -1.36506772e-02, 3.31105553e-02,
          -7.00122491e-03, 3.77669260e-02, 2.11761286e-03,
          -8.63754749e-03, 9.57582891e-03, -3.12444121e-02,
          -3.24764661e-02, -6.56033829e-02, 6.03749370e-03,
          -5.06828353e-02, 1.60988364e-02, 1.27875768e-02,
          -3.90390716e-02, 2.07934976e-02, 3.17395888e-02,
          2.26006303e-02, -9.84002557e-03, -8.04366916e-03,
          -2.44745612e-02, -3.67551893e-02, -6.88933954e-02,
          6.09264709e-04, 6.11650832e-02, 2.64631081e-02, 4.95309650e-04,
          -2.58491561e-02, -6.88106613e-03, -3.52608152e-02,
          -2.53220405e-02, -4.16390374e-02, -8.66373479e-02,
          3.91344391e-02, 5.71816936e-02, 3.50529775e-02, 2.55753305e-02,
          2.84730829e-03, -1.32037187e-02, -4.88561913e-02,
          -8.60517249e-02, 3.35101876e-03, 8.36019814e-02,
          6.08862936e-02, 1.81906205e-02, -1.92306638e-02,
          2.23593647e-03, -3.27065848e-02, -3.83309610e-02,
          -4.32839766e-02, 1.74803846e-02, 3.68927866e-02,
          -1.40407747e-02, -2.23892573e-02, -3.80127467e-02,
          -9.71749891e-03, -3.80060151e-02, -3.86640360e-03,
          1.59829091e-02, 2.41626166e-02, 7.12132175e-03,
          -6.60834983e-02, -7.81163201e-03, -2.45117974e-02,
          9.23950877e-03, -2.44434923e-02, 2.48725619e-02,
          4.11795825e-02, 4.05980181e-03, 5.54369092e-02, 6.41610613e-03,
          -2.59412453e-02, -4.96281721e-02, -3.79851484e-03,
          -4.53277268e-02, -2.09261081e-03, 3.16818804e-03,
          -3.79531947e-03, 3.64583209e-02, -2.71851420e-02,
          -6.30602660e-03, -2.13836879e-02, -8.81841313e-03,
          -3.05301398e-02, 1.93037521e-02, 3.19106355e-02,
          1.45363761e-02, 1.84865203e-03, -2.75980625e-02,
          -1.08200517e-02, -4.22745757e-02, 7.26613915e-03,
          -3.01985629e-02, 7.73033546e-03, 3.87087204e-02,
          -6.17919164e-03, 2.60483678e-02, 2.62736641e-02,
          4.11451533e-02, -5.49119785e-02, -1.27326865e-02,
          -3.82561721e-02, 8.62126332e-03, 2.12264936e-02,
          -5.05032623e-03, 2.69206446e-02, -2.12556943e-02,
          -7.69507186e-03, -2.51080357e-02, -1.57367922e-02,
          -1.75558906e-02, 1.28209572e-02, 2.04967186e-02,
          -2.52711549e-02, -3.04783769e-02, -2.92788097e-03,
          2.85142642e-02, -2.28321981e-02, -1.16676223e-02,
          -1.51830865e-02, -2.26464053e-03, 1.33017199e-02,
          1.45572862e-02, 6.72897547e-02, 5.36131896e-02, 2.37688366e-02,
          -5.43521345e-02, -2.08231714e-02, -1.08297616e-02,
          3.11553851e-02, 5.18052727e-02, 1.31505327e-02, 1.84441749e-02,
          -2.85377335e-02, -3.44825722e-02, -7.06313923e-02,
          1.79536864e-02, 3.32231931e-02, 6.69916496e-02, 4.31380421e-02,
          -2.49744896e-02, 4.10358515e-03, 2.59689130e-02,
          -5.26874699e-03, -2.02583186e-02, 2.84984764e-02,
          1.11549906e-02, 1.07790222e-02, -6.73019420e-03,
          -3.91055867e-02, -1.45050539e-02, -2.93404888e-02,
          -2.93054562e-02, -5.79832643e-02, 5.56711629e-02,
          3.79708111e-02, 8.15330190e-04, -5.12360521e-02,
          1.30646965e-02, 2.28219740e-02, -5.36651025e-03,
          -1.04962401e-02, -5.71994260e-02, 1.30886016e-02,
          6.31905720e-02, 7.57377893e-02, 5.53708710e-02,
          -1.49868452e-03, -1.25544360e-02, -1.87373739e-02,
          -1.25334831e-02, -3.22753750e-02, 1.51604190e-02,
          1.95238125e-02, 3.81551646e-02, 1.16036553e-02,
          -3.16642448e-02, 8.33371561e-03, -1.70486420e-02,
          -7.35236239e-03, -2.50843894e-02, 6.15410879e-02,
          5.49151488e-02, 2.32345778e-02, -2.66338270e-02,
          -6.70988783e-02, -2.08412316e-02, -2.68002655e-02,
          -4.11716383e-03, -6.83776569e-03, 3.71712856e-02,
          3.03017553e-02, 9.52322688e-03, -6.38503209e-02,
          -8.11268203e-03, -1.61770042e-02, -3.29749621e-02,
          8.98364466e-03, 1.68570336e-02, 2.82113608e-02, 1.67485345e-02,
          3.16666588e-02, 1.20942751e-02, -3.27561237e-02,
          -2.09605359e-02, -4.69906107e-02, -8.38875026e-03,
          1.53102176e-02, 2.25599371e-02, 4.61546937e-03, 3.98640558e-02,
          -1.10919983e-03, -5.63372411e-02, -1.93613674e-02,
          -4.16973382e-02, 2.29485929e-02, 1.01184640e-02,
          2.87115816e-02, 3.29997316e-02, 4.29477356e-02,
          -4.06571738e-02, -5.70950173e-02, -6.44845795e-03,
          -2.25318428e-02, -5.63619379e-03, -1.00316117e-02,
          1.11554721e-02, -1.40021713e-02, 1.02980696e-02,
          -3.76389809e-02, -2.38661822e-02, -9.81710106e-03,
          -5.72835542e-02, -1.78529212e-04, 2.28680465e-02,
          4.50640470e-02, 1.04686804e-02, 5.66821694e-02, 1.46795586e-02,
          3.08171334e-03, 1.16320457e-02, -2.74996199e-02,
          -3.70630547e-02, -2.01952923e-02, 1.13987364e-02,
          -1.98909380e-02, 3.13143209e-02, 1.89065244e-02,
          -6.08775131e-02, -1.45642564e-03, -2.60756332e-02,
          2.69899871e-02, 3.17903906e-02, 4.49503399e-02, 8.10040534e-03,
          1.56350173e-02, -5.34485988e-02, -2.37439424e-02,
          6.09557405e-02, -5.68686007e-03, -2.15077419e-02,
          6.97446801e-03, 4.96730488e-03, -2.17475239e-02,
          9.27540066e-04, -5.25421463e-02, -6.68236539e-02,
          1.57883726e-02, 3.80211547e-02, 3.05279437e-02, 3.79824005e-02,
          4.07715701e-02, 1.91370398e-02, -2.31873021e-02,
          -7.38191828e-02, -1.51189771e-02, 1.84884965e-02,
          2.52017509e-02, 3.31330486e-02, -1.60003919e-02,
          3.25747021e-02, 1.36525948e-02, -2.32982915e-02,
          -5.36400750e-02, -9.48991328e-02, 1.77016278e-04,
          2.15045195e-02, 2.52714511e-02, 4.34892513e-02, 6.27317652e-02,
          4.16777395e-02, -1.56405196e-02, -9.06804204e-02,
          -7.17837140e-02, 5.50780678e-04, 9.40561108e-03,
          1.11112855e-02, 6.35568425e-03, 6.91218674e-02, 5.91737889e-02,
          9.70472023e-03, -5.01170270e-02, 2.53975969e-02,
          3.76714170e-02, 6.77079754e-03, 1.14937890e-02,
          -3.65416780e-02, 1.16721038e-02, -1.91485863e-02,
          -1.21093038e-02, -6.51657628e-03, 1.47243980e-02,
          4.34468798e-02, -9.46669374e-03, -5.68105141e-03,
          -2.54538413e-02, -1.39463311e-02, -3.98160294e-02,
          -2.03818213e-02, -5.48781827e-03, -3.21564777e-03,
          3.21013853e-02, -1.06108701e-02, 6.32721139e-03,
          -6.69524353e-03, 3.19081433e-02, 8.94053932e-03,
          2.41564065e-02, -5.09837084e-03, 2.81590968e-02,
          4.14802469e-02, -3.67946760e-03, 2.13001985e-02,
          4.51076403e-03, 2.53595766e-02, -3.22636291e-02,
          -1.62673164e-02, -2.64602955e-02, -7.78439967e-03,
          5.30903265e-02, -7.91863631e-03, 2.87473813e-04,
          -3.27321924e-02, 3.63935623e-03, 1.97400292e-03,
          -1.72117670e-05, 1.26425386e-03, -5.15547134e-02,
          -2.44884863e-02, -9.25030932e-03, 4.05869074e-02,
          -2.61192471e-02, 4.91256341e-02, 1.91964339e-02,
          -2.70909490e-03, -3.15623432e-02, 1.72406081e-02,
          2.98092160e-02, -5.01527963e-03, 4.18401742e-03,
          -8.76497291e-03, 6.56537190e-02, 2.86737550e-03,
          -4.55767335e-03, -1.41927293e-02, -4.49044630e-02,
          -1.35656781e-02, -3.02504450e-02, -7.06349220e-03,
          -9.10538435e-03, 8.54199082e-02, 5.11773676e-02,
          1.00046182e-02, -4.70890515e-02, -5.46148717e-02,
          -1.99472383e-02, 1.78583583e-03, 1.13115543e-02,
          3.40529867e-02, 6.97265789e-02, 3.87121588e-02, 1.04289001e-03,
          -4.41607423e-02, -6.70053884e-02, -1.52358711e-02,
          -5.79947955e-04, 1.68686267e-02, -6.39874779e-05,
          6.32098615e-02, 3.32914516e-02, 1.45685801e-03,
          -7.03002363e-02, -4.12509143e-02, -1.63584594e-02,
          -4.82090935e-03, 1.41976224e-02, 2.97502987e-02,
          9.66291428e-02, 3.86793800e-02, 1.52644683e-02,
          -2.73043588e-02, -4.51026261e-02, 6.41755434e-03,
          5.77434823e-02, 4.11736444e-02, -8.11349042e-03,
          2.45147776e-02, 6.43146597e-03, 3.49808298e-03,
          -6.71777651e-02, -3.44425514e-02, 1.56134684e-02,
          7.81233702e-03, 2.64665466e-02, 1.50542967e-02, 6.02326803e-02,
          4.05559950e-02, 2.37330459e-02, -5.31665049e-02,
          -3.68753076e-02, 5.69833769e-03, -5.10444818e-03,
          -9.72907431e-03, -6.08025445e-03, 4.40084152e-02,
          2.50319652e-02, 8.84834398e-03, -7.80757517e-02,
          -4.89897318e-02, 1.72636583e-02, 5.70202731e-02,
          3.31896059e-02, -5.49222634e-04, 4.37690206e-02,
          4.70470004e-02, 3.82861719e-02, -7.02207312e-02,
          -3.62394154e-02, 5.35554835e-04, 4.91958158e-03,
          -2.16149935e-03, -3.08463704e-02, 4.04046215e-02,
          5.88489361e-02, 4.92085516e-02, -4.69410308e-02,
          -1.23361554e-02, 6.37227576e-03, -2.67061926e-02,
          -1.74173359e-02, 2.92054750e-03, 4.11880054e-02,
          2.58608907e-02, 2.32159086e-02, -3.67062539e-02,
          -3.54575962e-02, 2.08584759e-02, 2.03543762e-03,
          -3.75928427e-03, -2.38855965e-02, 3.48301344e-02,
          1.26763862e-02, 1.26362843e-02, -4.18513939e-02,
          2.09688600e-02, 6.35427088e-02, -1.02298055e-02,
          -3.16297784e-02, -1.52365922e-03, 4.39686887e-02,
          4.65725102e-02, 2.63364408e-02, -3.76897566e-02,
          5.46874991e-03, 7.50665143e-02, -1.33759035e-02,
          -1.27103534e-02, -1.70643311e-02, 3.01963426e-02,
          3.76315750e-02, 8.75506271e-03, -4.81239781e-02,
          -6.25624284e-02, 3.09656793e-03, -1.27779264e-02,
          2.13866644e-02, 1.26456665e-02, 4.90409248e-02, 1.17895165e-02,
          3.82825243e-03, -7.12947845e-02, -5.57963811e-02,
          1.97132025e-02, -5.54705337e-02, -3.79767008e-02,
          -6.80761412e-03, 8.85852426e-03, -1.25063788e-02,
          1.49466805e-02, -6.04116432e-02, 2.16155928e-02,
          4.88120392e-02, -2.71847807e-02, -7.51892338e-03,
          8.31872318e-03, 4.87562530e-02, 7.45011261e-03, 4.99771070e-03,
          -5.66875376e-02, 1.36205526e-02, 2.92520002e-02,
          -6.10680804e-02, -4.14587855e-02, -2.51412280e-02,
          3.94894220e-02, -1.44586270e-03, 5.41128926e-02,
          -4.19173110e-03, -7.53231943e-02, -2.83424482e-02,
          -5.34846960e-03, 1.08859176e-02, 2.34865621e-02,
          5.04727997e-02, 5.52254915e-02, 1.49674306e-03,
          -7.25637972e-02, -3.95379886e-02, -2.72991206e-03,
          -4.73805703e-03, 3.20364647e-02, -2.04716269e-02,
          3.13805677e-02, 6.18949272e-02, 3.59864831e-02,
          -8.41365848e-03, -6.78719506e-02, -5.65475635e-02,
          -3.88805307e-02, 4.81091207e-03, 1.46745546e-02,
          2.19317097e-02, 9.83727397e-04, -3.54030123e-03,
          -5.47644384e-02, -4.95601222e-02, -4.47224788e-02,
          -1.13716535e-02, 6.95937201e-02, 7.33610941e-03,
          2.21826974e-03, 4.99464665e-03, 2.79332530e-02,
          -1.76996589e-02, 1.18121766e-02, 2.13418137e-02,
          8.17379216e-04, 4.69159754e-03, -3.73561531e-02,
          -5.01453690e-03, -6.55078609e-03, 2.24312972e-02,
          1.18243014e-02, 2.24158503e-02, 2.59157643e-02, 1.89805753e-03,
          1.33026168e-02, -3.85315865e-02, 5.48417354e-03,
          -2.06133202e-02, 1.73758063e-03, 5.42995241e-03,
          -1.09572420e-02, -1.11638503e-02, 6.31139567e-03,
          2.88432743e-02, -2.44069491e-02, -2.85517909e-02,
          -2.33069826e-02, 2.15974282e-02, -1.32448692e-02,
          1.17461355e-02, -1.75152365e-02, 1.21551165e-02,
          4.59606573e-02, -5.60412705e-02, -3.05940285e-02,
          -2.25853845e-02, 2.39020176e-02, -2.59352848e-02,
          1.49970781e-02, -9.04086046e-03, -1.26206074e-02,
          2.16778703e-02, -3.36230919e-02, 6.29439205e-02,
          -2.99481413e-04, 5.35389083e-03, 9.24880896e-03,
          -1.94381438e-02, 6.06004288e-03, -4.79321405e-02,
          -3.41490842e-02, -5.37776537e-02, 6.05161004e-02,
          2.85854209e-02, 2.83805300e-02, -6.52806601e-03,
          2.51964293e-02, -9.67234466e-03, -7.24079495e-04,
          2.21696422e-02, -6.91337511e-02, -6.55928525e-05,
          -1.16097638e-02, 2.73201894e-02, -1.40594542e-02,
          -1.97644494e-02, -2.31857155e-03, -6.14879690e-02,
          -4.48396541e-02, -7.69458339e-02, 2.44513880e-02,
          -1.20116235e-03, 2.15403158e-02, 1.00903725e-03,
          1.12692255e-03, 2.42324974e-02, -3.35985533e-04,
          -5.75509714e-03, -2.16601714e-02, 3.85857187e-02,
          -3.06184380e-03, 3.02198548e-02, 1.94953699e-02,
          9.95820388e-04, 3.76508310e-02, 4.71765511e-02, 1.16973007e-02,
          -7.87909180e-02, -2.12147273e-02, -3.40853408e-02,
          -1.10506779e-03, -1.84026845e-02, -1.10807624e-02,
          6.87542791e-03, -4.00291868e-02, -3.08578908e-02,
          -4.10445519e-02, 2.70251259e-02, 3.90083250e-03,
          5.27250059e-02, 2.31723059e-02, -1.59739107e-02,
          4.91990335e-03, -7.90082198e-03, -2.13568769e-02,
          -7.45766759e-02, -2.23077275e-02, 1.48732997e-02,
          4.52023000e-02, 1.21965045e-02, -8.51007737e-03,
          4.64353748e-02, 4.31943610e-02, 1.43004647e-02,
          -4.37999405e-02, 1.38822291e-02, 1.86470468e-02,
          1.05896359e-02, -3.69318724e-02, -2.48458758e-02,
          3.44705917e-02, 9.90490615e-03, -3.26623721e-03,
          -4.20977809e-02, 9.57098790e-03, 2.86103394e-02,
          1.69515423e-02, -4.94176894e-02, -1.11694653e-02,
          2.76076775e-02, 1.89503990e-02, 1.79575142e-02,
          -6.98863566e-02, 6.21893955e-03, 4.13522050e-02,
          4.00397442e-02, -1.43809607e-02, -3.21611054e-02,
          3.35339569e-02, -8.29027779e-03, 1.84796154e-02,
          -5.03226481e-02, 4.23186682e-02, 2.60676816e-02,
          5.61789656e-03, -5.51811047e-02, 2.84368079e-03,
          4.85008657e-02, -3.37730423e-02, -3.57879288e-02,
          -2.75611877e-02, 2.62553301e-02, 2.65512802e-02,
          1.59033760e-02, -2.67632194e-02, -1.82832684e-02,
          4.03269008e-02, -4.73414622e-02, -4.71474268e-02,
          -1.50646688e-02, 3.08787730e-02, 1.63004585e-02,
          4.65471623e-03, -5.73238246e-02, -6.79732813e-03,
          4.82473299e-02, -2.80128270e-02, -1.31463036e-02,
          -4.10366617e-02, 3.12672481e-02, 2.13697776e-02,
          1.77150425e-02, -1.84563734e-02, -5.10780960e-02,
          1.88077483e-02, -3.66451666e-02, -4.54269163e-02,
          -1.28724212e-02, 5.38623594e-02, 4.17922065e-02,
          4.83133234e-02, -4.42296118e-02, 9.66741610e-03,
          4.34941016e-02, -4.38727327e-02, -2.38385387e-02,
          9.90761444e-03, 5.12549356e-02, -2.07453091e-02,
          3.18844104e-03, -3.89961675e-02, 1.56433042e-02,
          1.55147389e-02, -3.74271199e-02, -3.61532159e-02,
          -3.43756191e-02, 3.13126147e-02, -2.01787259e-02,
          3.52020785e-02, 1.75790694e-02, -4.86256741e-02,
          1.35623887e-02, -5.31358384e-02, -3.61036435e-02,
          -2.89684860e-03, 9.37206224e-02, 3.35132852e-02,
          3.62076350e-02, -6.03188947e-02, -4.74673212e-02,
          1.28059555e-02, -2.90792845e-02, -2.23699268e-02,
          -3.20973992e-02, 5.96656241e-02, 9.59142204e-03,
          2.32713148e-02, -4.54070345e-02, -5.58096506e-02,
          -4.69149351e-02, -3.01578380e-02, -4.71208850e-03,
          2.32731663e-02, 4.47849557e-02, 1.90150384e-02, 3.89973000e-02,
          -2.42222641e-02, -4.56301011e-02, -4.42756601e-02,
          -1.75643899e-02, 3.14564779e-02, 1.93303768e-02,
          1.80541594e-02, 5.24638146e-02, 7.24566802e-02, 4.13367385e-03,
          -6.11270219e-02, -3.64327282e-02, -8.31365585e-03,
          -2.64883433e-02, -4.44370247e-02, 3.11276745e-02,
          4.74993065e-02, 1.62466988e-02, -2.07087640e-02,
          -6.93711117e-02, -4.05122265e-02, -1.17221074e-02,
          -1.59981921e-02, -3.86672243e-02, 3.24291848e-02,
          7.02165291e-02, 4.75292839e-02, -2.41761971e-02,
          -6.02555973e-03, -2.15931498e-02, 5.56285633e-03,
          3.25169377e-02, -1.85700003e-02, -1.66313106e-03,
          1.33678718e-02, 5.36147058e-02, 1.14174522e-02, 3.05215642e-02,
          -2.14006063e-02, 2.32591131e-03, 1.90448053e-02,
          -2.69363280e-02, 2.87109823e-03, 8.71664658e-03,
          4.11567576e-02, -2.08312646e-03, -3.49838808e-02,
          -4.46582511e-02, -1.66016910e-02, -1.26916850e-02,
          -6.26015142e-02, 2.28926819e-02, 4.42746207e-02,
          6.21858090e-02, -1.01649156e-03, -5.16088260e-03,
          -1.36710536e-02, -2.92748623e-02, -1.70008540e-02,
          -3.80997173e-02, -3.09928204e-03, -2.65940260e-02,
          3.31775211e-02, 3.56493914e-03, 8.21909308e-03,
          -7.13675516e-03, -1.04559837e-02, -4.42964910e-03,
          -1.60985887e-02, 4.50121649e-02, 6.58144010e-03,
          3.47823799e-02, -2.78547726e-04, -2.32268255e-02,
          -2.24107155e-03, -3.19179446e-02, -3.26589979e-02,
          -4.11397917e-03, 7.31733069e-02, 1.29566686e-02,
          7.04978220e-03, -3.15465070e-02, -1.11946631e-02,
          2.36645713e-03, -2.07649041e-02, -2.17334032e-02,
          -3.30638438e-02, 1.64191816e-02, -2.28142459e-02,
          1.34318825e-02, -1.80506594e-02, -1.63682010e-02,
          -1.71521830e-03, 2.61397008e-02, 8.98413360e-03,
          -3.97450700e-02, 9.10030119e-03, -5.35722123e-03,
          -3.71641815e-02, -8.11368451e-02, -1.59706865e-02,
          6.99870987e-03, -2.31165886e-02, -2.01238599e-02,
          -2.01606546e-02, 3.92866917e-02, 2.09991615e-02,
          2.97498312e-02, -3.70338210e-03, -2.80620959e-02,
          -1.28445076e-02, -2.41834708e-02, -2.44085374e-03,
          -3.69402282e-02, 3.66065209e-03, 5.39163239e-02,
          7.46892914e-02, 2.42760647e-02, 4.00588382e-04,
          -5.69178071e-03, 1.00435540e-02, -7.01480254e-04,
          -3.19934562e-02, 1.25782769e-02, 2.38424540e-02,
          -4.83964803e-03, -5.23878895e-02, -3.49197946e-02,
          -1.14292670e-02, -6.33384846e-03, -2.65939394e-03,
          -1.99699122e-02, 4.59494591e-02, 3.92303467e-02,
          -1.10447139e-03, -1.50289508e-02, -4.23924066e-02,
          -1.16061943e-03, -4.72365733e-04, 1.31714270e-02,
          -4.13504802e-02, 3.28669362e-02, 5.58612086e-02,
          4.39677536e-02, -3.64126521e-04, -1.95143092e-02,
          9.02927015e-03, -2.24071555e-02, 1.38416486e-02,
          -5.03778178e-03, 5.78084327e-02, 2.80281119e-02,
          3.88810388e-03, -2.71279328e-02, -1.62177328e-02,
          -6.70486363e-04, -1.02774231e-02, -2.52616424e-02,
          -3.22388001e-02, 6.33507445e-02, 4.32371609e-02,
          7.49370037e-03, -6.06739428e-03, 1.99089069e-02,
          2.53193211e-02, -1.75618697e-02, 2.19508260e-03,
          -5.24684042e-02, 5.40732369e-02, 1.73155237e-02,
          -2.40534195e-03, -3.12264822e-02, -8.63411650e-03,
          2.70197298e-02, -2.81275213e-02, 8.98078457e-03,
          -6.22399012e-03, 3.08645703e-02, 2.16155150e-03,
          -1.06059993e-03, -1.03022112e-02, -4.87896279e-02,
          9.43443459e-03, -2.02914290e-02, -1.49043147e-02,
          -4.43609245e-03, 2.65021548e-02, 1.49192903e-02,
          5.74889444e-02, -1.66405533e-02, 7.27448938e-03,
          3.19964960e-02, 1.33681798e-03, 2.23072004e-02,
          -4.22292911e-02, 1.14398208e-02, -7.60861579e-03,
          -1.10208616e-03, -3.21773700e-02, -1.37744918e-02,
          1.65907294e-02, -5.19202696e-03, 8.42828490e-03,
          -4.06873524e-02, 1.79121096e-03, -1.64671205e-02,
          1.59869678e-02, 5.06422110e-03, -5.41525260e-02,
          2.22504586e-02, -3.37735303e-02, -2.03591771e-02,
          -8.37327214e-04, 4.53830510e-02, 1.40683809e-02,
          4.57891561e-02, -4.03299928e-02, -5.55960089e-02,
          2.06178501e-02, -2.32270155e-02, -3.67657878e-02,
          -1.52720623e-02, 4.91324551e-02, 1.90854967e-02,
          3.59410718e-02, -5.03390655e-02, 1.96428616e-02,
          2.56421641e-02, 5.35091246e-03, 2.00813496e-03,
          -3.26339677e-02, 1.13970302e-02, -7.13199703e-03,
          1.46896150e-02, -9.61204525e-03, 1.82352271e-02,
          2.88930424e-02, -1.77204646e-02, -2.50305552e-02,
          -6.64424151e-02, 3.09510212e-02, 3.32856327e-02,
          2.72106361e-02, 9.28086881e-03, -1.95003264e-02,
          -1.51482085e-02, 1.87475756e-02, -1.82466581e-02,
          -5.12423217e-02, 1.68062672e-02, 5.41583560e-02,
          1.70419067e-02, 6.99117174e-03, -7.62436399e-03,
          -1.39441155e-02, 1.99693777e-02, -7.62677798e-03,
          -5.45644388e-02, -7.37266103e-03, 7.36096501e-02,
          5.94244674e-02, 3.82403173e-02, -5.52368835e-02,
          -2.12861225e-02, 3.69420479e-04, -8.75111017e-03,
          -1.30556179e-02, 1.32660484e-02, 5.03853783e-02,
          8.66025779e-03, -4.89796139e-02, -3.08507942e-02,
          -4.10334952e-02, -2.12532468e-03, 2.24934760e-02,
          -3.39504182e-02, -1.69090163e-02, 2.01795865e-02,
          1.97257269e-02, 1.13554224e-02, 2.19661761e-02,
          -1.39406510e-02, 1.01527097e-04, -9.73196802e-05,
          -1.03140697e-02, -8.19893274e-03, 3.61681283e-02,
          6.01930656e-02, 4.96978909e-02, 2.11284813e-02, 9.50756297e-03,
          -2.70090401e-02, -2.54293550e-02, -8.80975369e-03,
          8.88066925e-03, 1.42991263e-02, 4.17494848e-02, 4.27161381e-02,
          -2.34376099e-02, -4.77536805e-02, -1.63128469e-02,
          1.25696687e-02, 1.45178067e-03, -1.70955826e-02,
          -7.72317965e-03, 1.68599058e-02, 4.76890430e-03,
          -4.38383147e-02, -3.29214670e-02, -2.76766531e-02,
          -1.27875684e-02, 7.46588781e-03, -2.92805751e-04,
          1.18303979e-02, 4.24130261e-03, -4.44552191e-02,
          1.25406934e-02, 3.14843468e-02, -5.91344724e-04,
          -1.77325420e-02, -1.79517679e-02, 2.61702929e-02,
          2.99708936e-02, 3.25659327e-02, 9.45592113e-03, 2.27697827e-02,
          3.45918387e-02, 2.93987487e-02, -1.22974757e-02,
          -3.29386331e-02, 1.97701436e-02, 5.30440658e-02,
          1.98395383e-02, -2.38527432e-02, -2.93861572e-02,
          -8.36535357e-03, -2.25486215e-02, 2.04614058e-04,
          2.17906330e-02, 3.05531430e-03, 1.51756117e-02, 3.99910519e-03,
          -6.54738098e-02, -5.34080639e-02, -1.34207923e-02,
          -2.43608672e-02, -1.33961560e-02, -2.03727931e-02,
          4.69445437e-03, 2.40099188e-02, 1.69555433e-02,
          -7.24606365e-02, -9.68794432e-03, 3.19109671e-02,
          3.51007693e-02, 2.01253034e-02, -2.69329268e-02,
          -5.98226022e-03, 4.42504920e-02, 2.30472330e-02,
          -3.41297686e-02, -4.22888286e-02, -1.11762453e-02,
          2.49622352e-02, 7.76510267e-03, -3.26383719e-03,
          4.16603535e-02, 9.46979076e-02, 3.68958488e-02, 1.42918364e-03,
          -4.67662103e-02, 1.10431314e-02, 1.56977586e-02,
          5.80139179e-03, -4.38327193e-02, -3.20981033e-02,
          1.94993727e-02, 9.14180372e-03, -6.39327765e-02,
          -6.09705597e-02, -9.26823635e-03, -6.65039849e-03,
          -6.60768058e-03, -3.00835818e-02, 1.91008002e-02,
          7.25957528e-02, 3.57415602e-02, -3.47032882e-02,
          -2.84382887e-02, -1.58638246e-02, -8.98453780e-03,
          -3.86927910e-02, -6.10060841e-02, 6.18490055e-02,
          7.40699023e-02, 5.67640401e-02, 1.35177572e-03, 4.21055928e-02,
          4.24202112e-03, -2.34216675e-02, -3.51974890e-02,
          -8.86109471e-02, 3.79509963e-02, 6.42646849e-02,
          8.86019915e-02, 3.42610925e-02, -7.00715035e-02,
          -2.02247985e-02, -1.35066314e-02, -3.18328030e-02,
          -7.98808187e-02, 3.55579751e-03, 5.51674664e-02,
          7.81143159e-02, -1.28809204e-02, -4.84314896e-02,
          -1.93916280e-02, -2.14571301e-02, -4.72793579e-02,
          -8.75848681e-02, -6.46905927e-03, 4.81480248e-02,
          1.14153557e-01, 4.86356691e-02, 4.52583544e-02, 2.60092337e-02,
          9.44963656e-03, -5.40354336e-03, -9.29380581e-02,
          -8.73062946e-03, 2.17467993e-02, 3.78687754e-02,
          1.79388355e-02, 6.17115991e-03, 2.85453368e-02, 1.65335871e-02,
          -1.38195101e-02, -7.37302378e-02, -1.38531094e-02,
          1.44360941e-02, 3.04593332e-02, 2.10173856e-02,
          -3.34612876e-02, -1.22675290e-02, -2.71647088e-02,
          -4.49154302e-02, -9.20694321e-02, -1.15137678e-02,
          2.38418318e-02, 1.33445546e-01, 6.92400709e-02,
          -1.43173169e-02, -4.67103068e-03, -1.77463144e-02,
          -3.83386873e-02, -6.67080656e-02, -3.84059772e-02,
          1.03555806e-02, 1.17052369e-01, 6.35545254e-02, 2.00010110e-02,
          2.60364544e-02, 6.97013829e-03, -9.77674127e-03,
          -5.00314757e-02, -1.98962707e-02, 1.57194622e-02,
          3.01854927e-02, 1.85939297e-02, 3.60473581e-02, 4.14776057e-03,
          -3.74793895e-02, -3.01225577e-02, -9.38502550e-02,
          4.83755348e-03, 4.59475555e-02, 3.97335514e-02, 4.37431671e-02,
          -1.19317006e-02, -8.99928343e-03, -4.98967506e-02,
          -5.71024567e-02, -4.74100411e-02, -4.43081222e-02,
          2.61425767e-02, 1.11086309e-01, 5.40525094e-02, 5.96865406e-03,
          -1.44949825e-02, -5.25027923e-02, -6.22228570e-02,
          -8.64657611e-02, -2.74523981e-02, 2.17125304e-02,
          9.03039351e-02, 5.92406541e-02 ]
   uncompressed_sv_total: 63
   uncompressed_support_vectors:
      - [ 1.92791491e-03, 0., 8.20562989e-03, 3.11168045e-01,
          3.11168045e-01, 7.66851753e-02, 1.89829562e-02, 5.25208749e-03,
          3.73838772e-03, 5.64625897e-02, 5.68150170e-02, 6.86746836e-02,
          3.11168045e-01, 3.11168045e-01, 1.06555559e-01, 5.67024760e-02,
          3.23945843e-02, 3.05248909e-02, 1.24311550e-02, 8.21859867e-05,
          7.45569996e-04, 1.64070100e-01, 3.11168045e-01, 2.65350789e-01,
          1.69412956e-01, 6.80056363e-02, 3.25362980e-02, 3.05707008e-01,
          1.99759528e-01, 4.49557342e-02, 9.92655009e-02, 2.31531203e-01,
          2.19552651e-01, 2.13504225e-01, 1.62710965e-01, 1.66593015e-01,
          5.77453114e-02, 1.18745409e-01, 2.33186290e-01, 3.32236826e-01,
          1.29050598e-01, 2.13549193e-02, 2.02258267e-02, 1.75544415e-02,
          1.89683996e-02, 5.05616749e-03, 9.92244110e-02, 3.32236826e-01,
          3.32236826e-01, 4.87667620e-02, 2.31938015e-04, 0.,
          3.63182480e-04, 1.19446595e-04, 2.98464298e-01, 3.32236826e-01,
          2.99445778e-01, 1.30887792e-01, 3.87869328e-02, 2.99333241e-02,
          4.33370396e-02, 5.01812659e-02, 7.90094957e-02, 3.81155387e-02,
          3.32236826e-01, 3.32236826e-01, 1.47545606e-01, 1.75495923e-03,
          0., 0., 1.65082951e-04, 9.18997539e-05, 2.30093152e-04,
          1.10999174e-01, 3.45015705e-01, 3.45015705e-01, 3.06789838e-02,
          0., 0., 0., 0., 8.02163687e-03, 6.81722164e-02, 3.45015705e-01,
          3.45015705e-01, 2.34862491e-02, 0., 0., 0., 6.08408707e-04,
          5.95594943e-03, 3.45015705e-01, 3.45015705e-01, 9.65685025e-02,
          4.01546451e-04, 0., 0., 0., 0., 3.19060646e-02, 3.45015705e-01,
          3.45015705e-01, 1.23822130e-01, 2.05872324e-03, 0., 0., 0.,
          5.01697930e-03, 5.87320812e-02, 1.37486696e-01, 3.35327804e-01,
          3.43296677e-01, 3.72543409e-02, 0., 7.27931838e-05,
          2.43262057e-05, 5.84398676e-03, 7.03142807e-02, 3.03297549e-01,
          2.79827982e-01, 5.02036884e-02, 2.13049110e-02, 0.,
          1.09189784e-03, 3.64893058e-04, 9.11146402e-03, 2.30614379e-01,
          3.43296677e-01, 3.37062597e-01, 9.52394009e-02, 2.85612000e-03,
          0., 0., 0., 2.89911684e-02, 2.09776148e-01, 3.43296677e-01,
          3.27721238e-01, 8.44802987e-03, 1.08358997e-03, 0.,
          3.38900165e-04, 1.13254478e-04, 1.74418874e-02, 2.91170962e-02,
          3.07083815e-01, 3.65173966e-01, 1.50528654e-01, 4.63482663e-02,
          0., 7.93970074e-04, 2.65330920e-04, 5.06311562e-03,
          6.81244582e-03, 9.64791700e-02, 3.65173966e-01, 3.65173966e-01,
          1.27437994e-01, 1.09714724e-03, 7.24603096e-03, 5.36618521e-03,
          5.80200460e-03, 5.30185997e-02, 3.65173966e-01, 3.65173966e-01,
          2.74247639e-02, 1.21924756e-02, 0., 2.85829534e-03,
          9.55192489e-04, 7.44774099e-03, 4.23111320e-02, 2.30274871e-01,
          3.26648861e-01, 1.23423144e-01, 4.78557833e-02, 1.41061784e-03,
          2.19955929e-02, 1.17401313e-02, 2.14228183e-02, 3.42729390e-02,
          3.20293419e-02, 2.18815356e-01, 3.16035181e-01, 1.71897456e-01,
          1.17953122e-02, 2.13575028e-02, 3.07461284e-02, 4.42326181e-02,
          5.97768910e-02, 3.55011709e-02, 1.37622446e-01, 1.01989545e-01,
          1.94278419e-01, 2.03590579e-02, 7.06464946e-02, 1.25625536e-01,
          1.51434302e-01, 2.37955973e-01, 2.75284857e-01, 1.67454079e-01,
          8.67326781e-02, 7.02476650e-02, 1.26849608e-02, 3.51592973e-02,
          4.96940650e-02, 1.08647265e-01, 3.98746848e-01, 1.73817724e-01,
          3.86742726e-02, 6.04594173e-03, 6.21805601e-02, 8.43870863e-02,
          2.06495330e-01, 3.57036263e-01, 3.69529694e-01, 1.30767850e-02,
          2.09747180e-02, 8.62745419e-02, 8.24443251e-02, 1.36860251e-01,
          3.85241359e-02, 1.27338514e-01, 1.03907958e-01, 6.27819300e-02,
          1.97395626e-02, 3.24801616e-02, 6.98862299e-02, 2.23055139e-01,
          2.96612352e-01, 6.92377388e-02, 1.11110307e-01, 3.91927063e-02,
          1.97232477e-02, 8.37200582e-02, 1.34037705e-02, 5.44623705e-03,
          1.23288259e-02, 9.54857245e-02, 2.82949686e-01, 3.72370690e-01,
          2.93602854e-01, 1.45089760e-01, 1.19882170e-02, 1.92264491e-03,
          6.69308798e-03, 6.63355887e-02, 3.72370690e-01, 3.72370690e-01,
          3.72370690e-01, 6.21205531e-02, 1.55234681e-02, 5.14604449e-02,
          7.37375161e-03, 2.12742370e-02, 5.18755168e-02, 2.00588599e-01,
          3.22607487e-01, 3.22607487e-01, 1.73877537e-01, 1.05119519e-01,
          3.22607487e-01, 3.22607487e-01, 2.69780718e-02, 5.38341189e-03,
          4.25949469e-02, 1.47144347e-01, 2.77336121e-01, 2.81065822e-01,
          3.22607487e-01, 8.43828842e-02, 9.11957026e-02, 9.65958312e-02,
          8.54458213e-02, 6.83496296e-02, 8.30462724e-02, 9.25861895e-02,
          5.85188530e-02, 6.80139288e-02, 2.59486407e-01, 1.81192696e-01,
          3.38737257e-02, 1.49035910e-02, 8.06345120e-02, 1.21551052e-01,
          8.84566456e-02, 6.52846768e-02, 1.17219888e-01, 4.13362801e-01,
          4.13362801e-01, 1.66831136e-01, 1.19758574e-02, 5.94144082e-03,
          1.14705637e-02, 2.96059977e-02, 5.58468699e-02, 1.17584474e-01,
          7.57908970e-02, 4.13362801e-01, 3.61313939e-01, 1.81029774e-02,
          2.58128718e-03, 2.68881093e-04, 5.48710341e-05, 0., 0.,
          1.61319003e-01, 3.19302529e-01, 7.41913468e-02, 3.25570479e-02,
          1.00720435e-01, 8.98230895e-02, 2.10655108e-02, 6.91722799e-03,
          2.60941312e-02, 1.82062499e-02, 2.90517569e-01, 2.13590950e-01,
          5.94467595e-02, 1.05817817e-01, 3.70022878e-02, 1.70530956e-02,
          1.19799504e-03, 0., 1.10644242e-02, 4.02982205e-01,
          4.02982205e-01, 4.81216498e-02, 5.04297065e-03, 1.80810562e-03,
          2.31707148e-04, 0., 0., 3.65942866e-02, 4.02982205e-01,
          4.02982205e-01, 1.75467268e-01, 1.96874421e-02, 2.72741402e-03,
          5.34355524e-04, 1.12020884e-04, 6.00038096e-03, 1.85179489e-03,
          2.19242066e-01, 3.30630332e-01, 9.57172215e-02, 9.14477259e-02,
          7.76480660e-02, 5.03900163e-02, 5.44625195e-03, 0.,
          8.55435617e-03, 1.50465742e-01, 2.36012667e-01, 1.73126653e-01,
          8.21563229e-02, 9.48565453e-02, 6.01892658e-02, 9.87687800e-03,
          2.08351249e-03, 2.33537808e-01, 4.02220696e-01, 2.64343798e-01,
          1.66576236e-01, 5.83525822e-02, 2.51336116e-03, 1.04486034e-03,
          2.26145858e-04, 2.72747949e-02, 2.57307708e-01, 4.02220696e-01,
          3.03808302e-01, 4.69806679e-02, 7.20558986e-02, 6.65783125e-04,
          5.43165533e-03, 1.75924448e-03, 2.03103647e-02, 3.45867313e-02,
          1.10096671e-01, 1.43746033e-01, 1.72486022e-01, 2.49359727e-01,
          7.85685927e-02, 4.25034463e-02, 1.03632277e-02, 5.27938595e-03,
          8.24029148e-02, 1.99463040e-01, 2.45789453e-01, 9.17954370e-02,
          3.11602116e-01, 3.47466692e-02, 3.54769304e-02, 1.69807393e-02,
          2.13073231e-02, 5.61098680e-02, 2.80378073e-01, 2.62452960e-01,
          3.66619714e-02, 4.81545925e-02, 0., 7.55118765e-03,
          2.52347556e-03, 1.26831355e-02, 4.34641913e-02, 3.18671197e-01,
          3.76093566e-01, 5.02695814e-02, 4.10299413e-02, 1.87750935e-04,
          1.31517798e-02, 5.10474248e-03, 1.37114637e-02, 3.73180583e-02,
          1.41452745e-01, 4.19367552e-01, 1.27194360e-01, 7.82967955e-02,
          3.57886287e-03, 1.41593730e-02, 6.50411658e-03, 1.34083284e-02,
          1.89140607e-02, 4.19367552e-01, 4.19367552e-01, 1.37392804e-01,
          2.81748902e-02, 0., 2.54662032e-03, 8.59535008e-04,
          2.96267867e-03, 1.54959738e-01, 3.54485661e-01, 2.15450749e-01,
          1.07124085e-02, 5.16724028e-03, 1.31772552e-03, 9.98443738e-03,
          1.36052389e-02, 3.31559218e-02, 2.67289698e-01, 2.63058603e-01,
          4.72614914e-02, 0., 1.24926376e-03, 1.53908938e-01,
          2.19007671e-01, 1.59533530e-01, 1.29078358e-01, 9.27652419e-02,
          3.54485661e-01, 3.54485661e-01, 2.10419744e-02, 4.95697511e-03,
          6.08733948e-03, 1.66878831e-02, 1.89682320e-02, 2.61191074e-02,
          1.28572389e-01, 2.59673566e-01, 9.53285918e-02, 2.81020869e-02,
          5.17811328e-02, 3.16656142e-01, 2.66391456e-01, 8.72243345e-02,
          7.12892115e-02, 4.93657850e-02, 1.69637669e-02, 4.51386644e-04,
          0., 5.68358339e-02, 3.61550063e-01, 2.66093731e-01,
          1.02979302e-01, 4.44858447e-02, 3.82302678e-03, 0., 0., 0.,
          3.42376709e-01, 3.61550063e-01, 1.44582316e-01, 1.15096308e-02,
          4.13521379e-03, 1.83525831e-02, 1.44215450e-02, 1.88436359e-02,
          5.35481498e-02, 2.04527661e-01, 3.61550063e-01, 2.38820881e-01,
          3.00163254e-02, 1.65680517e-02, 1.19285937e-03, 0.,
          6.83523156e-03, 8.05919319e-02, 3.61550063e-01, 3.61550063e-01,
          6.93268776e-02, 1.99201488e-04, 1.19285937e-03, 1.99939340e-01,
          1.77644402e-01, 6.15992472e-02, 5.90112321e-02, 2.62070093e-02,
          6.53003380e-02, 6.66248500e-02, 6.23596720e-02, 1.17619887e-01,
          5.39002717e-02, 3.27257439e-02, 1.12608774e-02, 4.97594895e-03,
          1.17481843e-01, 2.65192151e-01, 1.02519214e-01, 4.30832431e-02,
          5.04822098e-02, 3.34269226e-01, 3.07797521e-01, 8.46700147e-02,
          7.65006021e-02, 9.93229225e-02, 3.34269226e-01, 2.92019993e-01,
          1.96876198e-01, 2.60294169e-01, 3.00448555e-02, 3.30705172e-03,
          5.93250879e-05, 4.41829162e-03, 1.90783039e-01, 3.34269226e-01,
          3.09160292e-01, 7.80753344e-02, 6.27380982e-02, 1.14357658e-02,
          4.16954868e-02, 3.84912342e-02, 2.84416843e-02, 2.86736101e-01,
          3.67531955e-01, 5.69585226e-02, 3.40787834e-03, 2.38746265e-03,
          6.21069572e-04, 5.09701371e-02, 1.37419730e-01, 9.95980948e-02,
          3.00225914e-01, 1.64758101e-01, 4.51118648e-02, 2.53436412e-03,
          0., 0., 6.46797853e-05, 1.19048962e-03, 8.80711898e-03,
          3.71336609e-01, 3.74644935e-01, 2.41157234e-01, 6.04016567e-03,
          9.48108209e-05, 0., 3.89460362e-02, 8.54390338e-02,
          1.04313508e-01, 3.74644935e-01, 3.41360778e-01, 8.67633745e-02,
          1.27910869e-02, 4.02481295e-03, 7.59614806e-04, 1.20406367e-01,
          3.22238863e-01, 1.60698414e-01, 2.11805061e-01, 1.53791919e-01,
          9.64738056e-02, 1.09847374e-02, 0., 2.69695185e-02,
          1.84500352e-01, 2.77494282e-01, 1.51068076e-01, 1.21485449e-01,
          1.57690331e-01, 1.02595694e-01, 1.73731465e-02, 6.47013867e-03,
          5.73193538e-04, 1.56954497e-01, 3.29733491e-01, 1.68922618e-01,
          3.96297723e-01, 2.19048396e-01, 1.06840320e-01, 8.67803991e-02,
          1.46259265e-02, 3.66185382e-02, 2.01532081e-01, 3.06885093e-01,
          8.87499526e-02, 1.20097011e-01, 9.45898592e-02, 1.49519682e-01,
          1.11647636e-01, 2.00526677e-02, 4.58467640e-02, 1.46421134e-01,
          1.39034167e-01, 1.09692611e-01, 2.58161724e-01, 9.82007086e-02,
          6.00204691e-02, 1.65566243e-02, 1.81780066e-02, 1.21316373e-01,
          2.65798688e-01, 4.32279050e-01, 1.38553932e-01, 2.97400236e-01,
          5.75986393e-02, 3.88418883e-02, 2.66372878e-02, 4.06774692e-02,
          6.82014823e-02, 1.77180260e-01, 1.57084092e-01, 6.97343722e-02,
          1.83289155e-01, 3.95914465e-02, 8.25762674e-02, 4.82804775e-02,
          3.75978500e-02, 9.55950469e-02, 2.67620981e-01, 3.76039833e-01,
          1.59042776e-01, 2.88483858e-01, 9.30829272e-02, 9.63763371e-02,
          8.33394155e-02, 7.78787062e-02, 4.32674363e-02, 1.24889322e-01,
          3.86565626e-01, 1.86802104e-01, 7.09269121e-02, 2.71261260e-02,
          9.86637734e-03, 8.26384034e-03, 1.23091927e-02, 5.76597974e-02,
          2.93469906e-01, 3.86565626e-01, 1.86932057e-01, 5.22602536e-02,
          2.52676662e-02, 8.32258165e-03, 9.68746841e-03, 2.23872419e-02,
          9.20163170e-02, 7.58886263e-02, 2.65189350e-01, 1.58103362e-01,
          1.46181092e-01, 1.16640210e-01, 6.44669458e-02, 7.63171092e-02,
          1.32860973e-01, 3.86565626e-01, 2.76843339e-01, 1.69968128e-01,
          1.22774839e-01, 9.07905847e-02, 9.16065872e-02, 4.53309156e-02,
          7.76722059e-02, 2.08524808e-01, 1.49365067e-01, 2.86889911e-01,
          2.02124998e-01, 2.92770062e-02, 1.57073867e-02, 7.74260890e-03,
          1.39322346e-02, 1.28292358e-02, 3.42681035e-02, 1.42765760e-01,
          2.92070717e-01, 1.69337377e-01, 7.45882168e-02, 7.56660625e-02,
          1.47173941e-01, 7.78886601e-02, 2.64763031e-02, 2.55946852e-02,
          3.92018914e-01, 3.92018914e-01, 3.90445851e-02, 1.62760299e-02,
          1.43995956e-02, 7.61325331e-03, 8.29290971e-03, 1.27742924e-02,
          6.48705810e-02, 3.92018914e-01, 3.92018914e-01, 2.22646922e-01,
          4.05538678e-02, 2.04144251e-02, 1.15664182e-02, 3.28662805e-03,
          1.58366235e-03, 1.38593679e-02, 1.90184023e-02, 1.32482544e-01,
          2.02479810e-01, 1.89803064e-01, 2.40494162e-01, 2.28152424e-01,
          5.76626435e-02, 6.21965155e-03, 2.82842410e-03, 4.82618285e-04,
          2.25834101e-02, 1.31043211e-01, 2.78305739e-01, 3.32771063e-01,
          2.14179769e-01, 1.65803023e-02, 0., 3.04890913e-04,
          9.04381350e-02, 3.32771063e-01, 3.32771063e-01, 1.50280148e-01,
          6.56860992e-02, 1.00185908e-02, 1.72995648e-03, 6.29691640e-04,
          6.06380461e-04, 6.95495633e-03, 1.59454867e-01, 3.32771063e-01,
          2.54231602e-01, 2.80647099e-01, 1.08183483e-02, 7.96286482e-03,
          1.50914909e-03, 3.08765029e-03, 1.15978137e-01, 1.16731338e-01,
          6.03501499e-02, 2.81610221e-01, 2.64647633e-01, 3.07716787e-01,
          1.31544441e-01, 7.57942647e-02, 8.20773691e-02, 3.89238284e-03,
          6.98157164e-05, 2.73655984e-03, 1.20114699e-01, 2.63592362e-01,
          3.07716787e-01, 1.36912614e-01, 1.78945586e-02, 1.00530135e-02,
          2.80326977e-02, 1.04955263e-01, 3.07716787e-01, 3.07716787e-01,
          2.51441151e-01, 9.00390893e-02, 2.47276723e-02, 2.01168954e-02,
          1.61304232e-02, 4.47750026e-05, 4.83077765e-02, 1.91300869e-01,
          3.07716787e-01, 2.68300146e-01, 1.22390151e-01, 1.51725030e-02,
          7.44494726e-04, 2.98642612e-04, 0., 0., 8.84144916e-04,
          3.56136672e-02, 3.59721005e-01, 3.59721005e-01, 1.77591100e-01,
          4.07699496e-03, 0., 2.77793291e-03, 5.95259154e-03,
          1.15671502e-02, 2.68019587e-02, 3.59721005e-01, 2.17488497e-01,
          7.66342208e-02, 3.55814882e-02, 1.59476008e-02, 8.44247814e-04,
          6.85495809e-02, 2.80213863e-01, 2.74639815e-01, 3.59721005e-01,
          1.70283392e-01, 2.58912258e-02, 2.71799683e-04, 0.,
          1.17547614e-02, 8.27714801e-02, 1.85162053e-01, 1.29668429e-01,
          3.59721005e-01, 1.09324083e-01, 3.95909585e-02, 2.95635816e-02,
          1.41883148e-02, 7.85460323e-03, 2.55005527e-02, 5.49810901e-02,
          5.18581197e-02, 3.80110890e-01, 1.87283993e-01, 1.72136575e-01,
          1.98940471e-01, 5.57907671e-02, 9.52747837e-03, 2.87693013e-02,
          7.10085705e-02, 5.36962599e-02, 1.83198571e-01, 1.31348610e-01,
          2.36268178e-01, 2.02691942e-01, 2.73009147e-02, 1.92282796e-02,
          9.43943188e-02, 2.75052041e-01, 1.84705928e-01, 2.61656076e-01,
          1.08726330e-01, 1.14748016e-01, 1.19045176e-01, 4.49901000e-02,
          6.13102177e-03, 5.87993599e-02, 3.91377807e-01, 2.89718032e-01,
          2.83073545e-01, 1.00586399e-01, 1.13672286e-01, 8.72926340e-02,
          1.94734409e-02, 4.07714285e-02, 4.50190715e-02, 9.87301692e-02,
          6.04373254e-02, 2.01942936e-01, 8.26025903e-02, 1.58542052e-01,
          1.00616984e-01, 4.91283573e-02, 2.25640237e-01, 8.76874849e-02,
          1.03918858e-01, 4.51453999e-02, 1.68315455e-01, 7.45470673e-02,
          1.30465910e-01, 1.73444375e-01, 2.47082859e-01, 4.93608266e-02,
          1.25940740e-01, 4.65480238e-01, 2.04088941e-01, 2.08394825e-01,
          6.27092421e-02, 7.52349049e-02, 6.12607449e-02, 6.83058277e-02,
          3.61481816e-01, 1.56740516e-01, 2.17514008e-01, 3.51549946e-02,
          6.54324144e-02, 1.21576069e-02, 5.56253493e-02, 1.13989860e-01,
          3.42241764e-01, 2.77903587e-01, 6.23590499e-02, 2.42870338e-02,
          2.22260579e-02, 5.81585653e-02, 6.23364076e-02, 6.03311770e-02,
          9.41748396e-02, 2.60956526e-01, 3.71978849e-01, 3.71978849e-01,
          3.10795102e-02, 1.04736928e-02, 2.16671750e-02, 3.68673429e-02,
          2.55117845e-02, 5.93933836e-02, 2.68754363e-01, 2.94884473e-01,
          1.44554734e-01, 6.68332651e-02, 8.10784637e-04, 9.70022660e-03,
          2.16693222e-03, 1.13153979e-02, 2.63173971e-02, 1.85948431e-01,
          3.69884878e-01, 3.59121352e-01, 2.18174994e-01, 1.19062988e-02,
          6.88604591e-03, 1.01830352e-04, 6.10668445e-04, 4.25537629e-03,
          9.35410708e-02, 3.84919971e-01, 3.84919971e-01, 5.26748225e-02,
          7.52858701e-04, 1.53364055e-03, 2.10616854e-03, 2.18539964e-03,
          6.60904590e-03, 4.82954718e-02, 3.84919971e-01, 3.84919971e-01,
          1.54975638e-01, 5.93379186e-03, 0., 0., 0., 0., 5.96018834e-03,
          2.05391154e-01, 3.38083059e-01, 2.02155396e-01, 1.53904399e-02,
          9.86295193e-03, 0., 0., 3.11246724e-04, 1.71617102e-02,
          1.56138852e-01, 3.36320668e-01, 1.94547415e-01, 1.84062645e-02,
          1.33443233e-02, 0., 6.34462747e-04, 2.12026818e-04,
          2.02904381e-02, 1.60471603e-01, 3.96858066e-01, 3.96858066e-01,
          5.03794812e-02, 2.96109896e-02, 0., 3.90177453e-03,
          1.30390772e-03, 6.71345834e-03, 1.68041363e-02, 2.23209694e-01,
          3.96858066e-01, 1.33141428e-01, 2.57814169e-01, 2.28297827e-03,
          1.80594698e-02, 5.65026700e-03, 9.75842960e-03, 1.10321686e-01,
          2.70571828e-01, 2.60181397e-01, 2.27107741e-02, 2.89562773e-02,
          0., 3.21660680e-03, 2.37173797e-03, 4.51053604e-02,
          3.03585865e-02, 1.47876039e-01, 3.49949986e-01, 9.70876813e-02,
          2.18114093e-01, 7.26084085e-03, 1.24386279e-02, 6.10371679e-03,
          2.41412781e-02, 7.19692484e-02, 3.36868256e-01, 3.36868256e-01,
          3.36868256e-01, 3.69621664e-02, 1.46258138e-02, 1.84917990e-02,
          3.56772654e-02, 1.93762314e-02, 4.47662920e-03, 2.55449772e-01,
          3.36868256e-01, 2.76802123e-01, 5.46667315e-02, 5.20448154e-03,
          5.04906056e-04, 0., 0., 7.59235173e-02, 3.36868256e-01,
          3.04675162e-01, 4.17946801e-02, 1.13756042e-02, 1.74073558e-02,
          2.52081230e-02, 3.27155218e-02, 2.01865397e-02, 1.22685088e-02,
          2.35049158e-01, 3.28440875e-01, 7.42004365e-02, 2.06053779e-02,
          3.20001654e-02, 4.11097780e-02, 2.59502754e-02, 9.98446438e-03,
          4.79663443e-03, 2.56340921e-01, 3.86645496e-01, 2.78511584e-01,
          1.69222161e-01, 1.61866136e-02, 3.26770311e-03, 5.01004106e-04,
          1.24107185e-03, 3.47718708e-02, 2.29367405e-01, 3.86645496e-01,
          1.65551975e-01, 1.56119511e-01, 3.09316218e-02, 1.27637750e-02,
          1.41101470e-02, 1.60528328e-02, 6.72152173e-03, 1.54191300e-01,
          3.86645496e-01, 1.54069126e-01, 1.18087336e-01, 1.21505886e-01,
          1.83866143e-01, 6.56464919e-02, 1.90731827e-02, 4.28710841e-02,
          1.17974691e-01, 1.95931986e-01, 1.03475720e-01, 2.11755916e-01,
          1.33721828e-01, 1.22899547e-01, 7.16540217e-02, 7.55351037e-02,
          3.10351830e-02, 1.97402492e-01, 3.79660666e-01, 2.03386724e-01,
          1.56582400e-01, 1.12678543e-01, 4.88885529e-02, 2.21901778e-02,
          2.00236402e-02, 4.37656082e-02, 7.88991526e-02, 4.18484300e-01,
          2.62501031e-01, 2.08145618e-01, 1.82315618e-01, 6.14403896e-02,
          2.71421485e-02, 3.78915705e-02, 6.34852946e-02, 1.02286354e-01,
          1.18451938e-01, 1.14729010e-01, 2.33460262e-01, 1.76048592e-01,
          5.16504869e-02, 1.22579969e-01, 1.55898705e-01, 9.64718461e-02,
          9.50268656e-02, 1.78581685e-01, 1.47174791e-01, 2.29393095e-01,
          2.81705648e-01, 7.06353784e-02, 8.05212036e-02, 1.03308178e-01,
          1.05209880e-01, 8.42265859e-02, 2.18058020e-01, 8.45353454e-02,
          8.24822262e-02, 4.69875187e-02, 3.14562656e-02, 8.00503939e-02,
          1.18677229e-01, 1.41057178e-01, 6.89190105e-02, 9.18884128e-02,
          1.00184679e-02, 6.43683523e-02, 1.51765840e-02, 1.18907191e-01,
          2.55374014e-01, 2.05901861e-01, 2.39140868e-01, 1.91673875e-01,
          2.02579021e-01, 1.15117304e-01, 6.70907348e-02, 6.92835301e-02,
          3.64819802e-02, 1.10610247e-01, 1.64393425e-01, 2.42586732e-01,
          1.50420785e-01, 1.10509552e-01, 4.73206826e-02, 8.69743973e-02,
          2.19349235e-01, 3.86773735e-01, 3.92217070e-01, 2.83323914e-01,
          1.11523569e-01, 1.05406225e-01, 1.23175800e-01, 3.12450062e-03,
          5.18506914e-02, 3.14948596e-02, 1.40867114e-01, 1.49967611e-01,
          1.11166514e-01, 7.41860271e-02, 1.96417823e-01, 3.08562338e-01,
          3.16652320e-02, 7.59572387e-02, 3.29998434e-02, 6.08300455e-02,
          1.73661783e-02, 2.59502269e-02, 4.51012366e-02, 3.31548862e-02,
          4.64178957e-02, 1.98309077e-03, 1.82633892e-01, 4.16784286e-01,
          4.16784286e-01, 3.62094730e-01, 9.36055556e-02, 1.59565117e-02,
          2.99171098e-02, 7.59145692e-02, 1.16928928e-02, 1.89128608e-01,
          2.68170118e-01, 3.11340302e-01, 9.45999622e-02, 1.86385568e-02,
          9.66167822e-02, 2.65685409e-01, 4.23535585e-01, 6.93500191e-02,
          1.63020819e-01, 5.19535691e-02, 6.66747838e-02, 1.66081823e-02,
          1.93976518e-02, 1.33322090e-01, 3.00451249e-01, 3.41562420e-01,
          4.81925756e-02, 1.82635963e-01, 2.68588439e-02, 6.63534999e-02,
          3.62739563e-02, 7.91470855e-02, 2.96066068e-02, 3.03366687e-02,
          8.54195580e-02, 2.31686048e-02, 3.00590605e-01, 1.96965724e-01,
          2.85546184e-01, 9.01599824e-02, 3.39623764e-02, 7.55915716e-02,
          3.28833126e-02, 7.23638758e-02, 1.19091123e-02, 2.93986917e-01,
          1.20478570e-01, 2.16330037e-01, 1.56634569e-01, 9.46327001e-02,
          1.79843560e-01, 2.14374632e-01, 2.27279305e-01, 1.96468029e-02,
          1.04897760e-01, 2.83783348e-03, 3.46770473e-02, 4.86014485e-02,
          1.60919815e-01, 1.06837712e-01, 1.48952395e-01, 3.12790960e-01,
          8.26836526e-02, 3.83680701e-01, 8.23759437e-02, 7.31613263e-02,
          1.21888861e-01, 1.35642678e-01, 1.25171319e-01, 2.91708075e-02,
          5.15487157e-02, 1.99506525e-02, 1.56902760e-01, 2.71724649e-02,
          1.08317494e-01, 1.18289128e-01, 1.45184308e-01, 8.42617229e-02,
          4.14408743e-02, 1.63443983e-01, 1.37433320e-01, 5.32988250e-01,
          1.02505311e-01, 9.60389972e-02, 1.58452138e-01, 1.33846298e-01,
          7.69093633e-02, 4.44022804e-01, 3.21277022e-01, 1.14624150e-01,
          1.47780642e-01, 9.88793671e-02, 6.72650859e-02, 2.68595163e-02,
          4.41189706e-02, 7.91839436e-02, 1.35398671e-01, 2.19850570e-01,
          1.23490013e-01, 7.42603317e-02, 1.18837290e-01, 2.06803277e-01,
          1.91150233e-01, 1.57398850e-01, 1.50906116e-01, 1.07874483e-01,
          1.27342150e-01, 5.51422127e-02, 2.34694347e-01, 4.51634489e-02,
          1.51092745e-02, 8.97735544e-03, 1.16461866e-01, 2.94979393e-01,
          3.31807733e-01, 1.78041756e-01, 4.80285361e-02, 4.39502299e-02,
          2.46754158e-02, 6.40906617e-02, 9.44370106e-02, 2.32233554e-01,
          1.91363115e-02, 1.08912783e-02, 6.05529323e-02, 1.10437706e-01,
          1.12445213e-01, 1.64824098e-01, 2.45742083e-01, 1.15214691e-01,
          5.97969666e-02, 2.49118991e-02, 1.83591433e-02, 4.91369367e-02,
          2.39952475e-01, 3.26931387e-01, 2.33853683e-01, 1.76079392e-01,
          6.63615465e-02, 6.21130243e-02, 6.61199763e-02, 1.78321898e-01,
          2.68734455e-01, 3.30676943e-01, 1.01670809e-01, 7.30756223e-02,
          8.17239955e-02, 5.11048995e-02, 5.80747090e-02, 1.45804202e-02,
          4.41039279e-02, 2.35801965e-01, 3.80505651e-01, 3.66030246e-01,
          1.13427751e-01, 6.77632391e-02, 2.03162413e-02, 2.33240612e-02,
          6.22302964e-02, 3.52294408e-02, 6.66830689e-02, 1.88520789e-01,
          2.23724917e-01, 9.37504843e-02, 2.52168849e-02, 1.10629573e-01,
          1.59817293e-01, 4.72887978e-02, 5.52880615e-02, 2.03323096e-01,
          2.72789985e-01, 1.16254248e-01, 6.21931627e-02, 1.74384136e-02,
          6.46494851e-02, 9.43670869e-02, 3.98205854e-02, 1.91445015e-02,
          1.42219022e-01, 4.07651186e-01, 3.40733916e-01, 4.91401404e-02,
          2.64275149e-02, 3.85695435e-02, 7.51671419e-02, 2.01537479e-02,
          6.48318827e-02, 4.07651186e-01, 4.07651186e-01, 2.12729737e-01,
          3.76310647e-02, 1.56100569e-02, 2.90445536e-02, 4.81190458e-02,
          6.57859668e-02, 1.03571936e-01, 2.74585307e-01, 2.50950426e-01,
          6.27537742e-02, 2.30036303e-02, 1.57512221e-02, 2.43937876e-02,
          3.19041573e-02, 8.72948170e-02, 9.37256217e-02, 1.39099792e-01,
          8.93302560e-02, 2.12701216e-01, 3.31889272e-01, 2.08120510e-01,
          1.26916960e-01, 6.79565296e-02, 2.83469316e-02, 1.24402754e-01,
          3.41386229e-01, 3.41386229e-01, 1.04178265e-01, 1.94369853e-02,
          1.38822990e-02, 7.64210057e-03, 2.22448837e-02, 7.67868161e-02,
          9.42462012e-02, 1.58180490e-01, 1.06815495e-01, 2.16145605e-01,
          2.69117892e-01, 3.41386229e-01, 1.18457846e-01, 1.06732525e-01,
          1.35926194e-02, 9.42535512e-03, 5.70390280e-03, 1.12436316e-03,
          2.77147532e-01, 3.52896065e-01, 2.18154654e-01, 7.96913952e-02,
          1.96739584e-02, 3.92991956e-03, 5.85142407e-04, 2.81981193e-03,
          2.12456356e-03, 2.18057662e-01, 2.17900813e-01, 1.44273251e-01,
          4.88103218e-02, 7.61050498e-03, 1.83070544e-02, 9.90566984e-03,
          6.42581470e-03, 2.00079777e-03, 2.41089106e-01, 3.52896065e-01,
          3.52896065e-01, 1.11356445e-01, 4.08562012e-02, 9.25723556e-03,
          3.55491444e-04, 2.12571770e-03, 2.11167731e-03, 2.19952375e-01,
          3.52896065e-01, 3.52896065e-01, 5.27340658e-02, 1.04216309e-02,
          3.76680233e-02, 1.01744942e-02, 3.85898501e-02, 1.61879230e-02,
          3.99948478e-01, 1.38467908e-01, 2.03284740e-01, 7.48694539e-02,
          4.33433242e-02, 7.43372068e-02, 9.34778992e-03, 3.16738635e-02,
          7.35814730e-03, 2.39437789e-01, 6.68241754e-02, 1.83450431e-01,
          1.22099891e-01, 8.73007774e-02, 1.61847964e-01, 6.66204887e-03,
          2.80267913e-02, 1.60897356e-02, 3.88793051e-01, 3.20245683e-01,
          2.60143489e-01, 7.35058486e-02, 1.67624414e-01, 2.47262061e-01,
          6.45956816e-03, 2.53879987e-02, 1.19558563e-02, 1.67864755e-01,
          7.21033886e-02, 2.37044007e-01, 1.87108144e-01, 2.65050262e-01,
          3.27815376e-02, 1.11510083e-02, 3.97606641e-02, 2.84809265e-02,
          1.71457797e-01, 4.93048020e-02, 1.60030290e-01, 9.54298228e-02,
          4.14307378e-02, 3.05799693e-02, 4.27719541e-02, 1.80910021e-01,
          1.41273662e-01, 4.52472508e-01, 1.18373662e-01, 7.20344484e-02,
          4.42744792e-02, 3.85130011e-02, 6.03555925e-02, 5.38667012e-03,
          2.04067025e-02, 2.01780628e-02, 2.54358947e-01, 2.27703199e-01,
          2.67209947e-01, 1.75835952e-01, 7.70861953e-02, 9.95326191e-02,
          1.64160058e-02, 5.62363155e-02, 4.49870229e-02, 4.94054049e-01,
          3.47057402e-01, 1.14183158e-01, 7.55980834e-02, 1.11478411e-01,
          1.20489396e-01, 1.34650305e-01, 8.99048448e-02, 3.72606888e-02,
          6.09393939e-02, 1.15249204e-02, 3.71590024e-04, 3.16303282e-04,
          3.91080454e-02, 2.08855033e-01, 3.52012932e-01, 1.40821740e-01,
          1.03481812e-02, 3.05992039e-03, 6.06593851e-04, 1.95631245e-03,
          3.66655877e-03, 4.31488752e-02, 3.52012932e-01, 2.90297329e-01,
          2.45668501e-01, 1.30034551e-01, 6.08778112e-02, 1.21380650e-02,
          2.47316388e-03, 3.81757854e-03, 2.37697855e-01, 3.52012932e-01,
          3.52012932e-01, 2.03373626e-01, 2.44747791e-02, 2.50096410e-03,
          0., 0., 9.97825898e-03, 3.52012932e-01, 6.48534000e-02,
          2.67308027e-01, 3.16726416e-01, 1.71651065e-01, 2.08280217e-02,
          2.99362908e-03, 1.40678277e-03, 2.21176632e-03, 9.50602256e-03,
          7.33967265e-03, 5.67088053e-02, 2.74115801e-01, 3.16726416e-01,
          1.26811266e-01, 6.78779744e-03, 6.91969041e-03, 2.97606131e-03,
          6.21722266e-03, 3.16726416e-01, 2.24762127e-01, 2.79639184e-01,
          1.20132349e-01, 1.04218265e-02, 0., 0., 3.80824064e-03,
          2.33434796e-01, 3.16726416e-01, 9.88588631e-02, 2.57242918e-01,
          2.35907644e-01, 4.87877168e-02, 1.00209136e-02, 1.79205686e-02,
          1.55165829e-02, 2.50743955e-01, 9.78556275e-03, 4.08237334e-03,
          8.90561864e-02, 3.05076510e-01, 1.86388001e-01, 4.90752570e-02,
          3.24754119e-02, 9.15183965e-03, 1.02583030e-02, 2.11804919e-03,
          3.71428207e-02, 2.07694545e-01, 2.75000513e-01, 2.26947352e-01,
          1.85117543e-01, 4.94146161e-02, 6.10025553e-03, 2.71849753e-03,
          2.75020152e-01, 2.91925948e-02, 5.94989881e-02, 1.03873640e-01,
          9.24942344e-02, 9.78115350e-02, 1.49672836e-01, 7.26085827e-02,
          3.22464854e-01, 1.86139047e-01, 5.05816890e-03, 2.62855738e-02,
          5.38506620e-02, 1.85689673e-01, 3.31643671e-01, 3.31643671e-01,
          7.39385337e-02, 3.31643671e-01, 2.19749585e-02, 1.00411639e-01,
          2.42860764e-01, 1.64807692e-01, 1.61088318e-01, 1.42570838e-01,
          1.89384595e-02, 3.79397813e-03, 1.18680950e-02, 7.06729740e-02,
          8.39107558e-02, 1.08356528e-01, 6.11631237e-02, 1.04715399e-01,
          1.50464281e-01, 2.40817130e-01, 8.40463042e-02, 7.53530860e-02,
          1.71796024e-01, 1.81697328e-02, 3.94570306e-02, 4.38197553e-02,
          2.37143010e-01, 3.48478913e-01, 1.89490661e-01, 2.47575603e-02,
          3.48478913e-01, 3.48478913e-01, 5.65119907e-02, 3.77603918e-02,
          6.60159066e-02, 2.07558423e-01, 2.14530393e-01, 1.02697060e-01,
          2.65887044e-02, 3.48478913e-01, 1.50470193e-02, 9.86563321e-03,
          5.58200851e-03, 1.18601657e-02, 7.42161945e-02, 3.17587107e-01,
          3.17587107e-01, 5.65092079e-02, 2.48048976e-02, 5.25189145e-03,
          3.54066560e-06, 1.38518843e-03, 1.07853888e-02, 1.35391727e-01,
          3.17587107e-01, 2.65606731e-01, 1.98635887e-02, 5.46144415e-03,
          2.98581034e-01, 2.55425721e-02, 1.12099983e-02, 6.03803620e-02,
          2.09014282e-01, 3.17587107e-01, 7.57045075e-02, 6.68712286e-03,
          1.82084531e-01, 3.17587107e-01, 3.49698937e-03, 5.19549334e-03,
          7.11978376e-02, 3.17587107e-01, 3.17587107e-01, 5.75715229e-02,
          9.72988841e-04, 8.31836089e-02, 5.82568087e-02, 1.37735717e-03,
          9.65563860e-03, 3.47368792e-02, 1.44194156e-01, 2.66413480e-01,
          1.27615541e-01, 2.72395536e-02, 6.01556785e-02, 8.18105936e-02,
          1.76370516e-02, 3.43668424e-02, 3.36141810e-02, 6.14009276e-02,
          4.25186865e-02, 8.66705999e-02, 4.85918820e-02, 8.39570314e-02,
          3.86492372e-01, 5.22891711e-03, 3.23209912e-02, 1.29845709e-01,
          3.83167177e-01, 3.86492372e-01, 3.40585895e-02, 3.88277299e-03,
          2.22869664e-01, 3.86492372e-01, 5.85249178e-02, 9.61323753e-02,
          1.02082610e-01, 9.97523963e-02, 2.51937751e-02, 2.02071369e-02,
          5.72443567e-03, 3.86492372e-01, 2.51770187e-02, 1.61215719e-02,
          3.90337296e-02, 5.38166724e-02, 1.76191717e-01, 1.22966811e-01,
          8.79828408e-02, 4.85075675e-02, 2.86500398e-02, 4.42728139e-02,
          2.63021211e-03, 1.20690884e-02, 4.09879796e-02, 3.55479330e-01,
          1.28397584e-01, 3.09708640e-02, 2.06168778e-02, 4.77603897e-02,
          3.89617771e-01, 6.99144453e-02, 9.56021845e-02, 1.28012091e-01,
          1.86836690e-01, 3.08335274e-02, 2.03487054e-02, 4.74210316e-03,
          3.50993365e-01, 3.89617771e-01, 3.56556550e-02, 3.56125906e-02,
          7.63524622e-02, 3.56356502e-01, 4.36195359e-02, 2.78562512e-02,
          7.41515821e-03, 3.89617771e-01 ]
      - [ 8.70114118e-02, 6.45854995e-02, 1.07897535e-01, 9.24599320e-02,
          3.58506352e-01, 6.62562773e-02, 1.23504512e-01, 6.19780123e-02,
          9.13111567e-02, 1.35588810e-01, 1.14568606e-01, 1.29231870e-01,
          4.63803746e-02, 2.87238598e-01, 4.36035357e-02, 1.44761622e-01,
          1.21156581e-01, 1.11014120e-01, 1.79812014e-01, 1.06270805e-01,
          1.47061437e-01, 1.08579025e-01, 1.87776670e-01, 1.67478248e-02,
          6.25281557e-02, 1.69700727e-01, 3.49448472e-01, 2.36216202e-01,
          8.78553689e-02, 7.91487992e-02, 4.07710439e-03, 1.33484110e-01,
          2.86024548e-02, 1.45811558e-01, 2.96741366e-01, 3.91714722e-01,
          1.76925957e-01, 2.13724419e-01, 1.16212688e-01, 1.79474447e-02,
          2.08982393e-01, 2.37628724e-02, 1.11046962e-01, 2.38369673e-01,
          1.01101816e-01, 1.69159740e-01, 2.13440314e-01, 1.57941535e-01,
          5.25027476e-02, 1.46197870e-01, 6.49556667e-02, 8.58868286e-02,
          1.47339657e-01, 1.04899660e-01, 1.41887486e-01, 7.68026635e-02,
          7.31241256e-02, 1.03912409e-02, 1.84372604e-01, 6.47522360e-02,
          1.59331635e-01, 3.51269633e-01, 2.11867824e-01, 8.05933401e-02,
          8.75868797e-02, 1.60816461e-01, 7.93504417e-02, 3.91784579e-01,
          2.04572871e-01, 1.94381565e-01, 2.32243314e-01, 1.20083913e-01,
          1.15127109e-01, 1.77952290e-01, 2.06033826e-01, 5.53194545e-02,
          6.45144880e-02, 2.08751466e-02, 2.84421723e-02, 1.76209435e-02,
          5.21668158e-02, 3.78641546e-01, 2.31949717e-01, 1.58337936e-01,
          4.65833321e-02, 3.90482657e-02, 1.55094620e-02, 4.04915102e-02,
          1.22825988e-01, 2.52014935e-01, 5.79067692e-02, 1.11131616e-01,
          2.30308503e-01, 1.94645032e-01, 3.25186789e-01, 1.31818369e-01,
          9.95549262e-02, 4.30237465e-02, 2.18434166e-02, 2.79022783e-01,
          1.75777599e-01, 1.83498606e-01, 1.60650358e-01, 3.19695801e-01,
          1.82553723e-01, 1.15027145e-01, 1.01972163e-01, 1.40575245e-01,
          1.50865525e-01, 4.58505154e-02, 2.47222539e-02, 1.09521924e-02,
          6.95495680e-02, 1.83032125e-01, 1.37912825e-01, 1.50478035e-01,
          1.83158800e-01, 4.37218659e-02, 4.57514264e-02, 3.95317376e-02,
          5.19436970e-02, 1.93206206e-01, 2.98932880e-01, 1.75356612e-01,
          8.02674592e-02, 5.89112975e-02, 1.21187255e-01, 4.30844873e-02,
          1.93247925e-02, 6.94103464e-02, 3.55064124e-01, 2.93386489e-01,
          1.50686890e-01, 1.07035883e-01, 1.16861366e-01, 1.98750775e-02,
          2.99816132e-02, 5.81308678e-02, 1.59628481e-01, 4.47480023e-01,
          3.74229044e-01, 1.60185531e-01, 4.54284884e-02, 3.01015638e-02,
          7.00108409e-02, 6.24967515e-02, 6.37945756e-02, 5.51740490e-02,
          3.22863281e-01, 1.10663965e-01, 9.72775668e-02, 3.87690701e-02,
          6.12859651e-02, 5.27155288e-02, 3.40987444e-02, 8.95497426e-02,
          7.24619068e-03, 4.06930029e-01, 1.07536716e-02, 7.94904456e-02,
          3.31205390e-02, 5.33200242e-02, 3.76020111e-02, 9.37256590e-02,
          1.77137449e-01, 1.73707053e-01, 5.12651682e-01, 1.24416836e-01,
          8.39117020e-02, 1.96153000e-02, 2.72698160e-02, 7.54269511e-02,
          9.38990861e-02, 1.66616097e-01, 7.07904473e-02, 4.90188152e-01,
          1.36252185e-02, 8.88437480e-02, 2.82478146e-02, 6.58319592e-02,
          3.59556228e-02, 2.10417956e-02, 6.96133301e-02, 3.25792953e-02,
          4.94257659e-01, 0., 5.80287762e-02, 1.99647080e-02,
          3.56668010e-02, 1.09246768e-01, 3.19053493e-02, 6.90162405e-02,
          3.65191251e-02, 3.87258589e-01, 2.22847387e-02, 1.01932012e-01,
          3.98411602e-02, 1.06402725e-01, 5.41762337e-02, 6.89320639e-02,
          1.38497666e-01, 7.80493990e-02, 5.11821270e-01, 4.43084538e-03,
          6.74593002e-02, 2.19913721e-02, 4.81388718e-02, 5.60064428e-02,
          3.86450775e-02, 9.86450613e-02, 5.90651892e-02, 4.49487358e-01,
          4.58608232e-02, 1.24067061e-01, 3.77320163e-02, 5.37838340e-02,
          1.65881410e-01, 5.48996516e-02, 4.52410281e-02, 1.03335558e-02,
          2.72366613e-01, 7.86135495e-02, 1.47606224e-01, 5.89902997e-02,
          1.54497176e-01, 1.05129942e-01, 8.40295330e-02, 2.05691546e-01,
          4.99379672e-02, 2.96711951e-01, 7.93010145e-02, 2.19064325e-01,
          1.22539982e-01, 9.18994769e-02, 1.26246467e-01, 1.79731529e-02,
          5.67350648e-02, 6.01862883e-03, 4.22279507e-01, 1.41418502e-01,
          1.71327278e-01, 4.37245890e-02, 1.26246467e-01, 2.04505906e-01,
          9.38284919e-02, 1.99664444e-01, 9.05211419e-02, 3.87518764e-01,
          1.35388806e-01, 1.40382096e-01, 9.65009630e-02, 1.98255435e-01,
          2.07046986e-01, 1.18866973e-01, 1.58218920e-01, 1.45954624e-01,
          1.67764932e-01, 3.92667241e-02, 8.98489803e-02, 1.47592187e-01,
          3.61915916e-01, 2.29687706e-01, 1.11620910e-01, 1.41225219e-01,
          7.71034556e-03, 4.41459604e-02, 5.82851730e-02, 1.85763612e-01,
          2.37267479e-01, 3.77423614e-01, 1.59137473e-01, 9.91405323e-02,
          1.81185827e-01, 2.65818126e-02, 1.38120592e-01, 1.93346087e-02,
          7.94007182e-02, 4.47745807e-02, 1.64440170e-01, 1.79318383e-01,
          1.27570227e-01, 2.07540855e-01, 4.29252442e-03, 1.85346916e-01,
          3.44581157e-02, 1.98105976e-01, 1.87534630e-01, 2.23431259e-01,
          1.35710672e-01, 1.07440308e-01, 1.02958038e-01, 1.61222797e-02,
          8.30308348e-02, 5.03637008e-02, 1.47426814e-01, 1.24243066e-01,
          1.39470786e-01, 9.52043086e-02, 8.08872581e-02, 1.17834777e-01,
          1.02349691e-01, 4.19090867e-01, 1.42937377e-01, 1.32547110e-01,
          9.06419232e-02, 9.83482823e-02, 1.70892984e-01, 1.22932494e-01,
          1.14604823e-01, 8.42251163e-03, 1.01343252e-01, 2.85740569e-02,
          1.91711619e-01, 2.47133553e-01, 2.87195742e-01, 2.70914137e-01,
          1.64040193e-01, 1.31256208e-01, 4.54529189e-02, 1.95289925e-01,
          1.11590646e-01, 1.16131015e-01, 1.96929082e-01, 3.79038393e-01,
          2.49730125e-02, 1.22508453e-02, 5.18195555e-02, 1.14614323e-01,
          3.77963960e-01, 1.30595446e-01, 1.12009168e-01, 7.44227022e-02,
          5.82859367e-02, 9.67054144e-02, 2.38175672e-02, 3.59259695e-02,
          7.60732666e-02, 2.48348460e-01, 1.48823008e-01, 1.42484546e-01,
          1.49902642e-01, 1.60057664e-01, 1.47112146e-01, 3.46987732e-02,
          2.85773501e-02, 2.69288383e-02, 1.49734065e-01, 1.08082965e-01,
          1.14856020e-01, 2.06407800e-01, 3.69729877e-01, 1.58297077e-01,
          1.88744627e-02, 2.23248601e-02, 1.99556090e-02, 6.50166497e-02,
          8.13189819e-02, 2.56844938e-01, 3.47518682e-01, 3.90966564e-01,
          6.35688007e-02, 2.46372148e-02, 2.91464236e-02, 1.90855414e-01,
          3.55408430e-01, 1.04817912e-01, 5.73111661e-02, 7.06313699e-02,
          8.79288167e-02, 2.26952508e-02, 6.26637638e-02, 9.36765596e-02,
          3.65989238e-01, 4.30884361e-01, 1.02093272e-01, 3.93134952e-02,
          2.60108076e-02, 1.83154605e-02, 9.81026366e-02, 5.46747297e-02,
          8.66204277e-02, 1.82440221e-01, 1.89494520e-01, 5.68698049e-02,
          1.03717871e-01, 1.11914195e-01, 1.23326667e-01, 3.69118303e-02,
          7.38006383e-02, 1.31296381e-01, 3.49093348e-01, 3.82550597e-01,
          1.11936979e-01, 1.10827170e-01, 7.23477006e-02, 3.63040119e-02,
          4.24352847e-02, 1.26501575e-01, 1.93286940e-01, 2.85432458e-01,
          3.79297048e-01, 4.91459556e-02, 5.07224128e-02, 2.87599079e-02,
          2.85415016e-02, 1.52772158e-01, 7.59212375e-02, 1.39220387e-01,
          8.43438953e-02, 2.21604019e-01, 2.21044626e-02, 5.91768548e-02,
          1.66814942e-02, 1.44716948e-01, 2.99403928e-02, 7.08762482e-02,
          1.56832606e-01, 3.43561143e-01, 3.79302412e-01, 1.29935518e-01,
          1.41435519e-01, 9.71721858e-02, 3.66364531e-02, 1.82390839e-01,
          8.49986970e-02, 1.67654425e-01, 2.31562048e-01, 2.84127265e-01,
          4.28142399e-02, 4.88696210e-02, 1.29342768e-02, 1.71829805e-01,
          1.84216842e-01, 9.22356844e-02, 2.04342499e-01, 6.26840442e-02,
          2.82609969e-01, 1.63728409e-02, 7.67449290e-02, 2.28318963e-02,
          1.77898109e-01, 9.93657485e-02, 5.30567579e-02, 1.35073438e-01,
          2.97053680e-02, 3.87978971e-01, 2.26988960e-02, 1.00166708e-01,
          3.09371036e-02, 9.72852409e-02, 2.95757562e-01, 1.30316272e-01,
          2.27636755e-01, 1.62368760e-01, 2.58396536e-01, 2.63677463e-02,
          1.12810612e-01, 3.79547365e-02, 2.81621784e-01, 2.63175964e-01,
          8.18082988e-02, 1.73209280e-01, 4.57257330e-02, 2.13688314e-01,
          2.84062754e-02, 1.18415698e-01, 4.76409979e-02, 2.59738237e-01,
          8.76130983e-02, 2.02626828e-02, 6.09073862e-02, 4.72876971e-04,
          3.91101867e-01, 3.27522345e-02, 8.16652477e-02, 2.39444431e-02,
          8.76130983e-02, 2.03350917e-01, 1.06305338e-01, 9.42108929e-02,
          5.15845641e-02, 4.66517448e-01, 5.85614741e-02, 1.37852728e-01,
          8.09609219e-02, 1.77608624e-01, 1.70351624e-01, 9.05677974e-02,
          1.79715306e-01, 8.29403009e-03, 2.25537375e-01, 4.04576072e-03,
          6.51119277e-02, 2.38331277e-02, 1.57348081e-01, 1.75774530e-01,
          1.88555449e-01, 2.11823419e-01, 1.74330380e-02, 3.97151232e-01,
          7.98784010e-03, 1.61803395e-01, 7.05748573e-02, 1.34511128e-01,
          1.59938902e-01, 1.39559507e-01, 1.44074515e-01, 5.79913659e-03,
          7.05764294e-02, 2.72647906e-02, 1.00450262e-01, 1.09662093e-01,
          1.44214123e-01, 1.91866949e-01, 1.70741379e-01, 1.83297634e-01,
          2.49114409e-02, 3.36943418e-01, 6.48550168e-02, 1.46794841e-01,
          1.89196914e-01, 1.96189925e-01, 1.70373634e-01, 1.94143265e-01,
          1.31961182e-01, 3.05371992e-02, 1.19727843e-01, 6.95319623e-02,
          2.49224171e-01, 2.00319171e-01, 1.30825758e-01, 1.72253028e-01,
          1.65168718e-01, 1.50389999e-01, 4.71840315e-02, 3.10465783e-01,
          1.42941505e-01, 2.88173079e-01, 1.99180350e-01, 1.39463231e-01,
          1.43827558e-01, 1.20564446e-01, 1.18230641e-01, 4.82222699e-02,
          1.96142867e-01, 5.26020713e-02, 1.39687821e-01, 2.16460675e-01,
          2.50484765e-01, 2.73318499e-01, 1.95371076e-01, 1.17080979e-01,
          4.73774783e-02, 1.08181909e-01, 5.29472567e-02, 1.33845165e-01,
          1.69022694e-01, 3.23035687e-01, 1.02920607e-01, 1.45002589e-01,
          1.65252358e-01, 9.72332358e-02, 2.13727638e-01, 9.42340121e-02,
          1.84627414e-01, 1.53974950e-01, 1.14892207e-01, 1.20705381e-01,
          2.35510141e-01, 2.39543140e-01, 1.26834512e-01, 2.18236774e-01,
          8.42518583e-02, 2.24683598e-01, 1.57294393e-01, 1.03724092e-01,
          2.00331792e-01, 1.17033824e-01, 9.70588699e-02, 2.64621191e-02,
          6.28959313e-02, 5.90402782e-02, 1.01625040e-01, 1.61990091e-01,
          3.68306309e-01, 1.04204670e-01, 8.20002779e-02, 1.41006023e-01,
          6.58143535e-02, 1.09328963e-01, 1.29048660e-01, 2.67392248e-01,
          2.19024435e-01, 2.51936734e-01, 8.09851065e-02, 1.85772866e-01,
          2.09762648e-01, 1.10091694e-01, 2.24075049e-01, 1.05134964e-01,
          1.28058508e-01, 1.14235751e-01, 8.33772123e-02, 4.57656607e-02,
          1.61963269e-01, 2.59483576e-01, 1.54301628e-01, 3.52414787e-01,
          1.81831583e-01, 1.42727360e-01, 5.98413497e-02, 4.64084111e-02,
          1.00259900e-01, 1.38450384e-01, 1.80576310e-01, 1.41761392e-01,
          1.38434842e-01, 9.20242071e-02, 1.37522846e-01, 7.43451416e-02,
          7.25663304e-02, 6.12410232e-02, 1.60424769e-01, 3.18489462e-01,
          3.29356730e-01, 2.42195353e-01, 8.17570090e-02, 8.44588652e-02,
          4.13651504e-02, 2.99994722e-02, 4.17541713e-02, 9.55146626e-02,
          1.52570471e-01, 1.32153600e-01, 2.23511145e-01, 2.58657068e-01,
          1.56031206e-01, 2.21138634e-02, 1.81033220e-02, 5.97939380e-02,
          1.23544022e-01, 2.99049526e-01, 2.53712147e-01, 1.92768857e-01,
          2.89321899e-01, 2.26299688e-01, 4.42550406e-02, 2.68896706e-02,
          5.28578646e-02, 9.19240639e-02, 2.35574082e-01, 3.49228680e-01,
          2.43908688e-01, 7.59479254e-02, 8.82841051e-02, 7.21363276e-02,
          3.65747362e-02, 1.27241477e-01, 1.24544345e-01, 2.11015835e-01,
          3.24447840e-01, 2.69395411e-01, 3.77858654e-02, 8.41539651e-02,
          1.01113923e-01, 9.28842276e-02, 1.55303776e-01, 1.14456035e-01,
          2.45067656e-01, 2.04935610e-01, 1.25827566e-01, 1.24904484e-01,
          1.98722273e-01, 1.36012718e-01, 1.17181487e-01, 1.99083239e-01,
          1.17710099e-01, 1.69426307e-01, 1.30474433e-01, 1.33886948e-01,
          1.49330413e-02, 1.37518361e-01, 2.08010778e-01, 1.49865106e-01,
          1.51789486e-01, 1.88518777e-01, 3.30976218e-01, 3.05912226e-01,
          2.27342725e-01, 1.39227314e-02, 9.74121764e-02, 7.55831450e-02,
          1.20590404e-01, 2.18793914e-01, 9.76504087e-02, 1.67613238e-01,
          8.96422938e-02, 9.48875919e-02, 1.43116405e-02, 1.25251994e-01,
          6.88003674e-02, 2.14439407e-01, 1.30079105e-01, 1.79045752e-01,
          3.09129387e-01, 1.88363954e-01, 1.78384617e-01, 1.77424345e-02,
          1.39064103e-01, 1.14635631e-01, 8.51908177e-02, 1.54176980e-01,
          1.08589508e-01, 1.90103546e-01, 8.11636224e-02, 3.05959612e-01,
          4.42769974e-02, 1.74359873e-01, 6.39382452e-02, 1.40816510e-01,
          2.47385398e-01, 9.87588838e-02, 1.65201589e-01, 2.38441080e-02,
          1.21189743e-01, 2.42833514e-02, 8.85997415e-02, 3.32127959e-02,
          2.19759479e-01, 2.18849659e-01, 1.81827486e-01, 2.29537696e-01,
          3.42087485e-02, 1.97329596e-01, 4.64054644e-02, 1.65835172e-01,
          5.03922701e-02, 1.71261624e-01, 2.19156131e-01, 6.47855625e-02,
          1.06398016e-01, 4.30346727e-02, 2.64027894e-01, 5.70033044e-02,
          2.14230120e-01, 6.52176514e-02, 2.02411175e-01, 2.44232088e-01,
          2.19308749e-01, 2.85908192e-01, 2.03043625e-01, 1.64614767e-01,
          5.07200919e-02, 2.26547286e-01, 6.73174039e-02, 1.98184758e-01,
          1.45073682e-01, 1.45042866e-01, 1.02447391e-01, 2.37424187e-02,
          1.01489395e-01, 2.41923071e-02, 1.94873139e-01, 1.06992371e-01,
          1.16730258e-01, 1.22931778e-01, 6.75595999e-02, 8.20873827e-02,
          2.34168358e-02, 2.47344330e-01, 4.54565324e-02, 2.22084954e-01,
          1.26270726e-01, 1.16583027e-01, 4.20803756e-01, 1.71307221e-01,
          7.21527189e-02, 8.71835183e-03, 2.91375890e-02, 1.50969834e-03,
          7.63144419e-02, 1.19100153e-01, 3.71099114e-01, 3.44625890e-01,
          5.28769195e-02, 9.91103128e-02, 6.79260939e-02, 2.47829601e-01,
          2.45133433e-02, 1.34171739e-01, 7.29991347e-02, 3.24136198e-01,
          8.21416005e-02, 9.04354155e-02, 1.11603327e-01, 5.19425757e-02,
          3.02244902e-01, 5.22074252e-02, 1.65162519e-01, 1.17592081e-01,
          8.96251649e-02, 8.68434459e-02, 2.32377708e-01, 2.57772565e-01,
          1.25433907e-01, 2.78419107e-01, 8.42477232e-02, 1.87175959e-01,
          1.55259565e-01, 8.26699287e-02, 1.10268153e-01, 3.67065184e-02,
          1.07513167e-01, 5.99988140e-02, 4.17593598e-01, 3.87131125e-02,
          1.43523082e-01, 5.06628864e-02, 1.09176002e-01, 9.49637592e-02,
          1.73516810e-01, 2.33084902e-01, 7.32264817e-02, 3.36190283e-01,
          8.58475789e-02, 1.88007101e-01, 1.28069401e-01, 1.21984303e-01,
          5.02332263e-02, 2.03533798e-01, 2.07198471e-01, 1.20998800e-01,
          3.12754750e-01, 9.80565175e-02, 9.07365456e-02, 1.18468277e-01,
          4.09413353e-02, 7.49208927e-02, 1.31540149e-01, 1.33805752e-01,
          1.00414291e-01, 4.78147388e-01, 1.32046238e-01, 1.07528172e-01,
          7.51886293e-02, 6.91280290e-02, 8.09955224e-02, 1.93062872e-01,
          2.20398575e-01, 7.45913759e-02, 1.94217473e-01, 8.95017684e-02,
          1.04211323e-01, 1.99546978e-01, 1.16130449e-01, 1.85475528e-01,
          1.01015791e-01, 1.07710697e-01, 6.86942041e-02, 2.41059110e-01,
          1.12288855e-01, 1.22329921e-01, 2.01238960e-01, 2.17922732e-01,
          4.51615267e-02, 4.06741984e-02, 4.02415767e-02, 6.20377026e-02,
          2.71512896e-01, 1.85631528e-01, 1.15612887e-01, 2.84157898e-02,
          4.05500717e-02, 2.55801771e-02, 3.15641463e-02, 9.21259820e-02,
          1.96377829e-01, 3.10470909e-01, 2.47712269e-01, 1.96965456e-01,
          4.05246727e-02, 2.12240107e-02, 1.03482246e-01, 3.31040956e-02,
          4.80509996e-02, 1.56625241e-01, 3.47428650e-01, 7.72861093e-02,
          4.17304672e-02, 4.44092862e-02, 1.06499195e-01, 2.03108415e-02,
          2.22226307e-02, 1.03157088e-01, 4.02413338e-01, 4.90200520e-01,
          1.27337486e-01, 5.95549643e-02, 1.78706888e-02, 1.89667083e-02,
          1.44457757e-01, 5.59179857e-02, 1.26296803e-01, 1.77189678e-01,
          1.96696520e-01, 1.67889252e-01, 2.59024501e-01, 1.26727447e-01,
          1.41950294e-01, 1.76068515e-01, 4.95906435e-02, 8.85047615e-02,
          3.50054391e-02, 9.22019407e-02, 2.39947103e-02, 1.70177922e-01,
          1.22091673e-01, 1.70823768e-01, 1.51933521e-01, 6.84717074e-02,
          1.48702338e-01, 3.21832120e-01, 3.64994615e-01, 1.90749228e-01,
          1.58354357e-01, 7.52702504e-02, 1.60981238e-01, 2.16554165e-01,
          1.18585244e-01, 1.88817620e-01, 1.20685808e-01, 1.29661843e-01,
          1.18256256e-01, 1.50875747e-01, 1.44792914e-01, 2.48447403e-01,
          9.64454934e-02, 1.15722910e-01, 1.38603553e-01, 1.40572712e-01,
          1.55303881e-01, 7.09048286e-03, 1.12562321e-01, 5.12459837e-02,
          5.83214909e-02, 1.27972156e-01, 1.61082551e-01, 1.44186869e-01,
          1.45681739e-01, 3.60182852e-01, 2.09358782e-02, 7.21829757e-02,
          2.05638148e-02, 6.35343641e-02, 9.85657200e-02, 1.38865963e-01,
          1.94512144e-01, 3.43393773e-01, 2.57327706e-01, 5.15188985e-02,
          1.00559823e-01, 1.25013158e-01, 7.94439390e-02, 1.47471100e-01,
          1.84872061e-01, 1.46482781e-01, 2.81883389e-01, 4.49035943e-01,
          1.92938671e-02, 8.54084715e-02, 8.56497362e-02, 7.20257908e-02,
          1.34843290e-01, 7.97241032e-02, 1.18955173e-01, 6.94746152e-02,
          3.14461648e-01, 1.70993432e-02, 9.85131264e-02, 2.98895463e-02,
          1.14204638e-01, 1.93054095e-01, 1.98064923e-01, 2.39182591e-01,
          2.15007767e-01, 2.33492866e-01, 5.29023167e-03, 1.09957047e-01,
          3.57828774e-02, 1.48986012e-01, 1.46145791e-01, 1.09931879e-01,
          1.22951351e-01, 9.35340673e-02, 3.83436352e-01, 3.80879093e-04,
          1.18493371e-01, 7.93318450e-02, 1.19913235e-01, 2.45040759e-01,
          1.24601141e-01, 1.14011690e-01, 1.11188382e-01, 3.63891572e-01,
          5.71318576e-03, 1.60482064e-01, 9.25972089e-02, 2.21026659e-01,
          2.81806767e-01, 4.88882735e-02, 2.59234253e-02, 1.08489841e-02,
          2.38163415e-02, 2.77796146e-02, 7.91735128e-02, 1.96495011e-01,
          3.10745090e-01, 2.08925158e-01, 2.47461181e-02, 8.67765918e-02,
          1.18750766e-01, 1.21226072e-01, 6.21664748e-02, 1.45607546e-01,
          1.16231926e-01, 2.19741285e-01, 2.10255057e-01, 8.86619687e-02,
          1.03266060e-01, 1.00953385e-01, 5.03399521e-02, 7.53396749e-02,
          1.20778546e-01, 2.45297760e-01, 2.51965582e-01, 1.60692960e-01,
          8.75979885e-02, 2.23800004e-01, 3.15277040e-01, 1.06160976e-01,
          1.10102035e-01, 2.88971812e-01, 2.42627650e-01, 1.80291936e-01,
          1.17628768e-01, 5.05284891e-02, 1.19861946e-01, 1.33295938e-01,
          2.16087282e-01, 4.73139659e-02, 1.59749657e-01, 8.01009387e-02,
          1.22209728e-01, 1.21520549e-01, 1.25887483e-01, 1.61491707e-01,
          1.09757408e-01, 1.78085983e-01, 1.43399537e-01, 1.92659438e-01,
          1.53375432e-01, 2.10970119e-01, 1.48008868e-01, 1.00698493e-01,
          1.73861012e-01, 1.72674507e-01, 1.41636670e-01, 5.04441112e-02,
          3.04353833e-01, 2.16538727e-01, 1.60457209e-01, 1.53758854e-01,
          1.50315076e-01, 2.03130603e-01, 1.96794897e-01, 2.10802361e-01,
          1.60656333e-01, 2.59877980e-01, 1.95729643e-01, 2.00227499e-01,
          5.93114011e-02, 7.71218985e-02, 1.17455184e-01, 5.13768122e-02,
          7.30353445e-02, 1.58471972e-01, 1.29017964e-01, 1.68719396e-01,
          1.27742678e-01, 9.58632454e-02, 7.52710477e-02, 1.12330414e-01,
          1.20983347e-01, 1.25542745e-01, 1.43165484e-01, 1.29262552e-01,
          1.60171881e-01, 1.27915546e-01, 8.93869027e-02, 8.27827528e-02,
          9.93501693e-02, 1.04366437e-01, 8.31843317e-02, 1.81558505e-01,
          3.00342500e-01, 3.43301207e-01, 1.43379152e-01, 3.10721546e-01,
          1.92165628e-01, 1.09569445e-01, 1.46060064e-01, 1.10331148e-01,
          1.03424065e-01, 2.26176739e-01, 3.64414722e-01, 2.48869613e-01,
          6.51034340e-02, 7.19928443e-02, 8.78374279e-02, 1.56760693e-01,
          2.91817576e-01, 8.70994851e-02, 3.57789099e-02, 3.39693911e-02,
          6.38835132e-02, 1.71270277e-02, 4.33753505e-02, 7.33586848e-02,
          2.20584452e-01, 4.99551624e-01, 1.96690843e-01, 5.76693341e-02,
          8.95406213e-03, 1.09128449e-02, 3.38362843e-01, 2.97476321e-01,
          1.01985238e-01, 9.59148630e-02, 1.38938934e-01, 4.44846638e-02,
          5.81711642e-02, 8.09681341e-02, 1.71927005e-01, 1.41727418e-01,
          1.88753039e-01, 1.18519373e-01, 1.22492187e-01, 3.23539823e-01,
          1.28594428e-01, 8.02971348e-02, 5.34224883e-02, 8.61252919e-02,
          1.03154309e-01, 8.32781792e-02, 1.29512370e-01, 1.77120805e-01,
          3.74900788e-01, 2.32127994e-01, 1.18585922e-01, 3.78276780e-02,
          8.94692615e-02, 1.77015305e-01, 1.87223405e-01, 2.16790572e-01,
          9.78273004e-02, 1.35985643e-01, 1.28475651e-01, 1.16504498e-01,
          1.54792085e-01, 1.80291533e-01, 9.51067656e-02, 8.46908391e-02,
          1.50665462e-01, 1.00459322e-01, 3.65777999e-01, 1.50477678e-01,
          8.92066807e-02, 3.41074727e-02, 9.32144150e-02, 2.52197713e-01,
          2.03295305e-01, 1.54651269e-01, 3.67262550e-02, 2.38948449e-01,
          8.04253817e-02, 1.03302203e-01, 8.59079584e-02, 2.15944573e-01,
          7.19184875e-02, 1.03325017e-01, 1.26642466e-01, 1.30852714e-01,
          2.12297142e-01, 1.30065709e-01, 1.44931182e-01, 2.21446082e-01,
          7.79253095e-02, 1.37549624e-01, 1.61115855e-01, 1.20364033e-01,
          1.14501685e-01, 3.43832225e-01, 1.03228219e-01, 1.64353609e-01,
          1.83781087e-01, 9.26084742e-02, 1.84711263e-01, 2.02422142e-01,
          1.09534293e-01, 6.27591610e-02, 2.50290990e-01, 1.44353896e-01,
          1.27359614e-01, 1.23092711e-01, 1.22163080e-01, 2.08549783e-01,
          1.90862328e-01, 1.24668233e-01, 7.65371099e-02, 3.31324130e-01,
          1.44718453e-01, 1.71810269e-01, 1.63417578e-01, 1.63358033e-01,
          1.69572651e-01, 1.09636769e-01, 7.43627921e-02, 4.82747629e-02,
          2.33674556e-01, 8.21591839e-02, 2.08857134e-01, 1.65346742e-01,
          1.54852629e-01, 1.83906689e-01, 7.58991092e-02, 6.45268857e-02,
          3.70906927e-02, 1.95946828e-01, 5.20565510e-02, 2.44953007e-01,
          1.54319257e-01, 1.88304350e-01, 2.38356262e-01, 1.93917289e-01,
          1.32240474e-01, 1.29171565e-01, 2.57467449e-01, 1.35175079e-01,
          1.84907213e-01, 1.33003533e-01, 2.03558549e-01, 1.83788493e-01,
          1.65248081e-01, 1.75275505e-01, 1.28731221e-01, 2.79631883e-01,
          7.76644200e-02, 2.20785871e-01, 9.38116536e-02, 1.59689113e-01,
          1.87303722e-01, 1.36909500e-01, 1.37532204e-01, 8.94187689e-02,
          9.08848792e-02, 4.64147739e-02, 1.03032000e-01, 1.69960618e-01,
          2.04169303e-01, 1.83167204e-01, 2.39788339e-01, 2.61553645e-01,
          2.47547641e-01, 7.46430829e-02, 8.49964097e-02, 2.58239478e-01,
          2.05945000e-01, 1.67415038e-01, 1.09965257e-01, 8.93781483e-02,
          9.95159373e-02, 2.62765326e-02, 2.52239466e-01, 7.69316629e-02,
          1.84456527e-01, 1.38073906e-01, 1.36519089e-01, 1.50279671e-01,
          2.74636269e-01, 1.51035443e-01, 5.39902747e-02, 1.98975340e-01,
          7.86836073e-02, 2.22703859e-01, 2.01562926e-01, 1.35878250e-01,
          1.07190453e-01, 1.69693112e-01, 1.26188084e-01, 8.69782716e-02,
          1.06243469e-01, 5.03681488e-02, 2.18172237e-01, 1.35464892e-01,
          7.60084912e-02, 6.71342760e-02, 9.36976224e-02, 1.95450142e-01,
          2.06351578e-01, 2.96049565e-01, 5.66880293e-02, 1.90629885e-01,
          1.24194019e-01, 5.78846782e-02, 1.11519463e-01, 2.09135011e-01,
          8.82944316e-02, 3.66547555e-02, 1.68280095e-01, 4.87118997e-02,
          1.68595210e-01, 1.25255227e-01, 6.97171763e-02, 6.63374588e-02,
          6.44999444e-02, 1.31263435e-01, 1.68371201e-01, 2.84776300e-01,
          1.36492759e-01, 4.65160191e-01, 2.89787829e-01, 7.30291903e-02,
          7.68262967e-02, 5.50504029e-02, 1.11672491e-01, 1.32950276e-01,
          1.50039002e-01, 8.75862539e-02, 2.36276820e-01, 2.80158430e-01,
          8.13413784e-02, 3.46286893e-01, 1.32804722e-01, 4.71835174e-02,
          4.91441116e-02, 6.25200123e-02, 7.49735907e-02, 2.06137896e-01,
          3.47767472e-01, 2.38969415e-01, 7.92426765e-02, 6.48809969e-02,
          8.19787085e-02, 1.15018420e-01, 1.75271109e-01, 1.52331099e-01,
          3.68335217e-01, 1.84038162e-01, 5.63943423e-02, 1.74935088e-01,
          1.11849055e-01, 5.97849563e-02, 6.76325858e-02, 1.32378906e-01,
          1.11842938e-01, 1.94413230e-01, 1.52807981e-01, 1.14828445e-01,
          4.87730145e-01, 2.98252016e-01, 6.44121543e-02, 5.20044491e-02,
          9.26767439e-02, 7.24716112e-02, 1.14051387e-01, 1.34166643e-01,
          2.48320088e-01, 1.74012974e-01, 1.66466594e-01, 1.50973618e-01,
          8.65511149e-02, 1.59462899e-01, 1.26533285e-01, 1.71885729e-01,
          1.14254221e-01, 1.32413954e-01, 1.38339490e-01, 1.44827083e-01,
          1.40729353e-01, 7.51372129e-02, 2.26358667e-01, 1.01624534e-01,
          1.35933086e-01, 8.67710933e-02, 8.87468979e-02, 6.66295439e-02,
          1.26581565e-01, 2.33901858e-01, 5.72928190e-02, 2.76193589e-01,
          1.01821646e-01, 1.64758727e-01, 8.38955715e-02, 6.34172484e-02,
          1.06911846e-01, 8.21992084e-02, 2.23176256e-01, 6.79365918e-02,
          2.08563045e-01, 6.48920164e-02, 9.71324816e-02, 5.44115379e-02,
          1.24289282e-01, 3.25388581e-01, 2.12463751e-01, 1.88693956e-01,
          1.04123987e-02, 1.48818135e-01, 3.38435583e-02, 7.42284730e-02,
          4.35145162e-02, 2.81869113e-01, 8.32996294e-02, 1.26200601e-01,
          2.79648423e-01, 1.49543090e-02, 3.68538827e-01, 2.78483722e-02,
          1.14129566e-01, 6.37640804e-02, 8.30913633e-02, 1.48505613e-01,
          1.83553889e-01, 2.96837181e-01, 2.46048868e-02, 3.40304732e-01,
          4.18557301e-02, 8.39119926e-02, 3.52600701e-02, 1.22717917e-01,
          2.81364471e-01, 2.50208706e-01, 1.39882535e-01, 4.19710875e-02,
          1.73630074e-01, 6.19389415e-02, 6.25031069e-02, 3.32623161e-02,
          1.88062876e-01, 2.98413366e-01, 2.08797425e-01, 1.30607575e-01,
          4.55924161e-02, 2.12533534e-01, 5.54951467e-02, 5.84336482e-02,
          6.82590157e-02, 2.50082970e-01, 1.18840702e-01, 1.17295995e-01,
          1.87277764e-01, 3.15626301e-02, 3.14558238e-01, 2.06223428e-01,
          1.28485844e-01, 3.76235098e-02, 9.55979526e-02, 1.84629947e-01,
          7.09046498e-02, 8.34825933e-02, 9.15975031e-03, 3.44391346e-01,
          1.79560885e-01, 1.47501871e-01, 5.36052957e-02, 1.74245283e-01,
          3.33740830e-01, 2.07702264e-01, 1.31199539e-01, 7.72080794e-02,
          1.56510025e-01, 3.81171145e-02, 5.39507829e-02, 4.27536443e-02,
          2.78566152e-01, 2.63120472e-01, 1.65291071e-01, 1.79073915e-01,
          8.66608694e-02, 2.28473663e-01, 4.34207134e-02, 1.64756387e-01,
          4.87281941e-02, 1.94885060e-01, 2.62871385e-01, 5.87194972e-02,
          6.23182654e-02, 2.57951976e-03, 2.06746399e-01, 2.18056682e-02,
          8.55889022e-02, 3.82275023e-02, 2.51214802e-01, 3.07569832e-01,
          1.10936984e-01, 1.53713480e-01, 3.56668085e-02, 2.20753819e-01,
          2.30495762e-02, 1.04187578e-01, 5.92661947e-02, 2.46807665e-01,
          1.65905833e-01, 1.55625179e-01, 8.18425715e-02, 2.75237262e-02,
          1.58716157e-01, 4.65294346e-02, 1.02656960e-01, 1.93234503e-01,
          2.07807705e-01, 1.38228640e-01, 1.74098104e-01, 1.22185759e-01,
          2.91645620e-02, 2.36183181e-01, 3.51978838e-02, 8.59393850e-02,
          1.90683976e-01, 1.49484977e-01, 3.14393491e-01, 2.28660479e-01,
          8.71030614e-02, 2.47889087e-02, 1.36993065e-01, 1.24002947e-03,
          7.22533241e-02, 2.58259028e-01, 3.31137270e-01, 2.40598440e-01,
          2.01904431e-01, 1.56657785e-01, 3.58693227e-02, 2.24779055e-01,
          1.71020394e-03, 4.33291905e-02, 1.62669927e-01, 2.53249168e-01,
          9.35711265e-02, 7.22778141e-02, 5.75153120e-02, 1.74613521e-02,
          1.97375864e-01, 1.93474442e-02, 9.69663039e-02, 1.29120514e-01,
          1.09701209e-01, 8.02368224e-02, 4.79304306e-02, 8.19819346e-02,
          7.39035532e-02, 1.71565190e-01, 1.79488584e-01, 3.60090703e-01,
          2.61146069e-01, 1.31187677e-01, 2.32875854e-01, 6.60976395e-02,
          6.99717179e-02, 1.18162958e-02, 1.54220924e-01, 1.54873368e-03,
          5.76149523e-02, 1.47423491e-01, 2.94422448e-01, 2.06534550e-01,
          1.58177316e-01, 2.35151410e-01, 1.58021376e-01, 1.87239483e-01,
          8.41383263e-02, 1.37888834e-01, 2.67113596e-01, 3.48673224e-01,
          8.08632523e-02, 9.20891911e-02, 9.22381803e-02, 1.01534896e-01,
          1.29462078e-01, 2.10899875e-01, 3.12044948e-01, 1.22592792e-01,
          7.35914186e-02, 9.62680727e-02, 1.00842156e-01, 7.03988746e-02,
          1.26056999e-01, 2.49250010e-01, 1.75261930e-01, 1.64683878e-01,
          6.85081258e-02, 6.90243244e-02, 1.26664802e-01, 1.88772067e-01,
          2.49910384e-01, 2.24480748e-01, 1.94560200e-01, 1.61078215e-01,
          1.01132751e-01, 1.15455486e-01, 1.44941941e-01, 6.70507178e-02,
          8.45049471e-02, 1.11614540e-01, 1.71708912e-01, 3.89262795e-01,
          2.97564387e-01, 1.83599085e-01, 8.63405988e-02, 6.58906400e-02,
          3.13359872e-02, 6.01625741e-02, 8.92237425e-02, 6.27691150e-02,
          2.21453637e-01, 1.55043393e-01, 1.85835972e-01, 1.02466457e-01,
          3.08557320e-02, 4.98796739e-02, 6.58065230e-02, 1.25145689e-01,
          2.72219516e-02, 2.11144805e-01, 8.43143389e-02, 1.96598694e-01,
          1.32862985e-01, 5.29328696e-02, 6.42249966e-03, 2.01357473e-02,
          7.05939457e-02, 9.16315466e-02, 4.29605454e-01, 2.88226187e-01,
          2.58635551e-01, 1.36880368e-01, 2.91361213e-02, 6.26439229e-02,
          4.82862629e-02, 7.23546594e-02, 7.71707520e-02, 4.57022786e-01,
          2.27746934e-01, 2.22117096e-01, 1.54582933e-01, 7.62544125e-02,
          9.49163884e-02, 1.16597384e-01, 1.22947589e-01, 1.01748742e-02,
          2.56074846e-01, 2.96202973e-02, 1.39891669e-01, 1.14571713e-01,
          8.93873647e-02, 1.29203066e-01, 2.24265903e-01, 2.30584428e-01,
          1.00721277e-01, 2.47817397e-01, 5.71708456e-02, 1.08095393e-01,
          7.65966177e-02, 8.20361599e-02, 1.93651184e-01, 1.47934526e-01,
          8.53670090e-02, 3.57504748e-02, 2.70466119e-01, 8.55095536e-02,
          1.71579316e-01, 2.03746855e-01, 1.91926345e-01, 2.27817491e-01,
          2.60498911e-01, 2.71101385e-01, 1.40388921e-01, 1.34934351e-01,
          5.74020073e-02, 2.36188173e-01, 2.47893080e-01, 1.45632982e-01,
          1.14369616e-01, 1.54410630e-01, 2.10941076e-01, 1.23173334e-01,
          1.96738020e-01, 1.75610811e-01, 1.14859387e-01, 4.66789491e-02,
          7.70504773e-02, 1.28264457e-01, 4.47063930e-02, 5.16857170e-02,
          2.96950545e-02, 2.17731476e-01, 1.54982671e-01, 2.48634607e-01,
          1.07078351e-01, 1.29587397e-01, 2.10509673e-01, 2.87189275e-01,
          2.93142945e-01, 1.64208129e-01, 1.24754615e-01, 6.31205738e-02,
          1.67620406e-01, 1.43900186e-01, 1.24956831e-01, 1.79845944e-01,
          1.74359590e-01, 1.31827056e-01, 7.18278885e-02, 2.68400401e-01,
          8.44687149e-02, 2.69057155e-01, 1.77427858e-01, 1.73623264e-01,
          1.60199285e-01, 1.09623903e-02, 3.51395048e-02, 1.16313491e-02,
          2.16197520e-01, 4.09036353e-02, 1.86812371e-01, 9.11313295e-02,
          1.68013036e-01, 2.48189017e-01, 4.08395194e-02, 1.01882935e-01,
          1.70245767e-02, 2.05232561e-01, 2.30950993e-02, 5.25425710e-02,
          1.48944318e-01, 2.66235262e-01, 1.79125547e-01, 4.70741838e-02,
          1.45138353e-01, 9.99304801e-02, 2.80196875e-01, 1.04832485e-01,
          2.09595799e-01, 1.05467558e-01, 1.88652650e-01, 3.86764169e-01,
          2.35789586e-02, 8.63989443e-02, 3.38037945e-02, 1.55703127e-01,
          3.21238488e-02, 8.50381702e-02, 1.55933976e-01, 4.13994819e-01 ]
      - [ 3.37780207e-01, 1.25166709e-02, 7.16523407e-03, 0.,
          6.85303006e-03, 0., 4.28223168e-04, 2.09199172e-02,
          3.64029080e-01, 2.45239079e-01, 2.68701389e-02, 1.63528137e-02,
          0., 2.08527651e-02, 7.16131693e-03, 2.23395731e-02,
